tree
version=v3
num_class=1
num_tree_per_iteration=1
label_index=0
max_feature_idx=109
objective=regression
feature_names=Column_0 Column_1 Column_2 Column_3 Column_4 Column_5 Column_6 Column_7 Column_8 Column_9 Column_10 Column_11 Column_12 Column_13 Column_14 Column_15 Column_16 Column_17 Column_18 Column_19 Column_20 Column_21 Column_22 Column_23 Column_24 Column_25 Column_26 Column_27 Column_28 Column_29 Column_30 Column_31 Column_32 Column_33 Column_34 Column_35 Column_36 Column_37 Column_38 Column_39 Column_40 Column_41 Column_42 Column_43 Column_44 Column_45 Column_46 Column_47 Column_48 Column_49 Column_50 Column_51 Column_52 Column_53 Column_54 Column_55 Column_56 Column_57 Column_58 Column_59 Column_60 Column_61 Column_62 Column_63 Column_64 Column_65 Column_66 Column_67 Column_68 Column_69 Column_70 Column_71 Column_72 Column_73 Column_74 Column_75 Column_76 Column_77 Column_78 Column_79 Column_80 Column_81 Column_82 Column_83 Column_84 Column_85 Column_86 Column_87 Column_88 Column_89 Column_90 Column_91 Column_92 Column_93 Column_94 Column_95 Column_96 Column_97 Column_98 Column_99 Column_100 Column_101 Column_102 Column_103 Column_104 Column_105 Column_106 Column_107 Column_108 Column_109
feature_infos=[0:1] [0:1] [0:1] [0:1] [0:1] [0:1] [0:1] [0:1] [0:1] [0:1] [0:1] [0:1] [0:1] [0:1] [0:1] [0:1] [0:1] [0:1] [0:1] [0:1] [0:1] [0:1] [0:1] [0:1] [0:1] [0:1] [0:1] [0:1] [0:1] [0:1] [0:1] [0:1] [0:1] [0:1] [0:1] [0:1] [0:1] [0:1] [0:1] [0:1] [0:1] [0:1] [0:1] [0:1] [0:1] [0:1] [0:1] [0:1] [0:1] [0:1] [0:1] [0:1] [0:1] [0:1] [0:1] [0:1] [0:1] [0:1] [0:1] [0:1] [0:1] [0:1] [0:1] [0:1] [0:1] [0:1] [0:1] [0:1] [0:1] [0:1] [0:1] [0:1] [0:1] [0:1] [0:1] [0:1] [0:1] [0:1] [0:1] [0:1] [0:1] [0:1] [0:1] [0:1] [0:1] [0:1] [0:1] [0:1] [0:1] [0:1] [0:1] [0:1] [0:1] [0:1] [0:1] [0:1] [0:1] [0:1] [0:1] [4:2500] [4:2500] [4:2501] [4:2501] [4:2500] [4:2500] [4:2500] [4:2501] [4:2500] [4:2501] [4:2501]
tree_sizes=6020 6039 6024 6040 6035 6049 6047 6058 6063 6051 6059 6048 6088 6061 6069 6076 6078 6092 6091 6092 6093 6100 6105 6120 6112 6125 6109 6126 6139 6108 6127 6120 6144 6142 6131 6123 6130 6132 6170 6093 6131 6156 6163 6138 6184 6124 6154 6162 6134 6140 6144 6152 6144 6149 6127 6143 6128 6144 6128 6136 6131 6137 6143 6125 6147 6154 6159 6131 6143 6140 6138 6132 6158 6158 6159 6154 6146 6123 6154 6155 6126 6130 6132 6144 6155 6145 6116 6134 6153 6118 6134 6069 6142 6091 6153 6078 6085 6138 6103 6070 6098 6078 6114 6108 6112 6132 6127 6086 6138 6067 6140 6125 6136 6097 6095 6106 6084 6081 6087 6086 6082 6086 6090 6092 6097 6087 6055 6083 6074 6062 6069 6082 6100 6065 6055 6075 6069 6039 6042 6065 6081 6018 6039 5999 6100 6090 6025 6056 6040 6071 6007 5996 6024 6021 6033 6006 6045 5970 5952 5972 6056 6032 6008 6034 6058 6043 5986 5986 6029 6072 5991 5953 6046 6008 5988 5958 5975 5978 5942 5969 6003 6017 5965 5960 5949 5938 5941 5899 6039 5951 5934 5934 5934 5897 5929 5957 5883 5920 5901 5912 5903 5994 5990 5909 5908 5911 5925 5888 5854 5905 5935 5914 5893 5904 5973 5978 5949 5912 5956 5899 5865 5896 5875 5920 5834 5876 5854 5912 5912 5836 5879 5935 5952 5859 5978 5834 5889 5924 5876 5983 5951 5909 5930 5902 5890 5885 5826 5839 5836 5906 5913 5860 5897 5880 5888 5884 5888 6003 5861 5873 5936 5911 5875 5922 5887 5848 5833 5828 5795 5820 5925 5953 5883 5877 5903 5860 5870 5883 5821 5915 5921 5864 5820 5853 5864 5832 5850 5947 5850 5843 5814 5891 5814 5832 5844 5834 5846 5839 5854 5951 5949 5824 5823 5913 5887 5870 5819 6040 5826 5941 5814 5857 5868 5875 5889 5817 5901 5910 5904 5817 6036 5835 5864 5868 5854 5927 5875 5851 5879 5884 5881 5785 5877 5876 5805 5830 6000 5820 5849 5877 5864 5908 5813 5837 5896 5846 5830 5817 5875 5876 5812 5856 5831 5843 5869 5869 5859 5952 5858 5840 5878 5903 5851 5875 5838 5848 5821 5860 5859 5816 5879 5915 5835 5894 5867 5908 5803 5841 5910 5896 5857 5798 5837 5877 5870 5896 5875 5851 5788 5827 5934 5791 5837 5848 5925 5915 5799 5860 5863 5893 5878 6004 5851 5855 5808 5878 5978 5901 5844 5809 5873 5831 5805 5887 5849 5827 5821 5827 5837 5935 5860 5805 5855 5871 5854 5947 5839 5847 5888 5845 5789 5866 5869 5900 5919 5829 5908 5948 5915 5900 5886 5865 5802 5838 5853 5998 5865 5879 5878 5820 5855 5986 5844 5882 5962 5855 5901 5810 5933 5900 5877 5911 6014 5917 5825 5817 5963 5880 5884 5897 5837 5810 5873 5882 5876 5861 5828 5848 5875 5936 5823 5864 5953 5851 5863 5900 5881 5897 5859 6001 5867 5875 5897 5863 5832 5881 5885 5884 5840 5878 5858 5891 5860 5868 5892 5964 5853 5859 5925 5974 5883 5877 5828 5933 5988 5831 5893 5860 5849 5894 5909 5835 5820 5850 5904 5866 5896 5898 5904 5879 5878 5954 5848 5840 5869 5923 5851 5879 5940 5924 5875 5857 5866 5859 5815 5881 5878 5859 5877 5895 5903 5879 5831 5862 5847 5939 5885 5909 5922 5796 5911 5811 5919 5936 5903 5954 5881 5925 5835 5856 5852 5866 5900 5921 5810 5868 5803 5867 5857 5839 5896 5873 5900 5894 5900 5931 5909 5843 5860 5869 5873 5831 5885 5845 5903 5910 5911 5907 5842 5916 5949 5858 5847 5838 5971 5869 5953 5947 5834 5835 5876 5884 5798 5856

Tree=0
num_leaves=63
num_cat=0
split_feature=108 108 108 108 105 100 108 98 106 98 54 98 95 37 70 95 84 95 54 96 67 95 90 90 50 86 50 96 98 88 37 70 89 94 50 89 86 91 57 86 100 90 89 98 89 88 88 6 44 67 88 96 76 93 70 67 87 57 98 37 90 50
split_gain=19679.5 4212.78 2490.54 699.65 641.44 468.832 357.366 347.912 236.252 229.486 198.386 171.182 164.167 153.116 170.354 151.966 145.934 143.087 138.66 163.404 125.327 111.949 109.58 106.099 118.591 103.777 98.2224 94.0072 92.6204 89.0328 88.5338 86.9526 89.7116 85.8495 84.8663 82.4645 82.3838 75.7664 75.1825 73.8222 73.5732 72.9492 68.7891 67.4252 67.3997 67.2375 67.2318 66.1806 64.8543 64.5994 64.5014 71.0815 63.4445 61.8596 58.9581 58.4867 56.7692 56.717 54.8617 53.4811 52.8478 52.6761
threshold=30.500000000000004 15.500000000000002 50.500000000000007 20.500000000000004 80.500000000000014 12.500000000000002 40.500000000000007 1.0000000180025095e-35 235.50000000000003 1.0000000180025095e-35 1.0000000180025095e-35 1.0000000180025095e-35 1.0000000180025095e-35 1.0000000180025095e-35 1.0000000180025095e-35 1.0000000180025095e-35 1.0000000180025095e-35 1.0000000180025095e-35 1.0000000180025095e-35 1.0000000180025095e-35 1.0000000180025095e-35 1.0000000180025095e-35 1.0000000180025095e-35 1.0000000180025095e-35 1.0000000180025095e-35 1.0000000180025095e-35 1.0000000180025095e-35 1.0000000180025095e-35 1.0000000180025095e-35 1.0000000180025095e-35 1.0000000180025095e-35 1.0000000180025095e-35 1.0000000180025095e-35 1.0000000180025095e-35 1.0000000180025095e-35 1.0000000180025095e-35 1.0000000180025095e-35 1.0000000180025095e-35 1.0000000180025095e-35 1.0000000180025095e-35 10.500000000000002 1.0000000180025095e-35 1.0000000180025095e-35 1.0000000180025095e-35 1.0000000180025095e-35 1.0000000180025095e-35 1.0000000180025095e-35 1.0000000180025095e-35 1.0000000180025095e-35 1.0000000180025095e-35 1.0000000180025095e-35 1.0000000180025095e-35 1.0000000180025095e-35 1.0000000180025095e-35 1.0000000180025095e-35 1.0000000180025095e-35 1.0000000180025095e-35 1.0000000180025095e-35 1.0000000180025095e-35 1.0000000180025095e-35 1.0000000180025095e-35 1.0000000180025095e-35
decision_type=2 2 2 2 2 2 2 2 2 2 2 2 2 2 2 2 2 2 2 2 2 2 2 2 2 2 2 2 2 2 2 2 2 2 2 2 2 2 2 2 2 2 2 2 2 2 2 2 2 2 2 2 2 2 2 2 2 2 2 2 2 2
left_child=1 5 6 9 17 22 11 10 53 16 13 15 25 14 33 18 20 37 29 26 23 28 40 24 36 27 39 34 38 30 54 32 43 41 35 49 42 46 50 44 -1 45 52 55 48 -5 57 -15 -20 56 51 -8 -3 59 -2 60 -12 58 -4 -6 61 -7
right_child=2 3 4 7 8 31 21 -9 -10 -11 12 -13 -14 47 -16 -17 -18 -19 19 -21 -22 -23 -24 -25 -26 -27 -28 -29 -30 -31 -32 -33 -34 -35 -36 -37 -38 -39 -40 -41 -42 -43 -44 -45 -46 -47 -48 -49 -50 -51 -52 -53 -54 -55 -56 -57 -58 -59 -60 -61 -62 -63
leaf_value=-0.058878165279011394 0.0079740403785404351 -0.033013398070660456 0.036903024538559079 -0.010294941620376795 0.053705924032009626 -0.041370221869412749 0.024493499442109445 -0.048573512744400006 0.10259934494104495 -0.051810924800265903 -0.020545971559227966 -0.041291066310035221 0.017202825822505406 0.014386114106523108 0.029158130207805819 0.033303179851248532 -0.0036123715653185316 0.058620863448157597 -0.0046983783205497278 0.029347726606154673 -0.0051788677014572822 0.045945189176255029 -0.030323174985573208 -0.0068342328915504107 -0.013018226404691437 0.012017604211597048 0.025122189822598649 0.008564420011158428 -0.031103949754993487 0.046754937885254241 0.026564046650133108 -0.002707244278563664 -0.018646111879639535 0.024305876995215987 0.0031107532546537074 0.0018910931558324998 -0.0065954221832227183 0.050138590167992728 0.0074095811890246303 0.028332287420712192 -0.048285349876667542 0.0082436558337195317 -0.011911679788555734 -0.056086992707611749 0.018168356271037182 0.016393282764983665 0.063106239927858979 -0.014798349762105645 0.022913364718442537 0.0018925758905428912 0.05741298082626918 0.041389099342234295 -0.019428538123620241 0.083984667288469927 0.039372490476057856 -0.020962865566157996 -0.0013894402975219656 0.019625201686609202 -0.017913750741805939 0.066391538625113156 -0.018253271388863273 -0.030935644300596032
leaf_weight=3264 1939 4224 5895 3717 2128 3967 5002 415 364 506 4296 144 609 2753 410 893 1650 941 3367 686 1325 730 550 1078 2041 509 462 546 72 269 1418 214 757 248 723 638 464 1101 505 231 3293 767 566 424 422 252 221 209 227 409 175 711 1079 259 162 625 425 545 46 1363 353 1740
leaf_count=3264 1939 4224 5895 3717 2128 3967 5002 415 364 506 4296 144 609 2753 410 893 1650 941 3367 686 1325 730 550 1078 2041 509 462 546 72 269 1418 214 757 248 723 638 464 1101 505 231 3293 767 566 424 422 252 221 209 227 409 175 711 1079 259 162 625 425 545 46 1363 353 1740
internal_value=1.13009e-08 -0.020953 0.0311727 -0.010048 0.0478584 -0.0423931 0.0188484 -0.00335769 0.064141 -0.0188039 -0.0022212 0.0128387 -0.00776906 0.00319321 -0.00182232 0.0136123 -0.0174599 0.0402019 0.0116974 0.00654915 -0.01958 0.0273848 -0.0517602 -0.0215988 -0.0234995 -0.00978442 0.00322789 -0.0113614 0.0252891 0.0190298 0.0169104 -0.034154 -0.0350095 -0.00437088 -0.0130375 -0.0150616 -0.0268774 0.0379821 0.0259242 0.000846173 -0.0535583 -0.00587253 -0.0284808 -0.036752 -0.000734826 -0.00860045 0.0359865 0.0123268 -0.0029544 -0.01717 0.0275121 0.0265962 -0.0302493 0.060408 0.0103951 -0.0355256 -0.0188214 0.0350624 0.0364786 0.0586588 -0.0370276 -0.0381888
internal_weight=0 45046 30278 29859 12863 15187 17415 16926 4114 12933 16511 10220 8155 8356 5394 10076 12427 8749 9183 5395 10777 7195 7107 9452 8374 7546 4709 7037 6465 3788 3519 8080 7866 4984 6491 5768 6333 7808 6393 4247 6557 4736 5869 7109 4016 3969 6707 2962 3594 5130 5888 5713 5303 3750 2101 6685 4721 6486 5941 3491 6060 5707
internal_count=75324 45046 30278 29859 12863 15187 17415 16926 4114 12933 16511 10220 8155 8356 5394 10076 12427 8749 9183 5395 10777 7195 7107 9452 8374 7546 4709 7037 6465 3788 3519 8080 7866 4984 6491 5768 6333 7808 6393 4247 6557 4736 5869 7109 4016 3969 6707 2962 3594 5130 5888 5713 5303 3750 2101 6685 4721 6486 5941 3491 6060 5707
shrinkage=1


Tree=1
num_leaves=63
num_cat=0
split_feature=106 101 105 106 106 100 106 98 90 98 90 106 92 98 86 70 88 95 95 95 85 67 50 90 90 95 90 89 67 50 85 106 98 92 64 80 84 50 76 84 92 86 88 76 57 86 50 76 70 80 39 100 75 89 86 85 88 89 85 80 70 93
split_gain=17704.7 3774.49 2302.46 606.894 564.604 404.035 357.942 312.965 260.305 213.169 184.454 183.954 179.431 158.424 157.995 159.71 150.618 146.689 137.502 125.741 123.653 123.613 120.212 112.162 108.531 107.814 98.8963 98.7524 98.2091 91.1592 89.6882 89.3593 88.0708 82.3598 80.2977 77.2619 76.1082 74.5312 93.8541 73.8994 71.9222 69.5971 68.462 69.1024 64.3566 64.291 65.9283 63.7825 61.6419 60.1804 58.8646 57.7088 57.1654 55.2309 53.2804 52.5794 55.4127 51.1521 51.1086 49.3186 49.131 48.5767
threshold=30.500000000000004 15.500000000000002 50.500000000000007 20.500000000000004 90.500000000000014 12.500000000000002 40.500000000000007 1.0000000180025095e-35 1.0000000180025095e-35 1.0000000180025095e-35 1.0000000180025095e-35 235.50000000000003 1.0000000180025095e-35 1.0000000180025095e-35 1.0000000180025095e-35 1.0000000180025095e-35 1.0000000180025095e-35 1.0000000180025095e-35 1.0000000180025095e-35 1.0000000180025095e-35 1.0000000180025095e-35 1.0000000180025095e-35 1.0000000180025095e-35 1.0000000180025095e-35 1.0000000180025095e-35 1.0000000180025095e-35 1.0000000180025095e-35 1.0000000180025095e-35 1.0000000180025095e-35 1.0000000180025095e-35 1.0000000180025095e-35 65.500000000000014 1.0000000180025095e-35 1.0000000180025095e-35 1.0000000180025095e-35 1.0000000180025095e-35 1.0000000180025095e-35 1.0000000180025095e-35 1.0000000180025095e-35 1.0000000180025095e-35 1.0000000180025095e-35 1.0000000180025095e-35 1.0000000180025095e-35 1.0000000180025095e-35 1.0000000180025095e-35 1.0000000180025095e-35 1.0000000180025095e-35 1.0000000180025095e-35 1.0000000180025095e-35 1.0000000180025095e-35 1.0000000180025095e-35 10.500000000000002 1.0000000180025095e-35 1.0000000180025095e-35 1.0000000180025095e-35 1.0000000180025095e-35 1.0000000180025095e-35 1.0000000180025095e-35 1.0000000180025095e-35 1.0000000180025095e-35 1.0000000180025095e-35 1.0000000180025095e-35
decision_type=2 2 2 2 2 2 2 2 2 2 2 2 2 2 2 2 2 2 2 2 2 2 2 2 2 2 2 2 2 2 2 2 2 2 2 2 2 2 2 2 2 2 2 2 2 2 2 2 2 2 2 2 2 2 2 2 2 2 2 2 2 2
left_child=1 5 6 9 17 26 13 8 12 10 21 -6 14 16 15 18 19 31 20 24 27 22 33 29 30 32 42 28 34 53 35 54 40 39 37 36 45 38 49 41 44 57 43 51 55 46 47 -2 -24 52 -10 -1 -5 -7 58 56 -8 -3 59 -4 -31 -33
right_child=2 3 4 7 11 23 25 -9 50 -11 -12 -13 -14 -15 -16 -17 -18 -19 -20 -21 -22 -23 48 -25 -26 -27 -28 -29 -30 60 -32 61 -34 -35 -36 -37 -38 -39 -40 -41 -42 -43 -44 -45 -46 -47 -48 -49 -50 -51 -52 -53 -54 -55 -56 -57 -58 -59 -60 -61 -62 -63
leaf_value=-0.059330013534454544 -0.0088549107658381001 -0.030125275536923086 0.02619908779592291 -0.02259192196509327 0.05968804799628772 -0.040397674453372071 0.02231507195321919 -0.046097063390599893 0.016351436276038491 -0.049232031812403446 -0.0012706790966166941 0.097469364692057886 0.0220536861079378 -0.040336369663580424 0.010082976554006896 0.0239970723162014 0.043403197123145686 0.057551220539876782 0.013638629087435654 0.030235535550184378 0.0084351862363917438 -0.0050604993773855434 -0.013543296459600826 -0.014784365543105069 0.020580752499539157 0.043335521687285522 -0.028807027992877095 0.0027858242460204186 -0.00040362392350829938 -0.028599770567462934 0.025145969975415513 0.042015317674594821 -0.029898002579808236 0.0072272672897102826 -0.053789406476447178 0.016685656658829526 0.017061229844565515 -0.0042028580155255351 -0.0071417976545538019 -0.010939219507171695 0.046268710741022019 -0.0076854675364132242 -0.023330248755599383 -0.040217235740309137 0.0062468654376716011 0.022889510115486116 0.013962684979959698 0.0049159951742664097 0.01577995633375524 -0.010178346975335798 0.0015739649505896261 -0.048867439160308446 -0.054818792974615428 -0.02101335195148021 0.047649882259445456 0.038443687871263309 0.052561040308613041 -0.013751078479190292 0.046783933825872044 0.040407373049917324 0.00027151470414445367 0.068380603467559684
leaf_weight=2675 2374 5116 2983 3648 2804 4278 5170 422 1875 523 1685 364 571 144 1284 369 379 1018 612 802 782 1370 1986 786 1787 804 550 991 1184 2187 609 3458 75 201 137 1175 770 1291 1670 798 362 428 218 1066 506 289 595 1302 197 1030 1052 2598 143 402 545 633 156 526 459 768 158 184
leaf_count=2675 2374 5116 2983 3648 2804 4278 5170 422 1875 523 1685 364 571 144 1284 369 379 1018 612 802 782 1370 1986 786 1787 804 550 991 1184 2187 609 3458 75 201 137 1175 770 1291 1670 798 362 428 218 1066 506 289 595 1302 197 1030 1052 2598 143 402 545 633 156 526 459 768 158 184
internal_value=0 -0.0200042 0.0293747 -0.0097524 0.0457705 -0.0405457 0.0178697 -0.00357412 -0.00249565 -0.0179681 -0.0166395 0.0640291 -0.00538505 0.0117374 -0.00657731 -0.00838146 0.0124812 0.0396268 -0.00942148 0.0112734 -0.0107191 -0.0190775 -0.0211531 -0.0326967 0.00956482 0.0260074 -0.0491722 -0.012203 -0.0138348 -0.0347008 0.00679767 0.0374537 0.0239889 -0.0243203 -0.0158429 0.0050799 0.0025214 -0.0151749 -0.0173571 -0.0252436 0.0245809 -0.0271241 -0.0508804 -0.0518279 0.0233665 6.62135e-05 -0.00147814 -0.0039774 -0.0108971 -0.0208957 0.0110402 -0.0541751 -0.0238075 -0.0387326 0.0329396 0.0248202 0.023201 -0.0285987 0.0310353 0.0291082 -0.0266545 0.0433473
internal_weight=0 44809 30515 29891 12583 14918 17932 17061 16639 12830 12307 3168 13712 10226 13141 11857 10082 9415 11488 9703 10876 10622 9252 7811 8901 7706 7107 10094 9103 7025 7114 8397 6902 7069 7919 6505 5330 7782 6491 6868 6827 6070 6557 6339 6465 4560 4271 3676 2183 4821 2927 5273 3791 4680 4755 5959 5326 5642 4210 3751 2345 3642
internal_count=75324 44809 30515 29891 12583 14918 17932 17061 16639 12830 12307 3168 13712 10226 13141 11857 10082 9415 11488 9703 10876 10622 9252 7811 8901 7706 7107 10094 9103 7025 7114 8397 6902 7069 7919 6505 5330 7782 6491 6868 6827 6070 6557 6339 6465 4560 4271 3676 2183 4821 2927 5273 3791 4680 4755 5959 5326 5642 4210 3751 2345 3642
shrinkage=0.05


Tree=2
num_leaves=63
num_cat=0
split_feature=108 101 108 108 105 100 108 98 98 99 97 95 85 98 92 89 54 96 54 95 97 95 90 67 64 88 37 95 92 90 92 70 96 88 37 70 90 70 85 98 70 89 77 44 77 96 95 88 96 44 76 85 92 89 64 70 84 37 93 77 72 61
split_gain=16035.5 3429.02 2031.27 589.92 525.679 364.642 290.904 283.484 194.849 189.435 185.089 175.281 162.95 139.468 135.189 133.29 127.596 124.413 150.024 115.848 110.219 101.572 101.227 100.385 96.2336 92.4596 91.8066 91.4005 89.6052 89.2539 85.3437 83.1962 82.4459 80.869 83.2741 80.7634 80.6017 79.2708 75.873 75.3051 71.5379 70.2824 68.5114 67.6124 69.7967 65.7995 64.598 64.046 63.6253 62.5326 61.9673 60.1997 58.4043 57.0572 56.2831 55.9058 54.5898 53.7725 53.586 52.5643 51.0251 50.8319
threshold=30.500000000000004 15.500000000000002 50.500000000000007 20.500000000000004 80.500000000000014 12.500000000000002 40.500000000000007 1.0000000180025095e-35 1.0000000180025095e-35 230.50000000000003 1.0000000180025095e-35 1.0000000180025095e-35 1.0000000180025095e-35 1.0000000180025095e-35 1.0000000180025095e-35 1.0000000180025095e-35 1.0000000180025095e-35 1.0000000180025095e-35 1.0000000180025095e-35 1.0000000180025095e-35 1.0000000180025095e-35 1.0000000180025095e-35 1.0000000180025095e-35 1.0000000180025095e-35 1.0000000180025095e-35 1.0000000180025095e-35 1.0000000180025095e-35 1.0000000180025095e-35 1.0000000180025095e-35 1.0000000180025095e-35 1.0000000180025095e-35 1.0000000180025095e-35 1.0000000180025095e-35 1.0000000180025095e-35 1.0000000180025095e-35 1.0000000180025095e-35 1.0000000180025095e-35 1.0000000180025095e-35 1.0000000180025095e-35 1.0000000180025095e-35 1.0000000180025095e-35 1.0000000180025095e-35 1.0000000180025095e-35 1.0000000180025095e-35 1.0000000180025095e-35 1.0000000180025095e-35 1.0000000180025095e-35 1.0000000180025095e-35 1.0000000180025095e-35 1.0000000180025095e-35 1.0000000180025095e-35 1.0000000180025095e-35 1.0000000180025095e-35 1.0000000180025095e-35 1.0000000180025095e-35 1.0000000180025095e-35 1.0000000180025095e-35 1.0000000180025095e-35 1.0000000180025095e-35 1.0000000180025095e-35 1.0000000180025095e-35 1.0000000180025095e-35
decision_type=2 2 2 2 2 2 2 2 2 2 2 2 2 2 2 2 2 2 2 2 2 2 2 2 2 2 2 2 2 2 2 2 2 2 2 2 2 2 2 2 2 2 2 2 2 2 2 2 2 2 2 2 2 2 2 2 2 2 2 2 2 2
left_child=1 5 6 8 19 29 13 10 15 58 11 12 14 17 16 20 25 18 33 38 23 30 37 28 32 26 35 39 31 42 41 36 43 34 55 -5 46 53 40 45 48 49 50 44 -18 47 54 51 56 59 57 52 -8 61 -3 -2 60 -1 -6 -20 -4 -7
right_child=2 3 4 7 9 22 27 -9 -10 -11 -12 -13 -14 -15 -16 -17 24 -19 21 -21 -22 -23 -24 -25 -26 -27 -28 -29 -30 -31 -32 -33 -34 -35 -36 -37 -38 -39 -40 -41 -42 -43 -44 -45 -46 -47 -48 -49 -50 -51 -52 -53 -54 -55 -56 -57 -58 -59 -60 -61 -62 -63
leaf_value=-0.054612160241900409 0.0072357152911738734 -0.024113692340726404 0.026324254127338909 -0.0097378779177403896 0.052953464314576586 -0.034098802695281774 0.017518821582696135 -0.043842526996530684 -0.04674330976901761 0.092128883189645405 0.021983017216313929 0.017602451403373444 0.013322086449620886 -0.037272306811064485 0.018182548126070827 -0.001476512365958147 -0.016668811081365146 0.029791485020434261 -0.0057028848595689074 0.052850015899691016 0.0081674867354202037 0.025137710214033063 -0.014045147248958509 -0.0058760977282367351 -0.047083728450693585 0.021279559754813562 0.0048910819029865356 0.041481475492760746 0.0047773358557691974 -0.027366676434874539 0.030250821821391584 0.0069311762627746387 0.0080650626770952197 0.042692364207545269 0.025129387447894981 0.021150776550972038 -0.0071321617991950874 -0.0021756930854813809 0.047857861596234431 -0.028032117031721607 0.063958256266249167 0.018811549836905993 -0.027193477069084322 0.0094452395429549044 -0.0021246201523628483 0.037158614177139802 -0.00065331573982694451 0.051472186260571373 0.044452061061035192 0.021505283384030401 -0.038432028331041798 0.035828894196290872 0.042814271996418636 -0.019368085659459813 -0.064327776042575197 0.037452366842652664 0.040005784325676259 -0.042489873522875365 0.076568341686917368 0.010115326221768313 0.04948167121594408 -0.052054291536445876
leaf_weight=3967 1966 7722 4548 3829 3487 5783 4638 415 533 369 767 954 1179 144 552 1425 4481 922 3037 941 397 561 786 1346 190 396 2080 730 339 550 264 252 522 305 1447 224 807 203 909 72 176 492 362 326 1011 764 293 173 850 281 1039 578 240 616 88 166 1074 1189 258 635 251 423
leaf_count=3967 1966 7722 4548 3829 3487 5783 4638 415 533 369 767 954 1179 144 552 1425 4481 922 3037 941 397 561 786 1346 190 396 2080 730 339 550 264 252 522 305 1447 224 807 203 909 72 176 492 362 326 1011 764 293 173 850 281 1039 578 240 616 88 166 1074 1189 258 635 251 423
internal_value=0 -0.0189139 0.028139 -0.00920659 0.0432079 -0.0385184 0.0170089 -0.00302751 -0.0171287 0.0579482 -0.00200163 -0.00317009 -0.00450998 0.0115868 -0.00605462 -0.0158827 -0.00707911 0.012285 0.0105218 0.0362766 -0.0177085 0.00502662 -0.0310619 -0.0186556 -0.0120211 -0.00213638 -0.00364831 0.0247108 -0.020466 -0.0467136 0.00263072 -0.0214 -0.0109703 0.0179778 0.0158717 -0.00803073 -0.0222013 -0.0329658 0.0342793 0.0228171 0.0324902 0.00099029 -0.0483364 -0.0126782 -0.0139914 0.0233898 -0.0237021 0.021521 0.0316664 -0.00122779 -0.0495719 0.0205713 0.0187634 -0.033882 -0.0245668 0.00958842 0.0298159 -0.0518167 0.0545803 -0.00296744 0.0275354 -0.0353226
internal_weight=0 45046 30278 30128 12863 14918 17415 16926 13202 4114 16511 15744 14790 10220 13611 12669 13059 10076 9154 8749 11244 5270 7811 10847 6530 6529 6133 7195 9501 7107 4709 9162 6340 3884 3579 4053 8910 7025 7808 6465 6899 4445 6557 5818 5492 6393 8103 5629 6723 3953 6195 5456 4878 6822 7810 2132 5873 5156 3745 3672 4799 6206
internal_count=75324 45046 30278 30128 12863 14918 17415 16926 13202 4114 16511 15744 14790 10220 13611 12669 13059 10076 9154 8749 11244 5270 7811 10847 6530 6529 6133 7195 9501 7107 4709 9162 6340 3884 3579 4053 8910 7025 7808 6465 6899 4445 6557 5818 5492 6393 8103 5629 6723 3953 6195 5456 4878 6822 7810 2132 5873 5156 3745 3672 4799 6206
shrinkage=0.05


Tree=3
num_leaves=63
num_cat=0
split_feature=108 108 105 108 108 106 106 98 91 98 92 84 95 50 98 95 84 95 54 96 98 97 86 95 37 86 57 92 50 83 50 76 92 91 98 88 96 75 106 67 29 106 88 37 89 50 76 86 89 90 67 90 61 11 90 50 89 85 79 90 80 89
split_gain=14472.1 3094.81 1844.27 515.97 497.522 349.177 321.701 255.845 170.979 168.856 159.922 149.317 134.412 129.1 125.87 122.41 120.239 115.511 106.933 131.644 105.908 102.769 104.844 98.5443 99.6446 96.6989 92.4565 89.139 84.2303 83.7512 79.8887 80.8594 79.1078 78.3018 74.1097 72.1205 77.924 70.4803 68.6906 66.1411 66.1131 65.8919 65.2448 69.4623 61.3139 61.3555 64.4269 60.2746 59.8457 58.1539 56.4799 54.2829 53.8442 51.8311 51.5188 50.7253 49.3083 49.0617 48.9235 48.6147 46.4663 45.2033
threshold=30.500000000000004 15.500000000000002 60.500000000000007 20.500000000000004 40.500000000000007 12.500000000000002 130.50000000000003 1.0000000180025095e-35 1.0000000180025095e-35 1.0000000180025095e-35 1.0000000180025095e-35 1.0000000180025095e-35 1.0000000180025095e-35 1.0000000180025095e-35 1.0000000180025095e-35 1.0000000180025095e-35 1.0000000180025095e-35 1.0000000180025095e-35 1.0000000180025095e-35 1.0000000180025095e-35 1.0000000180025095e-35 1.0000000180025095e-35 1.0000000180025095e-35 1.0000000180025095e-35 1.0000000180025095e-35 1.0000000180025095e-35 1.0000000180025095e-35 1.0000000180025095e-35 1.0000000180025095e-35 1.0000000180025095e-35 1.0000000180025095e-35 1.0000000180025095e-35 1.0000000180025095e-35 1.0000000180025095e-35 1.0000000180025095e-35 1.0000000180025095e-35 1.0000000180025095e-35 1.0000000180025095e-35 9.5000000000000018 1.0000000180025095e-35 1.0000000180025095e-35 235.50000000000003 1.0000000180025095e-35 1.0000000180025095e-35 1.0000000180025095e-35 1.0000000180025095e-35 1.0000000180025095e-35 1.0000000180025095e-35 1.0000000180025095e-35 1.0000000180025095e-35 1.0000000180025095e-35 1.0000000180025095e-35 1.0000000180025095e-35 1.0000000180025095e-35 1.0000000180025095e-35 1.0000000180025095e-35 1.0000000180025095e-35 1.0000000180025095e-35 1.0000000180025095e-35 1.0000000180025095e-35 1.0000000180025095e-35 1.0000000180025095e-35
decision_type=2 2 2 2 2 2 2 2 2 2 2 2 2 2 2 2 2 2 2 2 2 2 2 2 2 2 2 2 2 2 2 2 2 2 2 2 2 2 2 2 2 2 2 2 2 2 2 2 2 2 2 2 2 2 2 2 2 2 2 2 2 2
left_child=1 5 4 9 14 38 23 8 10 16 11 13 20 15 17 21 25 18 42 28 26 22 29 24 58 27 33 30 32 37 31 39 47 35 44 36 40 49 -1 54 48 -8 43 -2 45 46 52 53 51 50 56 57 -7 61 60 59 -5 -6 -4 -40 -3 -20
right_child=2 3 6 7 12 34 41 -9 -10 -11 -12 -13 -14 -15 -16 -17 -18 -19 19 -21 -22 -23 -24 -25 -26 -27 -28 -29 -30 -31 -32 -33 -34 -35 -36 -37 -38 -39 55 -41 -42 -43 -44 -45 -46 -47 -48 -49 -50 -51 -52 -53 -54 -55 -56 -57 -58 -59 -60 -61 -62 -63
leaf_value=-0.053626719246566416 0.0088550252083694301 -0.030848778263189099 0.036956742645432764 -0.019971150560727662 0.016518611673260322 -0.033605870656621864 0.062666567427000594 -0.041650400067404676 0.014756220487171798 -0.044453738832739537 0.020747303479503709 0.0076440111657124768 0.041850534046209482 0.004135325475636312 -0.035408692726761934 0.013367381234737961 -0.0024183734142870614 0.028838153822975356 -0.0032269096205030964 0.025943602628071872 -0.026913756927475337 0.015714359053325456 0.0057433623510488073 0.059293134685095387 0.049106626232985423 -0.0019036168217292577 0.008664027599886534 0.0067083491979281571 0.022774137334003079 -0.0026210890923019973 -0.010723390014324506 -0.011995242815124631 0.028115439336144084 0.03884366321792334 -0.048882003447003997 0.04987695859916344 0.036559987663172831 -0.04176289728853988 -0.045943196431228961 -0.0088918350004713476 -0.0079105873807118494 0.087989452325708262 0.040174459490135705 0.023177004154451057 -0.01460219886545362 -0.02163564562201873 -0.021142895451422172 0.024247830900179079 0.034846989984370483 -0.0032363200311731032 -0.003381471949803211 0.029363125130398515 -0.055997216974766353 -0.024993039649507779 -0.012159226304102114 -0.032877286297963319 -0.0017061894708694358 0.034022043292194132 0.0059167896504051815 -0.026046927842694717 -0.018574875579367021 0.01528503683436176
leaf_weight=1584 2101 3564 4101 4446 4158 3782 873 415 1409 506 653 2139 1218 2258 144 572 1650 893 3174 686 100 361 805 781 2204 976 818 341 462 1538 2105 1643 241 1082 454 272 1029 247 3935 601 182 364 269 1418 759 1798 1020 217 874 967 713 1428 289 247 563 1233 403 443 131 333 984 368
leaf_count=1584 2101 3564 4101 4446 4158 3782 873 415 1409 506 653 2139 1218 2258 144 572 1650 893 3174 686 100 361 805 781 2204 976 818 341 462 1538 2105 1643 241 1082 454 272 1029 247 3935 601 182 364 269 1418 759 1798 1020 217 874 967 713 1428 289 247 563 1233 403 443 131 333 984 368
internal_value=0 -0.0179682 0.0267321 -0.00862149 0.0190517 -0.0363446 0.046559 -0.00287613 -0.00190155 -0.0161407 -0.0034557 -0.00454952 0.0261366 -0.00666828 0.0110074 -0.00909511 -0.0149878 0.0116708 0.0100013 0.00548025 0.0242937 -0.0104504 -0.0114862 0.0425209 0.0404857 -0.0169123 0.0247916 -0.0184069 0.00249918 -0.0131545 -0.0193122 -0.0217703 0.000293619 0.0261849 -0.0292548 0.0245516 0.0237027 -0.0155453 -0.044452 -0.024582 0.0218353 0.0701181 0.0164404 0.0146261 -0.0280897 -0.0295757 -0.03238 -0.00138013 0.0226196 -0.0145535 -0.0165211 0.020847 -0.0351954 -0.00284787 -0.026427 -0.0418102 -0.0184532 0.0182039 0.0359959 -0.0443908 -0.0281932 -0.00130359
internal_weight=0 45046 30278 29859 21824 15187 8454 16926 16511 12933 15102 14449 11604 12310 10220 10052 12427 10076 9183 5395 10386 9480 9119 7217 6436 10777 10286 9801 4709 8314 9460 7355 4247 9468 8102 8386 8114 6776 7085 5712 7085 1237 3788 3519 7648 6889 5091 4006 6903 6529 5562 6029 4071 3789 5111 5501 4849 4601 4232 4268 4548 3542
internal_count=75324 45046 30278 29859 21824 15187 8454 16926 16511 12933 15102 14449 11604 12310 10220 10052 12427 10076 9183 5395 10386 9480 9119 7217 6436 10777 10286 9801 4709 8314 9460 7355 4247 9468 8102 8386 8114 6776 7085 5712 7085 1237 3788 3519 7648 6889 5091 4006 6903 6529 5562 6029 4071 3789 5111 5501 4849 4601 4232 4268 4548 3542
shrinkage=0.05


Tree=4
num_leaves=63
num_cat=0
split_feature=108 101 108 108 106 106 106 98 98 97 95 91 106 92 89 84 50 86 50 95 92 97 84 96 90 86 50 92 86 86 98 70 76 95 90 91 77 76 90 106 98 80 97 92 89 11 95 50 96 50 83 86 80 79 90 80 50 76 75 86 92 71
split_gain=13061 2797.39 1669.05 479.297 436.875 299.769 232.801 230.9 158.713 156.43 146.674 136.482 132.823 128.1 118.796 117.907 117.321 114.935 113.945 112.228 98.0183 97.8043 97.4557 99.2202 95.0975 94.6218 82.5136 81.9216 80.6433 80.6002 79.3543 78.4232 76.8257 76.5807 69.1926 68.1613 65.5419 65.0587 64.7042 64.0984 62.0353 58.721 58.6853 57.047 55.5879 55.5614 54.8798 55.0218 54.833 56.1785 53.0822 52.2324 50.7113 52.7892 49.9284 48.436 47.915 55.3502 47.6025 46.2302 45.7609 45.6751
threshold=30.500000000000004 15.500000000000002 50.500000000000007 20.500000000000004 90.500000000000014 12.500000000000002 40.500000000000007 1.0000000180025095e-35 1.0000000180025095e-35 1.0000000180025095e-35 1.0000000180025095e-35 1.0000000180025095e-35 235.50000000000003 1.0000000180025095e-35 1.0000000180025095e-35 1.0000000180025095e-35 1.0000000180025095e-35 1.0000000180025095e-35 1.0000000180025095e-35 1.0000000180025095e-35 1.0000000180025095e-35 1.0000000180025095e-35 1.0000000180025095e-35 1.0000000180025095e-35 1.0000000180025095e-35 1.0000000180025095e-35 1.0000000180025095e-35 1.0000000180025095e-35 1.0000000180025095e-35 1.0000000180025095e-35 1.0000000180025095e-35 1.0000000180025095e-35 1.0000000180025095e-35 1.0000000180025095e-35 1.0000000180025095e-35 1.0000000180025095e-35 1.0000000180025095e-35 1.0000000180025095e-35 1.0000000180025095e-35 8.5000000000000018 1.0000000180025095e-35 1.0000000180025095e-35 1.0000000180025095e-35 1.0000000180025095e-35 1.0000000180025095e-35 1.0000000180025095e-35 1.0000000180025095e-35 1.0000000180025095e-35 1.0000000180025095e-35 1.0000000180025095e-35 1.0000000180025095e-35 1.0000000180025095e-35 1.0000000180025095e-35 1.0000000180025095e-35 1.0000000180025095e-35 1.0000000180025095e-35 1.0000000180025095e-35 1.0000000180025095e-35 1.0000000180025095e-35 1.0000000180025095e-35 1.0000000180025095e-35 1.0000000180025095e-35
decision_type=2 2 2 2 2 2 2 2 2 2 2 2 2 2 2 2 2 2 2 2 2 2 2 2 2 2 2 2 2 2 2 2 2 2 2 2 2 2 2 2 2 2 2 2 2 2 2 2 2 2 2 2 2 2 2 2 2 2 2 2 2 2
left_child=1 5 6 8 19 36 17 9 14 10 11 13 -6 15 21 16 25 18 20 28 22 27 23 30 26 32 60 29 35 31 34 37 38 40 45 42 39 46 41 -1 43 58 44 48 50 61 47 55 49 59 52 54 53 -4 56 -3 57 -41 -5 -8 -7 -2
right_child=2 3 4 7 12 24 33 -9 -10 -11 -12 -13 -14 -15 -16 -17 -18 -19 -20 -21 -22 -23 -24 -25 -26 -27 -28 -29 -30 -31 -32 -33 -34 -35 -36 -37 -38 -39 -40 51 -42 -43 -44 -45 -46 -47 -48 -49 -50 -51 -52 -53 -54 -55 -56 -57 -58 -59 -60 -61 -62 -63
leaf_value=-0.057005156878825049 -0.001605454165447598 -0.028118305146749241 0.021280859297959989 -0.019116080836779927 0.051485953231564012 -0.034039923226842635 0.01462331922667557 -0.039567879568112189 -0.042170580993467634 0.020243274488011581 0.016121343570513421 0.01207944718442403 0.083589981877050565 0.017884456684280719 -0.00071788300260117177 0.0050563320145904072 0.0023602455089972428 0.027773988413032399 0.022487394682938179 0.04923172517163809 0.030275612514278873 0.008333268184543257 0.017912716931033044 0.0220143337562567 -0.012150844970082 0.0054561942612162294 -0.021206463464845102 0.0058711318661899946 0.046882115616334569 -0.0031985852227949386 -0.041173237365936595 0.0082185153660248034 -0.0042157038704876684 0.036907246677303766 0.011578956163004687 0.042203837045606624 -0.021800444895834714 -0.012604334333660261 -0.0026908911147992634 -0.049441535715082016 -0.025558241486090094 -0.0075380510762082589 0.044726933667466925 0.040733636234996512 0.040203237407519646 -0.026806042643175237 0.00071555926906041419 -0.014828979013323168 0.032680094717070465 0.030930380750804731 0.034772743281634669 -0.021100882450750067 0.033271214127062874 -0.012213839143209282 -0.026009188576202949 -0.016466448711408978 -0.035228415361774144 -0.034511297290011581 -0.047805345342538205 0.033067834615181001 -0.0017189532412365744 0.023637735324495653
leaf_weight=763 3827 4060 3287 4007 2804 4932 4422 415 533 767 954 1197 364 560 1425 1877 2037 862 1283 1049 408 397 1238 592 841 805 1948 380 815 871 112 256 2095 773 1269 1051 372 2335 876 3274 73 1186 516 340 725 210 251 1551 720 730 1203 295 927 122 416 1143 1199 766 150 368 112 188
leaf_count=763 3827 4060 3287 4007 2804 4932 4422 415 533 767 954 1197 364 560 1425 1877 2037 862 1283 1049 408 397 1238 592 841 805 1948 380 815 871 112 256 2095 773 1269 1051 372 2335 876 3274 73 1186 516 340 725 210 251 1551 720 730 1203 295 927 122 416 1143 1199 766 150 368 112 188
internal_value=0 -0.0170698 0.0253955 -0.008302 0.0390549 -0.0347769 0.0153064 -0.00273232 -0.0154428 -0.00180647 -0.00288067 -0.00410636 0.0551747 -0.00553168 -0.0143183 -0.00653782 -0.00848854 0.010322 0.00867372 0.0337875 0.00641429 -0.0160419 0.00510507 0.00254684 -0.0280361 -0.0109119 -0.0299467 -0.0169341 0.0319137 -0.017762 0.000491053 -0.0190839 -0.0124968 0.0220112 0.00134042 0.0303559 -0.0422294 -0.0198322 -0.0152864 -0.0433615 0.0202804 -0.0173515 0.0285193 0.020789 0.0271841 -0.00173478 -0.0222415 -0.0230946 0.0197023 0.0180095 0.0254801 -0.0416119 0.0229019 0.0200822 -0.0426819 -0.0255586 -0.0440057 -0.0466107 -0.0201513 0.0160404 -0.0333222 -0.000423457
internal_weight=0 45046 30278 30128 12863 14918 17415 16926 13202 16511 15744 14790 3168 13593 12669 13033 11156 9989 9127 9695 7844 11244 7436 6198 7833 9119 6992 10847 8646 10467 5606 9596 8314 7426 5494 7831 7085 9340 6219 6713 6653 5343 6780 6580 6264 4225 7005 6754 6240 5520 5539 5950 4336 3409 5655 5203 5239 4040 4157 4790 5044 4015
internal_count=75324 45046 30278 30128 12863 14918 17415 16926 13202 16511 15744 14790 3168 13593 12669 13033 11156 9989 9127 9695 7844 11244 7436 6198 7833 9119 6992 10847 8646 10467 5606 9596 8314 7426 5494 7831 7085 9340 6219 6713 6653 5343 6780 6580 6264 4225 7005 6754 6240 5520 5539 5950 4336 3409 5655 5203 5239 4040 4157 4790 5044 4015
shrinkage=0.05


Tree=5
num_leaves=63
num_cat=0
split_feature=106 101 105 100 106 100 106 98 64 98 84 88 92 96 84 54 97 86 95 95 98 37 95 70 89 98 61 98 67 89 57 37 67 71 95 44 89 92 70 86 70 86 83 96 69 109 70 29 86 11 37 75 106 6 92 74 94 70 84 92 78 96
split_gain=11764 2504.25 1546.27 422.374 407.204 270.996 266.409 207.787 144.365 140.811 137.632 123.958 119.824 116.574 114.184 112.209 111.262 114.661 99.8855 90.1826 88.2985 84.6835 83.5587 85.6112 82.0852 81.4866 80.5613 80.3784 80.3004 80.2777 77.4617 77.0252 76.492 80.3962 71.8189 68.2789 67.1046 66.9554 65.8542 65.2814 66.6268 64.1771 62.2076 62.1312 59.8613 58.2728 58.0175 58.4565 56.7371 55.2086 54.2843 52.3741 51.7962 50.8542 49.4432 48.9182 51.1687 47.8246 45.9755 45.2568 45.3517 45.1913
threshold=30.500000000000004 15.500000000000002 60.500000000000007 42.500000000000007 20.500000000000004 11.500000000000002 130.50000000000003 1.0000000180025095e-35 1.0000000180025095e-35 1.0000000180025095e-35 1.0000000180025095e-35 1.0000000180025095e-35 1.0000000180025095e-35 1.0000000180025095e-35 1.0000000180025095e-35 1.0000000180025095e-35 1.0000000180025095e-35 1.0000000180025095e-35 1.0000000180025095e-35 1.0000000180025095e-35 1.0000000180025095e-35 1.0000000180025095e-35 1.0000000180025095e-35 1.0000000180025095e-35 1.0000000180025095e-35 1.0000000180025095e-35 1.0000000180025095e-35 1.0000000180025095e-35 1.0000000180025095e-35 1.0000000180025095e-35 1.0000000180025095e-35 1.0000000180025095e-35 1.0000000180025095e-35 1.0000000180025095e-35 1.0000000180025095e-35 1.0000000180025095e-35 1.0000000180025095e-35 1.0000000180025095e-35 1.0000000180025095e-35 1.0000000180025095e-35 1.0000000180025095e-35 1.0000000180025095e-35 1.0000000180025095e-35 1.0000000180025095e-35 1.0000000180025095e-35 13.500000000000002 1.0000000180025095e-35 1.0000000180025095e-35 1.0000000180025095e-35 1.0000000180025095e-35 1.0000000180025095e-35 1.0000000180025095e-35 235.50000000000003 1.0000000180025095e-35 1.0000000180025095e-35 1.0000000180025095e-35 1.0000000180025095e-35 1.0000000180025095e-35 1.0000000180025095e-35 1.0000000180025095e-35 1.0000000180025095e-35 1.0000000180025095e-35
decision_type=2 2 2 2 2 2 2 2 2 2 2 2 2 2 2 2 2 2 2 2 2 2 2 2 2 2 2 2 2 2 2 2 2 2 2 2 2 2 2 2 2 2 2 2 2 2 2 2 2 2 2 2 2 2 2 2 2 2 2 2 2 2
left_child=1 5 3 11 9 58 21 8 10 14 12 13 16 15 28 31 17 22 27 20 24 34 23 29 35 26 39 30 36 32 37 57 33 42 59 48 38 43 41 40 45 55 44 46 51 -7 47 50 49 54 -5 61 -8 -33 -17 56 -3 -2 -1 60 -4 -6
right_child=2 4 6 18 7 25 52 -9 -10 -11 -12 -13 -14 -15 -16 19 -18 -19 -20 -21 -22 -23 -24 -25 -26 -27 -28 -29 -30 -31 -32 53 -34 -35 -36 -37 -38 -39 -40 -41 -42 -43 -44 -45 -46 -47 -48 -49 -50 -51 -52 -53 -54 -55 -56 -57 -58 -59 -60 -61 -62 -63
leaf_value=-0.044071307535690739 0.0057834831398728345 -0.022549998305339432 0.029745872662668139 0.018904845593672989 -0.016224152337195437 -0.032411226106621359 0.05695894104849978 -0.037543559333053533 -0.042343860478289259 -0.040095278608967083 0.0094788377383174232 0.036884540208692522 0.01818832066546126 0.025180682261412447 -0.0013787891775486835 -0.0025430160856412744 0.017054300970801625 0.0089472136696946598 0.038675585390838318 0.021396291219994805 -0.041907583678282963 0.046008986475224889 0.010679187984724808 0.018387244700143735 0.019826171946714564 -0.046606127954807813 -0.044862689406683934 -0.025413941933643509 -0.0040192148293013326 0.003985032250296899 0.0076156447998537427 0.023946433383701202 0.0012616212945062778 0.014621708252213218 0.051813016295321847 0.022381002858558798 -0.005047523838182388 0.042984263746144155 0.0077499377047238142 -0.010669249073764467 0.0010435741385627611 -0.0043932099386527227 -0.0029176605715059926 0.035280461921730684 0.0037307791236824654 -0.023830386911817939 0.049166530195067566 -0.0084802973402164344 0.023212590987258908 -0.02426892621943387 0.0290491671537466 -0.039529621065085896 0.079410480640337372 -0.0029408075534499804 0.023228995178289219 -0.0063047461375430394 0.0049143455456942325 0.033660517839423143 -0.026927013478249884 0.05324449053889483 0.052036334185488808 0.0026500940489183581
leaf_weight=4529 2102 6695 3744 4714 5651 3760 873 422 219 523 2440 430 615 1078 1653 3685 579 1263 1095 632 115 2449 637 300 598 572 602 86 1332 1116 737 1792 1263 275 536 322 1021 464 230 647 204 656 1309 971 407 4176 188 164 221 279 1831 229 364 195 196 546 174 166 428 245 243 336
leaf_count=4529 2102 6695 3744 4714 5651 3760 873 422 219 523 2440 430 615 1078 1653 3685 579 1263 1095 632 115 2449 637 300 598 572 602 86 1332 1116 737 1792 1263 275 536 322 1021 464 230 647 204 656 1309 971 407 4176 188 164 221 279 1831 229 364 195 196 546 174 166 428 245 243 336
internal_value=0 -0.0163063 0.0239446 0.0169771 -0.00795583 -0.0330381 0.0421264 -0.00289506 -0.0020163 -0.0146855 -0.00147843 0.0105321 -0.00339086 0.00953646 -0.0136057 0.00789961 -0.00438384 -0.00535464 0.0244037 0.00352292 0.00143726 0.0384517 -0.00692223 -0.00795218 0.00237758 -0.0282841 -0.0271679 0.0226967 -0.0155027 -0.00869862 0.0231529 0.0141206 -0.0101933 -0.0119562 0.0345701 0.000158942 -0.0171436 0.0245272 -0.0186314 -0.0259556 -0.0271706 -0.0193832 -0.0128776 0.0234388 -0.0148462 -0.0278959 0.0217716 0.021004 -0.00147436 -0.00278586 0.0217428 -0.0160625 0.0635655 0.0213078 -0.00124147 -0.0207093 -0.0218543 0.00782387 -0.042591 0.0323862 0.0311044 -0.0151649
internal_weight=0 44809 30515 22061 29891 14918 8454 17061 16639 12830 16420 11811 13980 11381 12307 10303 13365 12786 10250 6048 5416 7217 11523 10886 5301 9961 9389 9155 10654 10586 9069 4255 9470 8207 4768 4703 9322 8332 8301 8787 8140 8071 7932 7868 6623 7936 6897 6709 4381 4160 6545 6216 1237 1987 3881 7415 6869 2268 4957 4232 3987 5987
internal_count=75324 44809 30515 22061 29891 14918 8454 17061 16639 12830 16420 11811 13980 11381 12307 10303 13365 12786 10250 6048 5416 7217 11523 10886 5301 9961 9389 9155 10654 10586 9069 4255 9470 8207 4768 4703 9322 8332 8301 8787 8140 8071 7932 7868 6623 7936 6897 6709 4381 4160 6545 6216 1237 1987 3881 7415 6869 2268 4957 4232 3987 5987
shrinkage=0.05


Tree=6
num_leaves=63
num_cat=0
split_feature=108 108 108 108 108 106 106 98 85 85 90 80 98 70 86 84 84 98 89 67 96 67 37 90 95 71 64 95 95 70 86 91 96 77 76 98 83 75 106 89 80 89 96 84 90 70 67 89 106 82 64 79 79 84 49 39 70 74 90 47 82 86
split_gain=10653.1 2277.76 1372.1 379.527 362.728 256.867 245.297 188.331 147.758 131.917 129.961 127.156 124.229 115.674 110.623 98.7661 96.326 88.4689 83.9986 83.3684 82.6567 79.1462 76.464 72.2269 70.4233 70.1884 66.2656 65.9563 65.0099 63.1603 61.5327 61.2424 60.7535 59.2607 58.8413 58.788 58.5077 57.5802 56.4112 55.4229 55.3492 53.6584 50.9908 53.2726 49.9328 49.2662 50.5211 49.0913 46.7461 46.0183 44.1593 42.9334 41.8749 41.7627 41.0085 40.2374 39.9113 39.8189 39.8081 39.5954 39.1889 38.6182
threshold=30.500000000000004 15.500000000000002 60.500000000000007 20.500000000000004 45.500000000000007 12.500000000000002 130.50000000000003 1.0000000180025095e-35 1.0000000180025095e-35 1.0000000180025095e-35 1.0000000180025095e-35 1.0000000180025095e-35 1.0000000180025095e-35 1.0000000180025095e-35 1.0000000180025095e-35 1.0000000180025095e-35 1.0000000180025095e-35 1.0000000180025095e-35 1.0000000180025095e-35 1.0000000180025095e-35 1.0000000180025095e-35 1.0000000180025095e-35 1.0000000180025095e-35 1.0000000180025095e-35 1.0000000180025095e-35 1.0000000180025095e-35 1.0000000180025095e-35 1.0000000180025095e-35 1.0000000180025095e-35 1.0000000180025095e-35 1.0000000180025095e-35 1.0000000180025095e-35 1.0000000180025095e-35 1.0000000180025095e-35 1.0000000180025095e-35 1.0000000180025095e-35 1.0000000180025095e-35 1.0000000180025095e-35 8.5000000000000018 1.0000000180025095e-35 1.0000000180025095e-35 1.0000000180025095e-35 1.0000000180025095e-35 1.0000000180025095e-35 1.0000000180025095e-35 1.0000000180025095e-35 1.0000000180025095e-35 1.0000000180025095e-35 235.50000000000003 1.0000000180025095e-35 1.0000000180025095e-35 1.0000000180025095e-35 1.0000000180025095e-35 1.0000000180025095e-35 1.0000000180025095e-35 1.0000000180025095e-35 1.0000000180025095e-35 1.0000000180025095e-35 1.0000000180025095e-35 1.0000000180025095e-35 1.0000000180025095e-35 1.0000000180025095e-35
decision_type=2 2 2 2 2 2 2 2 2 2 2 2 2 2 2 2 2 2 2 2 2 2 2 2 2 2 2 2 2 2 2 2 2 2 2 2 2 2 2 2 2 2 2 2 2 2 2 2 2 2 2 2 2 2 2 2 2 2 2 2 2 2
left_child=1 5 4 12 9 33 22 8 10 11 13 15 16 14 18 17 21 20 19 26 25 23 28 29 31 27 32 36 52 30 39 42 34 38 40 41 37 44 -1 50 57 45 43 -6 51 46 58 53 -8 -21 54 56 -4 61 -3 -12 -2 59 -7 -5 -23 -40
right_child=2 3 6 7 24 35 48 -9 -10 -11 55 -13 -14 -15 -16 -17 -18 -19 -20 49 -22 60 -24 -25 -26 -27 -28 -29 -30 -31 -32 -33 -34 -35 -36 -37 -38 -39 47 -41 -42 -43 -44 -45 -46 -47 -48 -49 -50 -51 -52 -53 -54 -55 -56 -57 -58 -59 -60 -61 -62 -63
leaf_value=-0.052010879865792607 -0.0023092757815356265 -0.021763571830126546 0.031516648676832876 -0.019137424630604367 0.017489902046719571 -0.028572171281553857 0.054110994391390825 -0.035737378442861949 0.014046828201501891 0.026462673822099388 0.011376700169828714 0.019731215333020816 -0.038131589806185882 0.022214884814823761 0.0083852207894479884 0.018309874569341692 -0.0016073057508152544 -0.032818793052367831 0.0054266713947327431 0.015733369811530319 0.021302732701335623 0.008997428086302486 0.043433537923177987 -0.004002509281170556 0.038442099980965871 0.024727228439501595 -0.045416267884361566 0.01912735540405645 0.048860715680580209 0.007312888424599269 -0.0042098771602304651 0.0359955452229734 0.0072442708235258158 -0.018709568308305839 -0.0037239162435754158 -0.042581417760401474 0.010624997867455252 -0.031241548795472175 -0.041368008281180889 -0.007024942166681189 -0.0046122425010429284 -0.011445332459439137 0.03346808104114752 0.030771609847954403 0.010575339897332016 0.0011294608672752101 -0.012575213173318518 -0.022878480981138174 0.075439957457666226 -0.0040997878612478809 -0.058207864399882972 -0.030308202184291918 0.0030214481041294042 -0.02523518335204052 -0.0041045617516171353 -0.0015191807568008696 0.031200977079160919 0.00038445765670287648 -0.012100110356684072 -0.0028504029438532526 -0.0092299195112081883 -0.020681256461762804
leaf_weight=763 3769 6255 4212 3959 4480 5703 873 415 1377 1305 1755 2545 506 373 1195 1668 1650 152 1105 444 767 443 2508 1078 845 389 137 575 552 244 689 820 463 372 1899 454 1367 153 4692 759 1281 759 772 908 896 170 624 519 364 857 80 134 133 502 347 923 91 331 392 412 882 237
leaf_count=763 3769 6255 4212 3959 4480 5703 873 415 1377 1305 1755 2545 506 373 1195 1668 1650 152 1105 444 767 443 2508 1078 845 389 137 575 552 244 689 820 463 372 1899 454 1367 153 4692 759 1281 759 772 908 896 170 624 519 364 857 80 134 133 502 347 923 91 331 392 412 882 237
internal_value=0 -0.0154162 0.0229354 -0.00739764 0.0162084 -0.0311813 0.0397768 -0.00247014 -0.00163398 0.0113354 -0.00306073 0.00975683 -0.0138465 -0.00520914 -0.00605571 0.00720841 -0.0128576 0.00497553 -0.00764066 -0.00911663 0.00568119 -0.0145801 0.0363339 -0.0161844 0.0248093 0.00405633 -0.0109243 0.00290515 0.0326978 -0.0177526 -0.0185049 0.0231589 -0.0103581 -0.038135 -0.0113921 -0.0251005 0.00144996 -0.00103711 -0.0392114 -0.0198285 -0.0138259 -0.0240628 0.0214501 0.0197282 -9.20585e-05 -0.0254529 -0.0261255 -0.0375701 0.0603873 0.00266879 -0.0212829 -0.00248515 0.0306444 -0.0389741 -0.0208354 0.006932 -0.00151927 -0.0163361 -0.0275128 -0.0176022 -0.00313579 -0.0403733
internal_weight=0 45046 30278 29859 21636 15187 8642 16926 16511 13811 15134 12506 12933 12456 12083 9961 12427 8293 10888 9783 8141 10777 7405 9452 7825 7374 8482 6985 4897 8374 8130 6980 8345 7085 7882 8102 6410 5043 6713 7441 5983 7648 6160 5388 4890 6889 6719 5950 1237 1301 6682 3994 4345 5431 6602 2678 3860 4702 6095 4371 1325 4929
internal_count=75324 45046 30278 29859 21636 15187 8642 16926 16511 13811 15134 12506 12933 12456 12083 9961 12427 8293 10888 9783 8141 10777 7405 9452 7825 7374 8482 6985 4897 8374 8130 6980 8345 7085 7882 8102 6410 5043 6713 7441 5983 7648 6160 5388 4890 6889 6719 5950 1237 1301 6682 3994 4345 5431 6602 2678 3860 4702 6095 4371 1325 4929
shrinkage=0.05


Tree=7
num_leaves=63
num_cat=0
split_feature=108 100 105 108 108 100 107 98 91 88 92 86 50 90 92 98 90 98 85 89 50 97 97 11 85 96 94 57 67 76 86 85 88 85 92 90 50 96 89 77 98 57 96 94 67 86 86 76 92 54 37 89 79 67 90 92 44 86 76 50 37 89
split_gain=9614.41 2064.91 1238.6 403.979 359.817 215.718 180.42 169.969 133.403 124.912 124.615 118.38 128.956 117.307 111.297 109.793 104.171 101.029 92.1747 89.3789 84.3584 81.4855 81.4243 81.4426 75.6071 74.282 73.6977 71.4331 70.3441 69.3229 69.5006 67.3332 67.003 65.4627 63.2399 60.8478 58.1353 55.8082 55.3556 54.4699 52.3158 51.6022 51.5149 51.9153 50.529 49.8586 49.3748 47.688 47.0511 45.3189 51.472 45.0235 44.6181 44.6463 44.486 44.0002 42.8782 41.6103 39.879 47.9414 41.2568 39.2847
threshold=30.500000000000004 15.500000000000002 65.500000000000014 45.500000000000007 20.500000000000004 11.500000000000002 140.50000000000003 1.0000000180025095e-35 1.0000000180025095e-35 1.0000000180025095e-35 1.0000000180025095e-35 1.0000000180025095e-35 1.0000000180025095e-35 1.0000000180025095e-35 1.0000000180025095e-35 1.0000000180025095e-35 1.0000000180025095e-35 1.0000000180025095e-35 1.0000000180025095e-35 1.0000000180025095e-35 1.0000000180025095e-35 1.0000000180025095e-35 1.0000000180025095e-35 1.0000000180025095e-35 1.0000000180025095e-35 1.0000000180025095e-35 1.0000000180025095e-35 1.0000000180025095e-35 1.0000000180025095e-35 1.0000000180025095e-35 1.0000000180025095e-35 1.0000000180025095e-35 1.0000000180025095e-35 1.0000000180025095e-35 1.0000000180025095e-35 1.0000000180025095e-35 1.0000000180025095e-35 1.0000000180025095e-35 1.0000000180025095e-35 1.0000000180025095e-35 1.0000000180025095e-35 1.0000000180025095e-35 1.0000000180025095e-35 1.0000000180025095e-35 1.0000000180025095e-35 1.0000000180025095e-35 1.0000000180025095e-35 1.0000000180025095e-35 1.0000000180025095e-35 1.0000000180025095e-35 1.0000000180025095e-35 1.0000000180025095e-35 1.0000000180025095e-35 1.0000000180025095e-35 1.0000000180025095e-35 1.0000000180025095e-35 1.0000000180025095e-35 1.0000000180025095e-35 1.0000000180025095e-35 1.0000000180025095e-35 1.0000000180025095e-35 1.0000000180025095e-35
decision_type=2 2 2 2 2 2 2 2 2 2 2 2 2 2 2 2 2 2 2 2 2 2 2 2 2 2 2 2 2 2 2 2 2 2 2 2 2 2 2 2 2 2 2 2 2 2 2 2 2 2 2 2 2 2 2 2 2 2 2 2 2 2
left_child=1 5 3 10 15 61 33 8 9 14 11 12 17 34 16 19 20 18 22 21 24 26 23 27 29 31 28 37 35 30 42 32 40 45 38 36 47 49 39 44 41 55 43 52 46 54 58 48 57 50 -2 -51 53 -6 -4 56 -5 -3 59 60 -7 -1
right_child=2 4 6 25 7 13 -8 -9 -10 -11 -12 -13 -14 -15 -16 -17 -18 -19 -20 -21 -22 -23 -24 -25 -26 -27 -28 -29 -30 -31 -32 -33 -34 -35 -36 -37 -38 -39 -40 -41 -42 -43 -44 -45 -46 -47 -48 -49 -50 51 -52 -53 -54 -55 -56 -57 -58 -59 -60 -61 -62 -63
leaf_value=-0.039895082396808369 0.0046071082801320161 -0.025154183717570763 0.030111531853575187 0.019660929091542226 -0.017235178556514748 -0.03989266849996418 0.059532349300570789 -0.033950510775468436 0.013161603389459884 0.016747235132868563 0.030888032557669188 0.02508623938675111 0.021293203245233955 -0.009928300986788657 0.016886077841950786 -0.035375074073741151 0.0046476038362496521 -0.033298320533940572 0.021792943211775776 -0.00065159861442578724 0.0023780144321869754 0.0085708047344308837 0.02447871565406062 -0.017605466639410563 0.007223374606558571 0.035806392499349055 0.0096220564837016069 -0.0093475973134423199 -0.0044091716551954594 -0.0024593614159177431 0.0035961941369949458 0.035224228493444511 0.046981225825627061 0.049958098918907394 -0.00076991052118730605 -0.0037977554029448818 -0.011682223155697103 0.019286224340480582 -0.015138773913571685 -0.012258984522327885 -0.023964533045776747 0.0062818235464757151 0.0038558432693816414 0.0089775048927707695 -0.017714420645242767 0.048239214760995484 -0.014934895800053381 -0.011864678750929163 0.0048479456882420426 0.00013487306636976161 0.018958695958460451 0.016882587709050212 -0.038134933954082413 -0.0023739795215257653 0.041363792380382708 0.037966007412436817 0.038308617526981725 -0.0078198360417910083 -0.024023194200136599 -0.025785281149728691 -0.027293398530915822 -0.024130365935177922
leaf_weight=4524 1558 4368 3428 5667 4520 3220 1024 415 1409 766 729 1134 1621 1051 612 541 2362 160 925 1442 2018 391 519 412 675 1203 304 769 1294 2190 591 923 238 821 214 817 2519 783 731 431 67 590 363 207 694 607 403 1220 148 3708 1043 450 229 569 1181 392 326 376 1033 1152 814 433
leaf_count=4524 1558 4368 3428 5667 4520 3220 1024 415 1409 766 729 1134 1621 1051 612 541 2362 160 925 1442 2018 391 519 412 675 1203 304 769 1294 2190 591 923 238 821 214 817 2519 783 731 431 67 590 363 207 694 607 403 1220 148 3708 1043 450 229 569 1181 392 326 376 1033 1152 814 433
internal_value=0 -0.0146454 0.0217886 0.0162116 -0.0071946 -0.0300264 0.0401262 -0.00234664 -0.00155228 -0.00292507 0.0107686 0.00964743 0.00818211 -0.025706 -0.0039762 -0.0133091 -0.00490652 0.0061241 0.0067445 -0.0123822 -0.00689269 -0.0138612 0.00523836 0.00409359 -0.00889486 0.0242036 -0.0146552 0.00516928 -0.0153423 -0.0101499 -0.0127494 0.022502 0.020889 0.0368345 -0.0276138 -0.0168397 -0.0180742 0.00664945 -0.0282914 -0.0295325 0.0200072 0.0204295 -0.0143901 -0.0155888 -0.0305501 0.0347688 -0.0318953 -0.0207086 -0.0229142 0.00518554 0.0103621 0.0019474 -0.0165451 -0.0155736 0.0329948 0.0217368 0.0206753 -0.0237803 -0.0329943 -0.0347813 -0.0373503 -0.038518
internal_weight=0 45046 30278 23217 30346 14700 7061 16926 16511 15102 13811 13082 11948 9743 14336 13420 13724 10327 10167 12879 11362 11437 9242 8723 9344 9406 11046 8311 10742 8669 6479 8203 7280 6037 8692 9448 8631 7542 8478 7747 7042 6975 5888 5525 7316 5216 6622 6112 4892 6759 2601 4158 5318 5089 4609 6385 5993 4744 6219 5186 4034 4957
internal_count=75324 45046 30278 23217 30346 14700 7061 16926 16511 15102 13811 13082 11948 9743 14336 13420 13724 10327 10167 12879 11362 11437 9242 8723 9344 9406 11046 8311 10742 8669 6479 8203 7280 6037 8692 9448 8631 7542 8478 7747 7042 6975 5888 5525 7316 5216 6622 6112 4892 6759 2601 4158 5318 5089 4609 6385 5993 4744 6219 5186 4034 4957
shrinkage=0.05


Tree=8
num_leaves=63
num_cat=0
split_feature=108 101 108 106 98 108 108 85 97 89 95 95 97 80 106 64 95 50 92 91 98 92 106 85 76 50 86 67 86 26 44 89 82 97 83 93 79 39 76 44 57 83 98 98 97 93 92 97 11 75 79 79 75 91 33 66 50 77 39 67 85 37
split_gain=8698.71 1576.67 1466.69 420.621 248.577 211.355 202.57 153.303 141.17 139.039 129.649 125.062 119.971 108.939 107.298 104.923 102.667 94.4694 93.1633 92.585 87.2525 86.5941 81.2177 77.9172 76.9389 73.0518 81.9675 72.8872 67.0176 69.3388 66.8032 66.3694 62.2896 59.1187 57.6133 56.8167 50.5589 52.7635 57.6267 53.7274 48.3099 46.9045 44.4428 43.6761 42.1881 42.1333 41.21 41.1576 40.8562 40.317 41.1945 39.9245 39.7493 39.4201 38.9225 36.9168 40.0697 36.2604 35.5572 34.9385 34.4518 34.1298
threshold=28.500000000000004 15.500000000000002 45.500000000000007 80.500000000000014 1.0000000180025095e-35 18.500000000000004 13.500000000000002 1.0000000180025095e-35 1.0000000180025095e-35 1.0000000180025095e-35 1.0000000180025095e-35 1.0000000180025095e-35 1.0000000180025095e-35 1.0000000180025095e-35 190.50000000000003 1.0000000180025095e-35 1.0000000180025095e-35 1.0000000180025095e-35 1.0000000180025095e-35 1.0000000180025095e-35 1.0000000180025095e-35 1.0000000180025095e-35 10.500000000000002 1.0000000180025095e-35 1.0000000180025095e-35 1.0000000180025095e-35 1.0000000180025095e-35 1.0000000180025095e-35 1.0000000180025095e-35 1.0000000180025095e-35 1.0000000180025095e-35 1.0000000180025095e-35 1.0000000180025095e-35 1.0000000180025095e-35 1.0000000180025095e-35 1.0000000180025095e-35 1.0000000180025095e-35 1.0000000180025095e-35 1.0000000180025095e-35 1.0000000180025095e-35 1.0000000180025095e-35 1.0000000180025095e-35 1.0000000180025095e-35 1.0000000180025095e-35 1.0000000180025095e-35 1.0000000180025095e-35 1.0000000180025095e-35 1.0000000180025095e-35 1.0000000180025095e-35 1.0000000180025095e-35 1.0000000180025095e-35 1.0000000180025095e-35 1.0000000180025095e-35 1.0000000180025095e-35 1.0000000180025095e-35 1.0000000180025095e-35 1.0000000180025095e-35 1.0000000180025095e-35 1.0000000180025095e-35 1.0000000180025095e-35 1.0000000180025095e-35 1.0000000180025095e-35
decision_type=2 2 2 2 2 2 2 2 2 2 2 2 2 2 2 2 2 2 2 2 2 2 2 2 2 2 2 2 2 2 2 2 2 2 2 2 2 2 2 2 2 2 2 2 2 2 2 2 2 2 2 2 2 2 2 2 2 2 2 2 2 2
left_child=1 6 7 16 5 40 22 8 10 11 13 12 15 18 45 17 23 19 20 21 24 27 -1 28 25 26 41 35 29 30 31 33 -29 34 43 36 37 38 -7 54 44 49 55 51 46 53 60 57 -26 50 59 52 -4 -5 -39 56 -8 61 -6 -2 -3 -24
right_child=2 4 3 14 58 9 42 -9 -10 -11 -12 -13 -14 -15 -16 -17 -18 -19 -20 -21 -22 -23 47 -25 48 -27 -28 32 -30 -31 -32 -33 -34 -35 -36 -37 -38 39 -40 -41 -42 -43 -44 -45 -46 -47 -48 -49 -50 -51 -52 -53 -54 -55 -56 -57 -58 -59 -60 -61 -62 -63
leaf_value=-0.038872946988132019 -0.0072763420833176261 -0.015744451159515289 0.015444898022729889 0.036016430728194257 -0.025958437957505798 -0.012720679548153872 -0.02349605722825962 0.0232492975305882 0.02653455167338499 0.0076761687014334189 0.021543034016211736 0.012496011360821228 0.014032189189891402 0.013499061811360714 0.063698937348728599 -0.044112399289015738 0.037980764488144442 0.00063568838064235697 0.023615227518298001 0.0061993346865021727 -0.032291171192955326 0.013631333896601705 -0.033211199919455189 0.035117710880479026 0.0095543042048765701 0.010495582103905386 0.016575199734093524 0.014204279396247556 0.035151257692153479 0.055561735815422592 0.037343668707984105 0.031134091812339539 -0.0083057010980538051 0.032915438726285585 0.024567923541139583 0.011434192829164323 -0.031678919937149524 -0.022253577389277607 -0.00027603670671882957 0.0058611942041980128 -0.027152999957784786 0.0041182346141658407 -0.040218222404390463 -0.027369899784143156 0.0072881189332086862 0.059881737726391299 0.0063174106196125512 0.0025347886290401221 -0.015972211486236617 -0.033008277360287393 -0.032983291765648716 -0.0089983211663227699 -0.01278356574487134 0.049822581906348327 -0.0029147780868400822 -0.0050385345212977661 -0.012873284247409548 -0.012661398794552704 -0.046464506814272138 0.0074737265449640912 0.00017333943303545824 -0.025010207149601917
leaf_weight=3402 3470 5575 4849 2822 527 4354 3318 1635 888 2129 1233 874 653 2756 547 197 1312 2940 493 881 189 355 4066 1214 3136 1154 477 462 843 138 513 955 918 547 1469 230 376 2457 1183 213 681 1103 269 65 243 248 241 100 165 149 142 184 128 633 291 413 1212 294 353 454 362 1844
leaf_count=3402 3470 5575 4849 2822 527 4354 3318 1635 888 2129 1233 874 653 2756 547 197 1312 2940 493 881 189 355 4066 1214 3136 1154 477 462 843 138 513 955 918 547 1469 230 376 2457 1183 213 681 1103 269 65 243 248 241 100 165 149 142 184 128 633 291 413 1212 294 353 454 362 1844
internal_value=0 -0.0153756 0.0187771 0.0294796 -0.00805505 -0.00715739 -0.0283773 0.00867407 0.00716666 -0.00434431 0.00601402 -0.0059063 -0.00694328 0.00461518 0.0430282 -0.0078652 0.0247663 -0.00737812 0.00237552 -0.00938841 0.00137243 -0.0106554 -0.0326468 0.0231765 0.00199316 -0.000992519 -0.00328023 -0.0114778 0.0216806 0.0203972 0.01984 0.0187446 -0.000769751 0.0171108 0.0158195 -0.0131009 -0.0137368 -0.012943 -0.0100618 -0.0183306 -0.0144903 -0.00506117 -0.0204263 0.0133604 -0.0131473 0.0399748 -0.0139511 -0.0292869 0.00827837 -0.00746327 -0.00652717 0.0138733 0.0147189 0.0385459 -0.0202057 -0.0193492 -0.0206539 -0.0297998 -0.0341842 -0.00556978 -0.0147739 -0.0306524
internal_weight=0 41413 33911 16467 26495 25615 14918 17444 15809 18513 14921 16384 15510 13688 4250 14857 12217 14660 10932 11720 10439 10839 9706 10905 10250 6949 5795 10484 9691 8848 8710 8197 1380 7242 6695 9104 8874 8498 5537 2961 7102 5318 5212 5226 6421 3703 6178 6304 3301 4215 4066 5161 4977 3455 2748 4943 4530 6204 880 3924 5937 5910
internal_count=75324 41413 33911 16467 26495 25615 14918 17444 15809 18513 14921 16384 15510 13688 4250 14857 12217 14660 10932 11720 10439 10839 9706 10905 10250 6949 5795 10484 9691 8848 8710 8197 1380 7242 6695 9104 8874 8498 5537 2961 7102 5318 5212 5226 6421 3703 6178 6304 3301 4215 4066 5161 4977 3455 2748 4943 4530 6204 880 3924 5937 5910
shrinkage=0.05


Tree=9
num_leaves=63
num_cat=0
split_feature=108 108 108 106 108 108 54 98 84 106 95 98 98 91 64 37 57 70 85 96 70 89 70 106 96 95 95 84 97 26 96 67 89 40 95 77 44 84 6 11 90 69 90 67 70 89 93 26 85 76 94 61 47 76 91 79 93 70 75 80 94 73
split_gain=7872.34 1659.18 1141.56 379.611 282.736 180.23 132.483 126.992 108.454 96.8366 92.6566 91.4067 84.3406 82.1943 81.98 76.8182 76.207 75.7968 75.9855 77.4203 74.256 74.0093 75.3779 73.299 68.572 68.3601 68.1435 69.5825 67.2577 61.7079 59.5659 59.1449 58.8368 59.4358 58.351 60.04 70.4543 58.1264 55.9777 55.2254 54.8353 51.9244 57.1564 49.7123 48.4638 48.6536 48.2022 44.7873 44.6971 44.2487 42.6624 41.624 40.4835 44.0616 40.0528 38.0546 38.0253 37.6375 37.2666 36.7419 36.2845 36.2592
threshold=25.500000000000004 45.500000000000007 13.500000000000002 80.500000000000014 18.500000000000004 35.500000000000007 1.0000000180025095e-35 1.0000000180025095e-35 1.0000000180025095e-35 190.50000000000003 1.0000000180025095e-35 1.0000000180025095e-35 1.0000000180025095e-35 1.0000000180025095e-35 1.0000000180025095e-35 1.0000000180025095e-35 1.0000000180025095e-35 1.0000000180025095e-35 1.0000000180025095e-35 1.0000000180025095e-35 1.0000000180025095e-35 1.0000000180025095e-35 1.0000000180025095e-35 10.500000000000002 1.0000000180025095e-35 1.0000000180025095e-35 1.0000000180025095e-35 1.0000000180025095e-35 1.0000000180025095e-35 1.0000000180025095e-35 1.0000000180025095e-35 1.0000000180025095e-35 1.0000000180025095e-35 1.0000000180025095e-35 1.0000000180025095e-35 1.0000000180025095e-35 1.0000000180025095e-35 1.0000000180025095e-35 1.0000000180025095e-35 1.0000000180025095e-35 1.0000000180025095e-35 1.0000000180025095e-35 1.0000000180025095e-35 1.0000000180025095e-35 1.0000000180025095e-35 1.0000000180025095e-35 1.0000000180025095e-35 1.0000000180025095e-35 1.0000000180025095e-35 1.0000000180025095e-35 1.0000000180025095e-35 1.0000000180025095e-35 1.0000000180025095e-35 1.0000000180025095e-35 1.0000000180025095e-35 1.0000000180025095e-35 1.0000000180025095e-35 1.0000000180025095e-35 1.0000000180025095e-35 1.0000000180025095e-35 1.0000000180025095e-35 1.0000000180025095e-35
decision_type=2 2 2 2 2 2 2 2 2 2 2 2 2 2 2 2 2 2 2 2 2 2 2 2 2 2 2 2 2 2 2 2 2 2 2 2 2 2 2 2 2 2 2 2 2 2 2 2 2 2 2 2 2 2 2 2 2 2 2 2 2 2
left_child=2 5 23 10 11 6 15 8 13 56 17 16 14 21 24 20 28 18 19 29 47 22 25 -1 34 31 27 30 37 32 39 41 33 40 35 36 46 43 -17 44 49 42 52 51 45 54 48 50 -8 55 61 60 53 59 -7 58 -5 -25 -3 -6 -4 -2
right_child=1 3 4 9 7 26 12 -9 -10 -11 -12 -13 -14 -15 -16 38 -18 -19 -20 -21 -22 -23 -24 57 -26 -27 -28 -29 -30 -31 -32 -33 -34 -35 -36 -37 -38 -39 -40 -41 -42 -43 -44 -45 -46 -47 -48 -49 -50 -51 -52 -53 -54 -55 -56 -57 -58 -59 -60 -61 -62 -63
leaf_value=-0.036929299585119618 -0.0022602866535688677 0.010838926206106842 -0.017588597662157725 0.036618599038299539 -0.021648798792277019 0.0042817003465483788 -0.0099632815870817973 -0.03231230828620154 0.0048682433437513377 0.06051399109278971 0.036081726169185258 -0.035671817407770728 -0.035265099170787559 0.0067851325237166752 -0.038681669158881146 0.018975116358226324 -0.027694274029579854 0.048743173655413953 0.033258158835815267 0.031739141792291974 0.028682965283780445 0.0031362230743907818 0.013433737377984685 -0.028360723036601612 0.015220064988032123 0.0075045033256352263 0.025695609129956672 0.021136764277126404 0.0067238061314784606 0.050935842269859845 0.022354200549545442 -0.0018036631715958465 0.029188262277188771 0.040111290604377597 0.014696138877482718 0.0081092486319496501 0.016381691621300303 -0.0052577375650728351 -0.0088997616153561401 -0.015088474200271099 0.023053938259472707 0.0016282138568243351 -0.0025793586136094986 -0.0058657242305906509 0.038122776388825684 0.020496728296098977 0.021688246965472439 0.025732276859158215 0.009224532511552341 0.018314568413901541 0.024914190689211385 -0.03499898949549312 -0.0042218115674587794 -0.0088993267041131575 0.019520388489203563 -0.018941282000495281 0.056887650931903705 -8.8281241866449521e-05 -0.026329793536907359 -0.011121954129586525 0.0035767208854220094 0.021956014390126233
leaf_weight=3402 2690 2979 7649 3455 3764 4404 3654 461 2096 547 1312 599 181 942 139 1897 1186 259 1193 1199 285 1209 334 6184 675 490 863 1377 366 141 721 1317 961 247 503 979 338 1317 199 267 1665 550 920 983 132 634 138 188 331 2074 170 336 673 1281 478 118 248 120 69 1063 208 164
leaf_count=3402 2690 2979 7649 3455 3764 4404 3654 461 2096 547 1312 599 181 942 139 1897 1186 259 1193 1199 285 1209 334 6184 675 490 863 1377 366 141 721 1317 961 247 503 979 338 1317 199 267 1665 550 920 983 132 634 138 188 331 2074 170 336 673 1281 478 118 248 120 69 1063 208 164
internal_value=0 0.0160735 -0.0162555 0.0280056 -0.0110922 0.00689491 0.00303372 -0.00647336 -0.00565966 0.0408768 0.023528 -0.0166081 -0.00158224 -0.00741893 -0.000679979 0.00875971 -0.0156601 0.0220177 0.0213675 0.0198668 0.00422315 -0.00857229 -0.00993446 -0.0310145 0.000118183 -0.0107105 0.0123461 0.0109083 -0.0143457 0.0181422 0.0087859 -0.0116433 0.0175723 0.0160115 -0.00159707 -0.0031036 -0.00556434 -0.0150807 0.0163286 0.00713201 0.0151494 -0.0132139 -0.0142739 -0.0164905 0.00818245 0.00746597 -0.00736346 0.00205283 -0.00836951 0.0126377 0.000580697 -0.0177653 -0.0158605 -0.0171429 0.00577373 0.00891893 0.0379761 -0.0278225 0.00999751 -0.0193306 -0.0170283 -0.00086874
internal_weight=0 37874 37450 16467 27744 21407 12531 15100 14639 4250 12217 12644 6938 12543 6757 5593 12045 10905 10646 9453 3497 11601 10392 9706 6618 10058 8876 8013 10859 8254 6636 9568 8113 7152 5943 5440 4461 10493 2096 5915 6905 8251 7701 9176 5648 5516 4123 3212 3985 5240 3024 8193 6781 6108 4882 3166 3703 6304 3048 4827 7857 2854
internal_count=75324 37874 37450 16467 27744 21407 12531 15100 14639 4250 12217 12644 6938 12543 6757 5593 12045 10905 10646 9453 3497 11601 10392 9706 6618 10058 8876 8013 10859 8254 6636 9568 8113 7152 5943 5440 4461 10493 2096 5915 6905 8251 7701 9176 5648 5516 4123 3212 3985 5240 3024 8193 6781 6108 4882 3166 3703 6304 3048 4827 7857 2854
shrinkage=0.05


Tree=10
num_leaves=63
num_cat=0
split_feature=108 108 108 105 108 85 88 108 90 70 90 89 106 92 86 95 84 91 92 88 89 76 84 65 106 53 94 96 96 96 84 94 11 66 88 86 44 70 89 87 80 11 92 95 87 80 70 76 62 91 80 39 54 89 47 86 70 76 85 92 54 66
split_gain=7104.78 1497.41 1030.26 343.003 255.169 167.981 171.706 148.493 111.757 94.3386 93.6166 92.7544 87.2458 84.3844 83.9671 80.7335 75.6215 73.3044 69.8606 69.4205 68.501 66.7823 65.7279 64.9188 64.7654 60.5958 60.3415 59.6733 57.9145 54.682 53.0199 52.0121 51.7328 50.7839 52.3351 49.7735 46.6982 49.7016 47.7244 46.8383 46.5905 45.7039 45.136 44.9789 43.7564 43.5799 41.3959 45.047 41.4415 40.4275 40.1894 37.5998 37.4145 37.2539 36.8866 36.5913 36.1476 36.0332 35.6796 36.2969 35.3052 35.0052
threshold=25.500000000000004 45.500000000000007 13.500000000000002 80.500000000000014 18.500000000000004 1.0000000180025095e-35 1.0000000180025095e-35 35.500000000000007 1.0000000180025095e-35 1.0000000180025095e-35 1.0000000180025095e-35 1.0000000180025095e-35 235.50000000000003 1.0000000180025095e-35 1.0000000180025095e-35 1.0000000180025095e-35 1.0000000180025095e-35 1.0000000180025095e-35 1.0000000180025095e-35 1.0000000180025095e-35 1.0000000180025095e-35 1.0000000180025095e-35 1.0000000180025095e-35 1.0000000180025095e-35 10.500000000000002 1.0000000180025095e-35 1.0000000180025095e-35 1.0000000180025095e-35 1.0000000180025095e-35 1.0000000180025095e-35 1.0000000180025095e-35 1.0000000180025095e-35 1.0000000180025095e-35 1.0000000180025095e-35 1.0000000180025095e-35 1.0000000180025095e-35 1.0000000180025095e-35 1.0000000180025095e-35 1.0000000180025095e-35 1.0000000180025095e-35 1.0000000180025095e-35 1.0000000180025095e-35 1.0000000180025095e-35 1.0000000180025095e-35 1.0000000180025095e-35 1.0000000180025095e-35 1.0000000180025095e-35 1.0000000180025095e-35 1.0000000180025095e-35 1.0000000180025095e-35 1.0000000180025095e-35 1.0000000180025095e-35 1.0000000180025095e-35 1.0000000180025095e-35 1.0000000180025095e-35 1.0000000180025095e-35 1.0000000180025095e-35 1.0000000180025095e-35 1.0000000180025095e-35 1.0000000180025095e-35 1.0000000180025095e-35 1.0000000180025095e-35
decision_type=2 2 2 2 2 2 2 2 2 2 2 2 2 2 2 2 2 2 2 2 2 2 2 2 2 2 2 2 2 2 2 2 2 2 2 2 2 2 2 2 2 2 2 2 2 2 2 2 2 2 2 2 2 2 2 2 2 2 2 2 2 2
left_child=2 5 19 15 13 6 7 10 9 11 20 14 49 16 21 17 23 22 29 24 26 25 27 33 -1 31 28 35 32 30 41 40 42 34 43 36 37 38 39 45 54 53 44 46 50 58 47 48 55 -5 60 -49 -23 -9 -6 -4 57 -26 59 -3 -2 -10
right_child=1 3 4 12 8 -7 -8 18 61 -11 -12 -13 -14 -15 -16 -17 -18 -19 -20 -21 -22 52 -24 -25 56 -27 -28 -29 -30 -31 -32 -33 -34 -35 -36 -37 -38 -39 -40 -41 -42 -43 -44 -45 -46 -47 -48 51 -50 -51 -52 -53 -54 -55 -56 -57 -58 -59 -60 -61 -62 -63
leaf_value=-0.035935301423813439 -0.0040497468425977822 0.0041453329349354908 -0.024333675910831746 0.03431494591255748 -0.019127470939671404 0.020450953531318081 0.027940539662453412 0.0043979253053654114 0.0013082031337369475 0.015096932921320375 0.0096203028647482806 0.0038896507617100446 0.062480697755261765 0.0065068512446701801 0.0030992374494185765 0.03413196636001644 -0.0058143935483835766 0.031638937054788784 0.030182977222105931 -0.0077929966678199347 0.011048860691407715 0.0010045190327834191 0.028370236573078064 -0.0046730483241569712 -0.029574211875857216 0.00468658246456436 0.016337775499113891 0.02894302534089754 0.011349107017017586 0.020776438941850366 0.01696963131461748 0.0086774497793470455 -0.028203755623063466 -0.0075476567041502258 -0.0048067386113017658 0.030412253940406066 0.032939114971114521 0.043992641888502423 0.025511935510855566 0.023341777092440331 -0.0077574680127832701 -0.015838031339693786 0.016343099227507596 -0.0017205458959021298 0.0066444286782528054 0.019168865846725003 0.002523158816348391 -0.0099254572826000323 -0.044222612657717299 0.047509574192747331 0.0016889136372979178 -0.030106959978201467 -0.011997545828571545 0.017944827486797679 -0.006191785866357026 -0.009915075366948977 6.3341100770635762e-05 -0.019369433928532732 0.022404982137274654 0.027943848821295966 -0.012818553911828803 0.017736076202856589
leaf_weight=3291 2028 3083 5975 3032 5024 1973 792 4628 1811 430 2206 1305 364 411 1073 1319 1452 1422 387 356 913 1395 1708 846 4889 418 368 1004 541 794 1086 227 245 868 520 544 331 132 672 705 1486 254 243 288 654 924 171 1101 245 718 1080 292 917 570 619 475 119 1051 340 169 2645 395
leaf_count=3291 2028 3083 5975 3032 5024 1973 792 4628 1811 430 2206 1305 364 411 1073 1319 1452 1422 387 356 913 1395 1708 846 4889 418 368 1004 541 794 1086 227 245 868 520 544 331 132 672 705 1486 254 243 288 654 924 171 1101 245 718 1080 292 917 570 619 475 119 1051 340 169 2645 395
internal_value=0 0.0152698 -0.0154427 0.0266053 -0.0105376 0.00655017 0.00513891 0.00417019 -0.00614969 -0.0079289 0.000418854 -0.00872328 0.0391098 -0.0157777 -0.0101983 0.0224409 -0.0165264 0.0210433 0.00947864 -0.0294638 -0.00190975 -0.011613 0.0194758 -0.0179691 -0.0302889 -0.0138317 -0.00342579 0.0175538 -0.00440387 0.00838582 0.00688105 -0.014884 -0.00563989 -0.0191014 -0.0202074 0.0158966 0.0146542 0.0136497 0.01297 0.0113557 -0.0156343 0.00487148 -0.00480859 -0.0211444 -0.00561081 0.00948457 -0.0218217 -0.0223364 -0.0240385 0.0368413 -0.00700399 -0.0141559 -0.00415244 0.00588345 -0.0177085 -0.0232718 -0.027222 -0.0277686 0.00699339 0.00538209 -0.00901305 0.00424973
internal_weight=0 37874 37450 16467 27744 21407 19434 18642 15100 12894 10923 12464 4114 12644 11159 12353 12233 11034 7719 9706 8717 10086 9612 10781 9350 7774 7804 7904 7436 7332 6538 7356 6895 9935 9067 6900 6356 6025 5893 5221 7129 5452 6650 8547 6407 4516 8259 8088 6695 3750 5753 1393 2312 5198 5643 6450 6059 5940 3592 3252 4673 2206
internal_count=75324 37874 37450 16467 27744 21407 19434 18642 15100 12894 10923 12464 4114 12644 11159 12353 12233 11034 7719 9706 8717 10086 9612 10781 9350 7774 7804 7904 7436 7332 6538 7356 6895 9935 9067 6900 6356 6025 5893 5221 7129 5452 6650 8547 6407 4516 8259 8088 6695 3750 5753 1393 2312 5198 5643 6450 6059 5940 3592 3252 4673 2206
shrinkage=0.05


Tree=11
num_leaves=63
num_cat=0
split_feature=108 101 106 108 101 106 100 90 98 50 92 54 80 90 50 95 49 92 90 67 88 93 95 83 95 77 74 84 95 91 50 95 65 84 69 39 83 90 92 93 50 74 88 84 83 70 98 31 69 49 92 90 18 94 77 84 94 65 78 72 47 93
split_gain=6424.22 1377.39 852.998 240.615 219.777 155.309 149.39 148.075 115.824 94.2673 96.987 90.8173 87.611 80.213 76.3708 75.8246 74.7022 73.4588 72.4718 66.1045 63.1716 62.6944 62.2033 61.4357 60.2064 61.1923 59.4828 58.8042 58.3604 55.4274 52.8688 51.8786 51.6252 51.5408 52.0962 52.0687 51.3731 50.2835 49.2685 48.5064 47.3729 47.3479 46.0827 43.8085 42.8636 42.6934 41.8401 40.8683 40.6853 39.57 40.2719 39.2886 38.7024 38.3112 38.6515 38.1429 37.3413 36.7283 36.6867 37.4974 35.8335 35.6684
threshold=30.500000000000004 15.500000000000002 60.500000000000007 24.500000000000004 40.500000000000007 130.50000000000003 11.500000000000002 1.0000000180025095e-35 1.0000000180025095e-35 1.0000000180025095e-35 1.0000000180025095e-35 1.0000000180025095e-35 1.0000000180025095e-35 1.0000000180025095e-35 1.0000000180025095e-35 1.0000000180025095e-35 1.0000000180025095e-35 1.0000000180025095e-35 1.0000000180025095e-35 1.0000000180025095e-35 1.0000000180025095e-35 1.0000000180025095e-35 1.0000000180025095e-35 1.0000000180025095e-35 1.0000000180025095e-35 1.0000000180025095e-35 1.0000000180025095e-35 1.0000000180025095e-35 1.0000000180025095e-35 1.0000000180025095e-35 1.0000000180025095e-35 1.0000000180025095e-35 1.0000000180025095e-35 1.0000000180025095e-35 1.0000000180025095e-35 1.0000000180025095e-35 1.0000000180025095e-35 1.0000000180025095e-35 1.0000000180025095e-35 1.0000000180025095e-35 1.0000000180025095e-35 1.0000000180025095e-35 1.0000000180025095e-35 1.0000000180025095e-35 1.0000000180025095e-35 1.0000000180025095e-35 1.0000000180025095e-35 1.0000000180025095e-35 1.0000000180025095e-35 1.0000000180025095e-35 1.0000000180025095e-35 1.0000000180025095e-35 1.0000000180025095e-35 1.0000000180025095e-35 1.0000000180025095e-35 1.0000000180025095e-35 1.0000000180025095e-35 1.0000000180025095e-35 1.0000000180025095e-35 1.0000000180025095e-35 1.0000000180025095e-35 1.0000000180025095e-35
decision_type=2 2 2 2 2 2 2 2 2 2 2 2 2 2 2 2 2 2 2 2 2 2 2 2 2 2 2 2 2 2 2 2 2 2 2 2 2 2 2 2 2 2 2 2 2 2 2 2 2 2 2 2 2 2 2 2 2 2 2 2 2 2
left_child=1 6 4 7 12 28 55 8 9 10 15 20 18 14 36 16 19 21 27 26 29 22 23 30 25 38 32 31 39 51 37 40 33 34 35 52 42 46 41 43 44 48 49 58 -2 -11 53 -37 61 50 -8 56 -3 54 -6 57 -5 60 59 -4 -1 -13
right_child=2 3 5 11 17 -7 13 -9 -10 45 -12 24 -14 -15 -16 -17 -18 -19 -20 -21 -22 -23 -24 -25 -26 -27 -28 -29 -30 -31 -32 -33 -34 -35 -36 47 -38 -39 -40 -41 -42 -43 -44 -45 -46 -47 -48 -49 -50 -51 -52 -53 -54 -55 -56 -57 -58 -59 -60 -61 -62 -63
leaf_value=-0.035579947219544439 -0.0065090468084671727 -0.01955417940524546 0.021505652268358131 -0.0019915712997494186 0.0060742840012583893 0.047381989111884432 -0.029653686152631323 0.0020898117032095184 -0.031065580270716056 -0.0047773069671882785 0.012395123272943192 -0.013463660731039604 0.016243062943918515 -0.0073981613115361904 -0.015185652796095262 0.0060543902460430156 0.0013304838878848697 0.033012743351509242 0.013055186002026606 -0.0044563760410493728 0.026027984653406 0.034736871875635851 0.02701752940405305 0.021610541395490197 0.013595083289509683 0.005316429174840126 -0.0033050151450505815 0.013772295745663791 0.040889695667707809 0.017374440142633393 0.022729256478866103 0.017558818310622056 -0.0021578732155909416 -0.0075732478472374746 -0.0034908185561601025 -0.030763420001334082 -0.013651044530305648 0.019018102834399628 0.018045626240508521 0.045360716138629763 0.010169843276083418 0.0075069155176713453 -0.0063466286868788307 0.033849455568289277 0.0062266728348156488 0.013684258860117499 -0.032454036640387679 -0.0034889486848842357 0.0078605005876623262 -0.0078346491581659568 0.0014948369769592559 0.011740310426564917 -0.00023932600165293977 0.026287454374715403 0.021959611017290239 -0.017221939990326337 0.022743508889107034 -0.016616636817002192 0.041291088590200781 0.040460322742831192 -0.01981239119011835 0.016550389391041417
leaf_weight=3807 3122 4559 4495 3291 4338 1237 4930 2532 682 3393 390 3350 2021 995 2623 503 763 683 1904 1334 332 434 1030 2109 438 1018 798 880 816 625 984 379 510 941 446 1628 820 1311 170 332 715 375 256 1325 838 345 63 150 262 231 106 756 275 287 420 428 160 324 278 277 398 102
leaf_count=3807 3122 4559 4495 3291 4338 1237 4930 2532 682 3393 390 3350 2021 995 2623 503 763 683 1904 1334 332 434 1030 2109 438 1018 798 880 816 625 984 379 510 941 446 1628 820 1311 170 332 715 375 256 1325 838 345 63 150 262 231 106 756 275 287 420 428 160 324 278 277 398 102
internal_value=0 -0.0119715 0.0178106 -0.00581917 0.0124559 0.0309637 -0.0243966 -0.00917838 -0.0108851 -0.0100268 -0.0121404 0.000124519 0.00696083 -0.020867 -0.0223617 -0.0129441 -0.013782 0.0171026 0.00456744 -0.0148657 0.00493042 0.0161126 0.0153459 0.014082 -0.00421803 -0.00569655 -0.0163577 0.00184404 0.0282641 0.00348084 0.0119373 -0.000232897 -0.0175818 -0.0185652 -0.0200307 -0.0211463 -0.0253291 0.0102829 -0.00832891 0.026728 -0.00167526 -0.00942543 -0.027063 0.0257576 -0.00381396 -0.00307339 0.00804095 -0.0284624 -0.0111351 -0.0280699 -0.0289981 0.00141678 -0.0184554 0.00854664 0.00747652 -0.0314894 -0.00084477 -0.0328377 0.0236345 0.0226059 -0.0340876 -0.0125768
internal_weight=0 45046 30278 30128 21518 8760 14918 19249 16717 16035 12297 10879 9859 9961 8966 11907 11404 11659 7838 10641 5164 10976 10542 9512 5715 5277 9307 5934 7523 4832 7403 5054 8509 7999 7058 6612 6343 6419 4259 6707 4675 4089 5523 6375 3960 3738 5108 1778 3714 5267 5036 4207 4834 5045 4758 4957 3451 4529 5050 4772 4205 3452
internal_count=75324 45046 30278 30128 21518 8760 14918 19249 16717 16035 12297 10879 9859 9961 8966 11907 11404 11659 7838 10641 5164 10976 10542 9512 5715 5277 9307 5934 7523 4832 7403 5054 8509 7999 7058 6612 6343 6419 4259 6707 4675 4089 5523 6375 3960 3738 5108 1778 3714 5267 5036 4207 4834 5045 4758 4957 3451 4529 5050 4772 4205 3452
shrinkage=0.05


Tree=12
num_leaves=63
num_cat=0
split_feature=105 101 106 106 90 98 106 92 97 86 70 95 85 85 90 64 67 74 29 96 84 106 86 69 83 96 37 90 96 83 82 31 80 86 84 77 76 92 39 87 39 47 70 80 44 77 39 75 79 85 83 63 90 106 39 80 39 79 76 61 90 47
split_gain=5799.55 1060.71 967.56 268.121 234.368 158.637 136.558 135.726 126.118 127.936 120.905 118.343 111.306 108.38 99.7171 93.2689 87.0335 83.1379 77.0077 76.3594 79.1095 75.6098 72.9261 68.4251 68.1347 68.1083 67.4812 67.2745 64.8123 64.1121 63.5 61.7202 61.4326 60.1501 59.6148 59.2518 56.813 49.8542 48.6092 48.1085 47.7353 47.1614 51.5491 45.8897 44.4352 45.0131 43.7663 42.2684 40.8184 38.7453 38.5296 37.6203 36.2656 36.0764 35.7638 35.4996 34.8168 34.7635 34.496 39.6979 31.9688 31.8639
threshold=28.500000000000004 15.500000000000002 47.500000000000007 80.500000000000014 1.0000000180025095e-35 1.0000000180025095e-35 13.500000000000002 1.0000000180025095e-35 1.0000000180025095e-35 1.0000000180025095e-35 1.0000000180025095e-35 1.0000000180025095e-35 1.0000000180025095e-35 1.0000000180025095e-35 1.0000000180025095e-35 1.0000000180025095e-35 1.0000000180025095e-35 1.0000000180025095e-35 1.0000000180025095e-35 1.0000000180025095e-35 1.0000000180025095e-35 235.50000000000003 1.0000000180025095e-35 1.0000000180025095e-35 1.0000000180025095e-35 1.0000000180025095e-35 1.0000000180025095e-35 1.0000000180025095e-35 1.0000000180025095e-35 1.0000000180025095e-35 1.0000000180025095e-35 1.0000000180025095e-35 1.0000000180025095e-35 1.0000000180025095e-35 1.0000000180025095e-35 1.0000000180025095e-35 1.0000000180025095e-35 1.0000000180025095e-35 1.0000000180025095e-35 1.0000000180025095e-35 1.0000000180025095e-35 1.0000000180025095e-35 1.0000000180025095e-35 1.0000000180025095e-35 1.0000000180025095e-35 1.0000000180025095e-35 1.0000000180025095e-35 1.0000000180025095e-35 1.0000000180025095e-35 1.0000000180025095e-35 1.0000000180025095e-35 1.0000000180025095e-35 1.0000000180025095e-35 8.5000000000000018 1.0000000180025095e-35 1.0000000180025095e-35 1.0000000180025095e-35 1.0000000180025095e-35 1.0000000180025095e-35 1.0000000180025095e-35 1.0000000180025095e-35 1.0000000180025095e-35
decision_type=2 2 2 2 2 2 2 2 2 2 2 2 2 2 2 2 2 2 2 2 2 2 2 2 2 2 2 2 2 2 2 2 2 2 2 2 2 2 2 2 2 2 2 2 2 2 2 2 2 2 2 2 2 2 2 2 2 2 2 2 2 2
left_child=1 6 8 22 5 7 27 10 9 13 11 12 15 14 19 16 17 18 23 20 24 49 25 28 32 26 37 33 29 31 -18 34 39 35 46 36 41 43 -6 47 -28 42 53 44 45 50 58 48 51 60 57 61 -8 -1 -7 -48 -16 -4 59 -3 -5 -2
right_child=2 4 3 21 38 54 52 -9 -10 -11 -12 -13 -14 -15 56 -17 30 -19 -20 -21 -22 -23 -24 -25 -26 -27 40 -29 -30 -31 -32 -33 -34 -35 -36 -37 -38 -39 -40 -41 -42 -43 -44 -45 -46 -47 55 -49 -50 -51 -52 -53 -54 -55 -56 -57 -58 -59 -60 -61 -62 -63
leaf_value=-0.046111454274370973 -0.007639790773827604 -0.017118883034414199 0.0075650704756550198 0.028051300678608337 0.0081963983210549297 -0.02159637779746203 -0.018404096043867613 0.012308133458817754 0.024639251239846661 0.019755667141414565 0.013998279424557357 0.0081613550803595458 0.0043786425775370124 0.018160294335731859 0.018200410594919423 -0.041683716909601126 0.01031693164032705 -0.00016202608017639624 -0.032178509583594771 0.014445089898928901 0.011103430815566119 0.056987562851345798 0.032857782680366654 0.00085032179713003691 0.0072322064334372207 0.029843996151239161 0.028480611999851788 -0.012163398060415845 0.0050187742807286792 -0.0056869452982589953 -0.0073263143152050613 -0.0047981894970536357 0.0060056897194372414 -0.0096596069301306021 -0.0061840732886368436 -0.011293953337845278 -0.02030431966657718 0.032842840273645729 -0.0033715274027116579 0.0087824714304631322 0.01310319640571557 -0.01964986137205196 0.0047938728282206702 0.022276859800224869 0.032176707004829046 0.026573542020956915 -0.027622820662299236 -0.030694892598604934 -0.031089254372118992 0.045173347252136148 0.018486506959737536 0.019797616128327575 -0.0055581676571412938 -0.032686303249522847 -0.042760100616365759 -0.011660309956078569 0.0066225788705256763 -0.018715346772010432 -0.0087185403395351295 -0.038656185276288953 0.039039603344306679 0.0075020105082162286
leaf_weight=554 4298 4359 3191 2400 2783 510 4951 815 1013 1640 581 943 1262 1433 1332 244 762 1374 507 1065 1474 364 1080 918 1812 1314 1925 718 466 1959 1542 1181 1335 421 1128 445 1253 366 1348 507 684 698 87 1275 249 397 1764 187 163 572 845 141 618 5173 328 434 1267 131 1221 225 914 378
leaf_count=554 4298 4359 3191 2400 2783 510 4951 815 1013 1640 581 943 1262 1433 1332 244 762 1374 507 1065 1474 364 1080 918 1812 1314 1925 718 466 1959 1542 1181 1335 421 1128 445 1253 366 1348 507 684 698 87 1275 249 397 1764 187 163 572 845 141 618 5173 328 434 1267 131 1221 225 914 378
internal_value=0 -0.0125011 0.0153975 0.0244714 -0.00652609 -0.00853403 -0.0231768 -0.00770914 0.00749935 0.00647993 -0.00849083 -0.00913484 -0.00997792 0.00506542 0.00372113 -0.0109798 -0.0105599 -0.0119048 -0.013044 0.00169978 0.000381295 0.0351972 0.0204926 -0.0123336 -0.00141039 0.0192057 0.0176633 -0.0268689 -0.0132838 -0.0139788 -0.00149118 -0.0155541 -0.00364471 -0.0280923 -0.0169452 -0.0290375 -0.0300543 0.0149202 0.00442163 -0.00591529 0.0244491 -0.0319304 -0.0334047 0.0138427 0.0116084 0.0104862 -0.018462 -0.00735748 -0.00648115 0.0331561 0.00895357 -0.00564845 -0.0169786 -0.033985 -0.02988 -0.024471 0.0125563 0.00652873 -0.0161868 -0.018176 0.0310819 -0.00641575
internal_weight=0 41572 33752 15707 26654 22523 14918 21685 18045 17032 20870 20289 19346 15392 13959 18084 17840 15536 14162 11360 10295 4250 11457 13655 8821 10377 9063 9349 12737 12271 2304 10312 7009 8631 9131 8210 7765 6454 4131 5674 2609 6512 5814 6088 4813 4564 8003 5167 4980 3886 4167 4817 5569 5727 838 2198 2599 3322 5805 4584 3314 4676
internal_count=75324 41572 33752 15707 26654 22523 14918 21685 18045 17032 20870 20289 19346 15392 13959 18084 17840 15536 14162 11360 10295 4250 11457 13655 8821 10377 9063 9349 12737 12271 2304 10312 7009 8631 9131 8210 7765 6454 4131 5674 2609 6512 5814 6088 4813 4564 8003 5167 4980 3886 4167 4817 5569 5727 838 2198 2599 3322 5805 4584 3314 4676
shrinkage=0.05


Tree=13
num_leaves=63
num_cat=0
split_feature=102 100 100 90 106 94 100 90 100 102 98 70 57 86 50 89 91 64 92 65 87 89 86 84 73 80 93 77 84 65 67 93 39 67 37 57 70 98 50 74 83 82 80 78 69 86 86 11 11 97 67 77 56 37 39 37 9 54 50 89 64 73
split_gain=5241.4 1132.63 699.406 232.014 215.389 174.613 155.819 121.147 106.115 104.208 93.0745 82.7805 79.6333 73.5285 74.007 73.4461 67.4461 65.8317 64.8122 64.5033 62.0268 60.2526 60.1196 59.2985 59.1563 54.9428 53.2586 52.9387 51.8511 51.5554 51.0313 50.0456 49.7452 49.7095 49.6261 49.4369 48.5189 47.9617 47.232 47.7109 46.6444 46.0451 44.1217 43.4376 43.434 41.7886 40.736 40.7284 40.3477 38.93 37.8241 38.0683 37.2718 36.9466 36.0668 38.5557 35.5216 35.4085 37.793 34.0246 33.9052 33.7565
threshold=30.500000000000004 15.500000000000002 65.500000000000014 1.0000000180025095e-35 40.500000000000007 1.0000000180025095e-35 20.500000000000004 1.0000000180025095e-35 10.500000000000002 150.50000000000003 1.0000000180025095e-35 1.0000000180025095e-35 1.0000000180025095e-35 1.0000000180025095e-35 1.0000000180025095e-35 1.0000000180025095e-35 1.0000000180025095e-35 1.0000000180025095e-35 1.0000000180025095e-35 1.0000000180025095e-35 1.0000000180025095e-35 1.0000000180025095e-35 1.0000000180025095e-35 1.0000000180025095e-35 1.0000000180025095e-35 1.0000000180025095e-35 1.0000000180025095e-35 1.0000000180025095e-35 1.0000000180025095e-35 1.0000000180025095e-35 1.0000000180025095e-35 1.0000000180025095e-35 1.0000000180025095e-35 1.0000000180025095e-35 1.0000000180025095e-35 1.0000000180025095e-35 1.0000000180025095e-35 1.0000000180025095e-35 1.0000000180025095e-35 1.0000000180025095e-35 1.0000000180025095e-35 1.0000000180025095e-35 1.0000000180025095e-35 1.0000000180025095e-35 1.0000000180025095e-35 1.0000000180025095e-35 1.0000000180025095e-35 1.0000000180025095e-35 1.0000000180025095e-35 1.0000000180025095e-35 1.0000000180025095e-35 1.0000000180025095e-35 1.0000000180025095e-35 1.0000000180025095e-35 1.0000000180025095e-35 1.0000000180025095e-35 1.0000000180025095e-35 1.0000000180025095e-35 1.0000000180025095e-35 1.0000000180025095e-35 1.0000000180025095e-35 1.0000000180025095e-35
decision_type=2 2 2 2 2 2 2 2 2 2 2 2 2 2 2 2 2 2 2 2 2 2 2 2 2 2 2 2 2 2 2 2 2 2 2 2 2 2 2 2 2 2 2 2 2 2 2 2 2 2 2 2 2 2 2 2 2 2 2 2 2 2
left_child=1 7 4 5 13 6 23 8 -1 26 11 15 16 14 18 17 25 19 24 20 22 27 33 29 35 31 34 28 30 44 36 40 56 38 47 37 45 43 39 42 46 -35 54 48 50 52 49 59 60 -6 51 57 53 -10 55 -8 -5 -3 -59 61 -2 -4
right_child=2 3 9 32 12 -7 10 -9 21 -11 -12 -13 -14 -15 -16 -17 -18 -19 -20 -21 -22 -23 -24 -25 -26 -27 -28 -29 -30 -31 -32 -33 -34 41 -36 -37 -38 -39 -40 -41 -42 -43 -44 -45 -46 -47 -48 -49 -50 -51 -52 -53 -54 -55 -56 -57 -58 58 -60 -61 -62 -63
leaf_value=-0.031477199859161788 0.0034320255629869561 -0.0153076368828518 0.020270158099633229 0.010422556152689741 0.0088050463751436058 0.01319732207447607 -0.015522844172214251 -0.0081422854662838075 -0.030272994506178375 0.046326265259262395 -0.028308900267409332 0.017466441622226304 0.0026651208656453501 0.020203143746673275 0.016147129813563529 0.0065236275195284417 0.027158096963758871 -0.036625922928180767 0.023150194843213512 0.0082285273667828118 0.0061933093959134922 -0.0085005967322516248 0.0043145978905083536 -0.0020113406553066448 0.018942212598977777 0.022676781844911831 0.046354310360979062 -0.0064366322778208352 -0.011440252234796548 -0.0013557130894913615 -0.012049327523760089 0.032577491551990932 -0.0022633181666845267 0.014858964463215968 0.032702314850004424 -0.012301622340825569 0.0030477397536233693 -0.031730332084949693 -0.0026860365360078502 0.0032204534651610996 0.020266624078793229 -0.0065062733678624063 -0.0045651544290504463 0.026121321481354921 -0.0025436666602805746 -0.011297191611600267 0.024426818605718319 -0.0050896298235109556 -0.015979377425404038 0.025366323606354664 -0.0063674253484625777 -0.0037472876556851084 -0.01053911158941484 -0.020952542146404088 -0.02149820078642219 -0.0014071223179009233 -0.007315035595760272 -0.02539009332278875 -0.0074408649525139481 0.037526366474129352 -0.033748568415701868 0.035072443715944653
leaf_weight=3264 5557 4485 2784 2792 5360 1014 2073 1392 4835 850 396 446 1018 872 1277 1365 1498 170 385 820 904 867 968 1221 487 2301 359 498 846 779 748 346 1582 392 2086 642 143 102 1617 456 1794 707 1083 194 673 431 527 124 294 380 952 508 313 1363 1715 631 314 2058 342 415 62 447
leaf_count=3264 5557 4485 2784 2792 5360 1014 2073 1392 4835 850 396 446 1018 872 1277 1365 1498 170 385 820 904 867 968 1221 487 2301 359 498 846 779 748 346 1582 392 2086 642 143 102 1617 456 1794 707 1083 194 673 431 527 124 294 380 952 508 313 1363 1715 631 314 2058 342 415 62 447
internal_value=0 -0.0107785 0.0161397 -0.0052781 0.0119286 -0.00713905 -0.00797185 -0.0221771 -0.0236451 0.0299062 -0.0044204 -0.00371163 0.0161005 0.00634011 0.00499693 -0.00444378 0.017221 -0.0057415 0.00315324 -0.00527957 -0.00632988 -0.0210999 -0.00750401 -0.0124017 0.00210407 0.0158308 0.0276605 -0.0222902 -0.0231999 -0.0136966 -0.02447 0.0139571 0.00495356 -0.00882295 0.0265145 0.00090714 -0.0257813 0.0022729 -0.0102647 -0.0123215 0.0131579 0.00111445 -0.0136096 0.00284083 -0.0147627 -0.0263751 0.0111229 0.0230907 0.00207702 0.00990144 -0.0157481 -0.016956 -0.0273732 -0.0282233 -0.0158262 -0.0122288 0.00862938 -0.0179306 -0.0228323 0.0240491 0.00302178 0.022318
internal_weight=0 45163 30161 30463 23096 25775 24761 14700 13308 7065 13743 13347 13224 9872 9000 12901 12206 11536 7723 11366 10546 10044 9642 11018 7338 10708 6215 9177 8679 9797 7833 8407 4688 8674 5856 6851 7085 6209 7575 5958 8061 1099 5502 6107 9018 6942 6267 3770 5913 5740 8345 7393 6511 6198 4419 2704 3106 6885 2400 3646 5619 3231
internal_count=75324 45163 30161 30463 23096 25775 24761 14700 13308 7065 13743 13347 13224 9872 9000 12901 12206 11536 7723 11366 10546 10044 9642 11018 7338 10708 6215 9177 8679 9797 7833 8407 4688 8674 5856 6851 7085 6209 7575 5958 8061 1099 5502 6107 9018 6942 6267 3770 5913 5740 8345 7393 6511 6198 4419 2704 3106 6885 2400 3646 5619 3231
shrinkage=0.05


Tree=14
num_leaves=63
num_cat=0
split_feature=108 106 100 105 84 95 97 98 92 84 85 50 86 100 98 90 29 11 57 84 88 96 76 106 40 76 50 73 50 86 72 86 50 90 106 92 85 31 97 76 88 94 28 94 11 73 29 64 47 98 97 31 79 86 95 39 39 91 64 79 67 15
split_gain=4765.39 995.293 692.567 235.339 150.441 141.137 139.241 134.561 119.289 112.821 109.797 108.714 105.888 95.9957 94.621 83.5583 79.9127 78.6481 76.291 72.4451 68.7426 67.9046 63.6151 62.3041 59.7763 59.2103 63.9047 55.6441 59.9477 53.9768 53.8489 53.412 55.18 51.3853 48.3629 47.0055 46.8835 46.3933 44.8897 44.8764 39.8105 38.1277 36.8864 40.2564 35.9242 35.5597 35.8454 34.5438 34.5428 33.0456 32.8811 36.3036 31.4858 31.3716 31.335 31.0129 30.7095 30.5372 30.3454 30.3335 30.2305 28.8449
threshold=25.500000000000004 45.500000000000007 14.500000000000002 80.500000000000014 1.0000000180025095e-35 1.0000000180025095e-35 1.0000000180025095e-35 1.0000000180025095e-35 1.0000000180025095e-35 1.0000000180025095e-35 1.0000000180025095e-35 1.0000000180025095e-35 1.0000000180025095e-35 18.500000000000004 1.0000000180025095e-35 1.0000000180025095e-35 1.0000000180025095e-35 1.0000000180025095e-35 1.0000000180025095e-35 1.0000000180025095e-35 1.0000000180025095e-35 1.0000000180025095e-35 1.0000000180025095e-35 235.50000000000003 1.0000000180025095e-35 1.0000000180025095e-35 1.0000000180025095e-35 1.0000000180025095e-35 1.0000000180025095e-35 1.0000000180025095e-35 1.0000000180025095e-35 1.0000000180025095e-35 1.0000000180025095e-35 1.0000000180025095e-35 10.500000000000002 1.0000000180025095e-35 1.0000000180025095e-35 1.0000000180025095e-35 1.0000000180025095e-35 1.0000000180025095e-35 1.0000000180025095e-35 1.0000000180025095e-35 1.0000000180025095e-35 1.0000000180025095e-35 1.0000000180025095e-35 1.0000000180025095e-35 1.0000000180025095e-35 1.0000000180025095e-35 1.0000000180025095e-35 1.0000000180025095e-35 1.0000000180025095e-35 1.0000000180025095e-35 1.0000000180025095e-35 1.0000000180025095e-35 1.0000000180025095e-35 1.0000000180025095e-35 1.0000000180025095e-35 1.0000000180025095e-35 1.0000000180025095e-35 1.0000000180025095e-35 1.0000000180025095e-35 1.0000000180025095e-35
decision_type=2 2 2 2 2 2 2 2 2 2 2 2 2 2 2 2 2 2 2 2 2 2 2 2 2 2 2 2 2 2 2 2 2 2 2 2 2 2 2 2 2 2 2 2 2 2 2 2 2 2 2 2 2 2 2 2 2 2 2 2 2 2
left_child=2 5 15 19 7 6 8 10 9 11 13 12 14 35 16 20 17 18 22 21 25 24 33 44 30 26 34 28 29 39 31 32 36 37 -1 40 38 41 45 42 47 48 43 52 57 46 49 50 60 54 51 59 -15 -36 61 -9 -19 -5 -11 -4 -2 -3
right_child=1 3 4 23 -6 -7 -8 55 -10 58 -12 -13 -14 27 -16 -17 -18 56 -20 -21 -22 -23 -24 -25 -26 -27 -28 -29 -30 -31 -32 -33 -34 -35 53 -37 -38 -39 -40 -41 -42 -43 -44 -45 -46 -47 -48 -49 -50 -51 -52 -53 -54 -55 -56 -57 -58 -59 -60 -61 -62 -63
leaf_value=-0.03552917513235454 -0.0091815655588641278 0.0051711968819417222 -0.016168504968978554 0.028849803289804823 0.0016322398328256959 0.01899865569857527 0.021416604126499705 -0.021490925323537816 0.021140286950653953 0.012056522466498088 0.0046202003649297128 0.010832080551312698 0.014038789923588025 -0.014220404828250519 -0.033133758499051438 -0.0089496631984711302 -0.023379385356813494 -0.0047631437022233854 -0.013303724105261925 0.026414108277034422 -0.004269061245109688 0.027222657306005829 0.0071636104454645341 0.051821870160299349 0.035249827383939135 -0.016353793778952474 -0.018777030006464551 0.012390986741821097 -0.0012714657907193984 0.003148250335953855 0.031678995922325648 0.026839170240875565 0.023124345565964988 0.0077141514296885042 -0.027181423811966393 0.0061668537921537843 0.022480795839989992 0.012296601967105032 0.025968350199917851 -0.0040793678501091059 -0.00046046628527842337 0.012186675055369089 -0.0007629813504416318 0.0079419197042196101 0.0049277039368034285 0.018999116327733573 -0.018551729739953664 -0.054169622079975777 0.0078372734989218332 -0.032221438484442123 0.0058383339341689169 -0.0064605991431718624 -0.032695023630830371 -0.0079352878790292392 0.020193970629495649 -0.040575934896573969 -0.030829685286524234 0.04047363706955423 -0.036178135442914386 -0.031978337504414894 0.0039943161892194703 0.023691798548994437
leaf_weight=2033 3666 3966 6202 2913 3416 1743 1102 603 875 2740 1419 2171 1036 4906 249 978 420 182 1011 2242 414 1287 3000 364 348 1634 1930 364 2912 759 415 661 972 1195 4191 284 710 414 360 1874 474 298 561 197 136 621 141 57 396 53 183 946 242 223 439 329 298 701 33 319 494 222
leaf_count=2033 3666 3966 6202 2913 3416 1743 1102 603 875 2740 1419 2171 1036 4906 249 978 420 182 1011 2242 414 1287 3000 364 348 1634 1930 364 2912 759 415 661 972 1195 4191 284 710 414 360 1874 474 298 561 197 136 621 141 57 396 53 183 946 242 223 439 329 298 701 33 319 494 222
internal_value=0 0.0125057 -0.0126473 0.0217057 -0.00814839 0.00536463 0.00415094 -0.00962471 0.00312124 0.00222556 -0.00882568 0.000494645 -0.00127821 -0.00976649 -0.00264347 -0.0229238 -0.00197598 -0.00115532 -0.000248355 0.0182766 -0.0242347 0.016487 0.00114644 0.0320721 0.014936 -0.0250604 -0.0267587 -0.00685471 -0.00746648 -0.00957913 0.0141102 0.013215 0.0120117 -0.00164661 -0.0291481 -0.0138306 0.010353 -0.00377002 0.00886888 -0.0108208 -0.0145248 -0.00514035 -0.0129599 -0.01424 0.0301551 0.00773771 0.00628711 -0.0153898 -0.00627368 0.00703546 -0.0151008 -0.015614 -0.0150889 -0.0262091 0.00748513 -0.028228 -0.0209461 0.0311045 0.0114825 -0.0169419 -0.00761693 0.00615295
internal_weight=0 37874 37450 16551 26047 21323 19580 22631 18478 17603 21699 14830 12659 20280 11623 11403 11374 10954 10474 12437 10425 10195 9463 4114 8908 10011 8377 11815 11451 8539 8560 8145 7484 6463 6447 8465 6512 5268 5802 7780 8181 4854 5906 5345 3750 5442 4821 7707 4556 4680 7650 7467 5148 4414 4627 932 480 3614 2773 6521 4160 4188
internal_count=75324 37874 37450 16551 26047 21323 19580 22631 18478 17603 21699 14830 12659 20280 11623 11403 11374 10954 10474 12437 10425 10195 9463 4114 8908 10011 8377 11815 11451 8539 8560 8145 7484 6463 6447 8465 6512 5268 5802 7780 8181 4854 5906 5345 3750 5442 4821 7707 4556 4680 7650 7467 5148 4414 4627 932 480 3614 2773 6521 4160 4188
shrinkage=0.05


Tree=15
num_leaves=63
num_cat=0
split_feature=108 106 108 106 108 93 85 88 96 71 92 84 11 84 29 95 91 102 94 50 74 92 65 33 96 85 50 93 87 52 92 86 79 73 50 84 83 108 37 86 87 84 67 60 86 59 67 72 77 73 83 44 56 95 94 94 28 89 50 11 82 77
split_gain=4300.77 899.103 627.37 199.487 165.391 139.299 127.143 130.092 114.25 104.076 99.3654 91.4365 87.837 85.4886 81.9861 69.4416 67.4396 66.9059 64.3839 63.5529 63.0362 59.5431 59.3597 57.7483 60.7806 62.0802 55.69 57.9289 55.4072 59.0082 54.0047 51.46 50.9568 50.5778 48.8191 50.6647 51.4481 47.9472 47.1978 46.3472 46.0815 46.7393 44.4577 43.3909 43.0607 45.9419 41.4035 41.1291 39.857 39.799 36.6971 34.342 33.9914 36.3138 34.5407 33.7728 34.3047 33.5028 34.7753 32.2862 31.8332 31.0597
threshold=25.500000000000004 47.500000000000007 13.500000000000002 75.500000000000014 18.500000000000004 1.0000000180025095e-35 1.0000000180025095e-35 1.0000000180025095e-35 1.0000000180025095e-35 1.0000000180025095e-35 1.0000000180025095e-35 1.0000000180025095e-35 1.0000000180025095e-35 1.0000000180025095e-35 1.0000000180025095e-35 1.0000000180025095e-35 1.0000000180025095e-35 150.50000000000003 1.0000000180025095e-35 1.0000000180025095e-35 1.0000000180025095e-35 1.0000000180025095e-35 1.0000000180025095e-35 1.0000000180025095e-35 1.0000000180025095e-35 1.0000000180025095e-35 1.0000000180025095e-35 1.0000000180025095e-35 1.0000000180025095e-35 1.0000000180025095e-35 1.0000000180025095e-35 1.0000000180025095e-35 1.0000000180025095e-35 1.0000000180025095e-35 1.0000000180025095e-35 1.0000000180025095e-35 1.0000000180025095e-35 36.500000000000007 1.0000000180025095e-35 1.0000000180025095e-35 1.0000000180025095e-35 1.0000000180025095e-35 1.0000000180025095e-35 1.0000000180025095e-35 1.0000000180025095e-35 1.0000000180025095e-35 1.0000000180025095e-35 1.0000000180025095e-35 1.0000000180025095e-35 1.0000000180025095e-35 1.0000000180025095e-35 1.0000000180025095e-35 1.0000000180025095e-35 1.0000000180025095e-35 1.0000000180025095e-35 1.0000000180025095e-35 1.0000000180025095e-35 1.0000000180025095e-35 1.0000000180025095e-35 1.0000000180025095e-35 1.0000000180025095e-35 1.0000000180025095e-35
decision_type=2 2 2 2 2 2 2 2 2 2 2 2 2 2 2 2 2 2 2 2 2 2 2 2 2 2 2 2 2 2 2 2 2 2 2 2 2 2 2 2 2 2 2 2 2 2 2 2 2 2 2 2 2 2 2 2 2 2 2 2 2 2
left_child=2 5 30 23 20 6 7 8 9 10 11 12 14 16 15 18 19 59 28 21 22 33 26 24 25 40 27 42 29 32 31 34 37 39 35 36 38 -2 48 43 41 44 49 46 45 47 50 51 -1 52 55 57 53 54 61 56 -6 58 -3 -5 -48 -4
right_child=1 3 4 17 13 -7 -8 -9 -10 -11 -12 -13 -14 -15 -16 -17 -18 -19 -20 -21 -22 -23 -24 -25 -26 -27 -28 -29 -30 -31 -32 -33 -34 -35 -36 -37 -38 -39 -40 -41 -42 -43 -44 -45 -46 -47 60 -49 -50 -51 -52 -53 -54 -55 -56 -57 -58 -59 -60 -61 -62 -63
leaf_value=-0.033208041659507206 -0.0068059755487143428 0.0022143432662499957 -0.022051919188214763 0.027502860256207181 -0.017276814344623827 0.025722058451596277 0.01682758638494215 0.023368479317450532 0.015295095506644091 0.018124830286649154 0.018345337647384639 0.0085201945887264392 -0.022126988881747044 0.0046468107689551586 -0.022231505458070649 0.013286195640882468 0.0065908279809417858 0.042022207713822896 0.015055116796619878 -0.0002855399440294171 -0.00085961582390272739 0.012587004836064345 -0.0012426941755716383 0.032833788261627216 0.026362721175295714 0.026370789922953431 -0.0080003158827699952 0.0089532637096349215 0.0083737788653398173 0.01017626868966646 2.8653016704766746e-05 -0.0076284565300663272 -0.025322468647219501 0.010819979425570815 -0.01768002797121037 -0.013303377504526438 -0.015965993456566446 0.0010244171850004138 -0.020736499867539476 0.0014327829399897833 0.022668932584645786 0.020881784144838267 -0.0062367177700561847 0.0086880737700152626 0.024318001379444617 0.029987001832810396 0.010862940954248673 0.030005625256100777 -0.01231453396670505 0.0086939839265224618 -0.0053045569624017574 0.025067828525095544 -0.0050697719407284299 0.00041577743624332644 0.0057757058448051337 0.0060552455993537375 -0.004297500667022623 0.018001837576277758 0.016919554112028782 0.0043915051851973266 -0.0086497520023085233 -0.0081698544956872784
