tree
version=v3
num_class=1
num_tree_per_iteration=1
label_index=0
max_feature_idx=99
objective=regression
feature_names=Column_0 Column_1 Column_2 Column_3 Column_4 Column_5 Column_6 Column_7 Column_8 Column_9 Column_10 Column_11 Column_12 Column_13 Column_14 Column_15 Column_16 Column_17 Column_18 Column_19 Column_20 Column_21 Column_22 Column_23 Column_24 Column_25 Column_26 Column_27 Column_28 Column_29 Column_30 Column_31 Column_32 Column_33 Column_34 Column_35 Column_36 Column_37 Column_38 Column_39 Column_40 Column_41 Column_42 Column_43 Column_44 Column_45 Column_46 Column_47 Column_48 Column_49 Column_50 Column_51 Column_52 Column_53 Column_54 Column_55 Column_56 Column_57 Column_58 Column_59 Column_60 Column_61 Column_62 Column_63 Column_64 Column_65 Column_66 Column_67 Column_68 Column_69 Column_70 Column_71 Column_72 Column_73 Column_74 Column_75 Column_76 Column_77 Column_78 Column_79 Column_80 Column_81 Column_82 Column_83 Column_84 Column_85 Column_86 Column_87 Column_88 Column_89 Column_90 Column_91 Column_92 Column_93 Column_94 Column_95 Column_96 Column_97 Column_98 Column_99
feature_infos=[0:1] [0:1] [0:1] [0:1] [0:1] [0:1] [0:1] [0:1] [0:1] [0:1] [0:1] [0:1] [0:1] [0:1] [0:1] [0:1] [0:1] [0:1] [0:1] [0:1] [0:1] [0:1] [0:1] [0:1] [0:1] [0:1] [0:1] [0:1] [0:1] [0:1] [0:1] [0:1] [0:1] [0:1] [0:1] [0:1] [0:1] [0:1] [0:1] [0:1] [0:1] [0:1] [0:1] [0:1] [0:1] [0:1] [0:1] [0:1] [0:1] [0:1] [0:1] [0:1] [0:1] [0:1] [0:1] [0:1] [0:1] [0:1] [0:1] [0:1] [0:1] [0:1] [0:1] [0:1] [0:1] [0:1] [0:1] [0:1] [0:1] [0:1] [0:1] [0:1] [0:1] [0:1] [0:1] [0:1] [0:1] [0:1] [0:1] [0:1] [0:1] [0:1] [0:1] [0:1] [0:1] [0:1] [0:1] [0:1] [0:1] [0:1] [0:1] [0:1] [0:1] [0:1] [0:1] [0:1] [0:1] [0:1] [0:1] [4:2500]
tree_sizes=6015 6020 6048 6021 6045 6026 6028 6041 6061 6044 6044 6061 6057 6079 6076 6056 6060 6060 6106 6082 6081 6116 6095 6113 6109 6101 6119 6122 6128 6131 6103 6132 6118 6138 6147 6159 6138 6137 6133 6142 6135 6143 6120 6153 6131 6120 6167 6139 6137 6159 6153 6168 6161 6155 6112 6113 6142 6151 6151 6138 6146 6120 6142 6149 6134 6173 6124 6161 6142 6159 6117 6140 6145 6119 6137 6154 6111 6151 6156 6119 6147 6135 6119 6115 6130 6112 6151 6103 6120 6104 6138 6111 6155 6157 6071 6101 6119 6112 6068 6088 6131 6143 6126 6122 6077 6078 6098 6093 6044 6108 6096 6057 6174 6144 6057 6072 6112 6066 6095 6092 6110 6124 6063 6131 6016 6065 6056 6058 6069 6091 6091 6052 6056 6067 6059 6019 6045 6017 6059 6091 6003 5997 6049 6028 6019 6036 5974 6015 6077 6039 6041 5957 6032 5981 6031 5995 6095 5973 5949 6040 6014 6021 5981 6036 5984 6026 6038 5924 5974 5948 5927 5999 5932 5967 5969 6019 5920 5984 6018 6017 5902 5923 5956 5938 5967 5849 6005 5988 5879 5947 5995 5987 5969 5893 5940 6000 5842 5870 5999 5971 5885 5876 5845 5883 5880 5882 5985 5890 5852 5901 5804 5887 5888 5882 5798 5831 5855 5893 5865 5938 5877 5848 5951 5870 5915 5843 5875 5910 5874 5888 5818 5840 5915 5873 5861 5874 5906 5910 5814 5941 5837 5871 5958 5881 5853 5843 5860 5795 5850 5871 5794 5868 5888 5804 5952 5825 5787 5905 5957 5799 5886 5862 5855 5937 5950 5888 5816 5923 5865 5809 5841 5854 5868 5815 5835 5951 5856 5920 5873 5839 5943 5939 5847 5884 5837 5827 5824 5828 5850 5826 5835 5892 5855 5842 5913 6004 5968 5874 5823 5829 5949 5861 5844 5886 5849 5818 5773 5986 5838 5839 5860 5809 5866 5936 5778 5958 5798 5878 5815 5925 5833 5821 5785 5797 5965 5908 5809 5863 5823 5867 5848 5774 5950 5956 5841 5807 5953 5863 5736 5852 5826 5844 6009 5895 5849 5837 5850 5846 5942 5990 5863 5954 5838 5788 5865 5833 5843 5911 5858 5832 5945 5871 5836 5902 5808 5849 5820 5816 5773 5830 5889 5808 5876 5866 5883 5803 5810 5937 5832 5876 5896 5809 5821 5811 5799 5886 5813 5819 5965 5840 5876 5926 5858 5863 5773 5839 5794 5819 5903 5866 5968 5852 5793 5879 5857 5936 5904 5736 5776 5835 5824 5900 5969 5868 5824 5873 5853 5831 5987 5779 5786 5888 5833 5969 5816 5795 5850 5928 5864 5813 5926 5968 5765 5817 5844 5835 5829 5980 5857 5838 5795 5809 5857 5759 5806 5795 5825 5831 5957 5889 5817 5900 5833 5861 5792 5938 5934 5917 5986 5859 5816 5832 5786 5985 5846 5800 5868 5834 5785 5802 5814 5922

Tree=0
num_leaves=63
num_cat=0
split_feature=99 99 99 99 99 99 99 98 98 99 95 54 84 98 95 97 88 95 67 95 37 70 86 89 85 86 98 84 70 98 94 50 86 50 99 85 89 76 50 76 67 86 88 61 11 29 85 50 44 89 93 88 57 87 76 80 98 6 57 37 80 80
split_gain=19379.2 4202.47 2406.17 668.287 575.109 484.989 391.519 352.083 239.372 231.515 202.347 216.957 172.75 165.874 148.655 146.711 141.653 134.292 126.34 122.051 122.029 143.868 104.987 104.868 101.664 97.7348 97.3781 94.2828 94.1002 93.7714 92.2065 90.4006 84.9078 98.4265 84.8347 81.3528 80.3157 79.493 92.6798 79.4663 77.7402 74.8234 73.9346 72.6445 70.9677 69.9056 66.2762 62.1581 61.6449 60.9845 59.1131 58.9505 58.818 58.3225 56.5341 68.5549 55.9175 55.5907 55.0822 54.8224 50.5234 49.6138
threshold=30.500000000000004 15.500000000000002 53.500000000000007 20.500000000000004 84.500000000000014 12.500000000000002 40.500000000000007 1.0000000180025095e-35 1.0000000180025095e-35 230.50000000000003 1.0000000180025095e-35 1.0000000180025095e-35 1.0000000180025095e-35 1.0000000180025095e-35 1.0000000180025095e-35 1.0000000180025095e-35 1.0000000180025095e-35 1.0000000180025095e-35 1.0000000180025095e-35 1.0000000180025095e-35 1.0000000180025095e-35 1.0000000180025095e-35 1.0000000180025095e-35 1.0000000180025095e-35 1.0000000180025095e-35 1.0000000180025095e-35 1.0000000180025095e-35 1.0000000180025095e-35 1.0000000180025095e-35 1.0000000180025095e-35 1.0000000180025095e-35 1.0000000180025095e-35 1.0000000180025095e-35 1.0000000180025095e-35 10.500000000000002 1.0000000180025095e-35 1.0000000180025095e-35 1.0000000180025095e-35 1.0000000180025095e-35 1.0000000180025095e-35 1.0000000180025095e-35 1.0000000180025095e-35 1.0000000180025095e-35 1.0000000180025095e-35 1.0000000180025095e-35 1.0000000180025095e-35 1.0000000180025095e-35 1.0000000180025095e-35 1.0000000180025095e-35 1.0000000180025095e-35 1.0000000180025095e-35 1.0000000180025095e-35 1.0000000180025095e-35 1.0000000180025095e-35 1.0000000180025095e-35 1.0000000180025095e-35 1.0000000180025095e-35 1.0000000180025095e-35 1.0000000180025095e-35 1.0000000180025095e-35 1.0000000180025095e-35 1.0000000180025095e-35
decision_type=2 2 2 2 2 2 2 2 2 2 2 2 2 2 2 2 2 2 2 2 2 2 2 2 2 2 2 2 2 2 2 2 2 2 2 2 2 2 2 2 2 2 2 2 2 2 2 2 2 2 2 2 2 2 2 2 2 2 2 2 2 2
left_child=1 5 6 8 17 34 13 10 12 50 11 15 18 14 16 20 24 35 23 26 21 30 31 25 27 28 42 32 39 37 49 36 33 44 -1 41 40 38 43 47 48 51 46 -7 45 52 58 61 53 -5 59 56 54 60 55 -2 -4 -22 -8 -6 -13 -3
right_child=2 3 4 7 9 29 19 -9 -10 -11 -12 22 -14 -15 -16 -17 -18 -19 -20 -21 57 -23 -24 -25 -26 -27 -28 -29 -30 -31 -32 -33 -34 -35 -36 -37 -38 -39 -40 -41 -42 -43 -44 -45 -46 -47 -48 -49 -50 -51 -52 -53 -54 -55 -56 -57 -58 -59 -60 -61 -62 -63
leaf_value=-0.055503509210655 -0.001033824841341027 -0.033284110746445932 0.034777537022500415 -0.0097049095113577958 0.053602701508800414 -0.036033577085618176 0.025663383638732617 -0.048441030201213882 -0.051495708970247168 0.10207942906741145 0.019881315047452407 -0.022254616967471826 -0.0018012747305439925 -0.040540787685102476 0.033683374482541432 0.02966468893129115 0.044956195662238768 0.059733142106291777 -0.0045238320464838847 0.046979834728493056 0.01209799207713271 0.027409915312679566 0.012575949797203397 -0.0060597129296115024 0.028061596631207112 -0.0049716639502174632 -0.030880057102745634 0.021578717739004827 0.0068716928817114204 -0.055588999436572042 0.025395013119184788 0.0051558945173031138 0.026773434119446382 0.021203777032557575 -0.045007379660595224 0.053360754868809063 0.0033578984733883426 -0.020442904595981623 -0.024069988334356168 -0.014880412306774256 0.0047851818093266017 0.054067873596097341 0.056584394125276341 -0.06200113891435368 -0.021619474630718408 -0.025520699287695861 0.040728395836933946 -0.018568040536119334 0.0064418789898655956 0.01033959530780147 0.084041888349769112 0.067042026196710736 -0.011039721343051945 -0.00064102176083421808 0.014877845582333618 0.018019901171612483 -0.0188720986669372 -0.015448338873894551 0.0084723737946653544 0.06672209978790139 -0.0088231660557974954 -0.02090971500371612
leaf_weight=3966 2242 3688 5515 3846 2033 4154 5396 414 511 369 1014 3536 1708 141 881 473 318 859 1341 785 2300 345 516 1058 793 709 74 1306 234 427 221 790 497 840 3741 846 686 1336 1728 1470 466 573 202 288 282 191 674 1399 276 421 248 141 494 447 1539 598 49 199 510 1309 873 1038
leaf_count=3966 2242 3688 5515 3846 2033 4154 5396 414 511 369 1014 3536 1708 141 881 473 318 859 1341 785 2300 345 516 1058 793 709 74 1306 234 427 221 790 497 840 3741 846 686 1336 1728 1470 466 573 202 288 282 191 674 1399 276 421 248 141 494 447 1539 598 49 199 510 1309 873 1038
internal_value=1.13009e-08 -0.0204651 0.031429 -0.00950385 0.0487845 -0.0414757 0.0197609 -0.00290219 -0.0179456 0.0643656 -0.00175324 -0.00317821 -0.0165898 0.0133113 0.0140721 0.0026751 0.0121735 0.0410574 -0.0188993 0.0283046 0.000933956 -0.00370441 -0.00919733 -0.0209082 0.0109864 -0.0227482 0.0261663 0.00929149 -0.024358 -0.0327973 -0.00609622 -0.0107855 0.0068903 0.00529283 -0.0504087 0.0388055 -0.0127896 -0.0315007 -0.0338951 -0.0253202 -0.0147684 0.0368441 0.0267888 -0.0377172 0.0027928 0.00415225 0.0258741 -0.0278258 -0.0165439 -0.00772724 0.0604891 0.0351142 0.0053153 -0.0178504 0.00716033 0.00297819 0.0343051 0.00990443 0.0241789 0.0587413 -0.0195951 -0.0305662
internal_weight=0 45619 29705 29979 11942 15640 17763 16823 13156 3959 16409 15395 12645 10122 9981 7805 9100 7983 10937 7641 7332 4833 7590 9596 8782 8538 6856 7989 7829 7933 4488 7074 6683 6186 7707 7124 6284 7506 6170 7595 5598 6278 6782 4442 5346 5064 6580 6125 5132 4267 3590 5705 4873 4856 4379 2840 5564 2499 5906 3342 4409 4726
internal_count=75324 45619 29705 29979 11942 15640 17763 16823 13156 3959 16409 15395 12645 10122 9981 7805 9100 7983 10937 7641 7332 4833 7590 9596 8782 8538 6856 7989 7829 7933 4488 7074 6683 6186 7707 7124 6284 7506 6170 7595 5598 6278 6782 4442 5346 5064 6580 6125 5132 4267 3590 5705 4873 4856 4379 2840 5564 2499 5906 3342 4409 4726
shrinkage=1


Tree=1
num_leaves=63
num_cat=0
split_feature=99 99 99 90 99 99 99 99 98 99 92 98 70 86 90 98 85 96 54 67 95 95 95 70 95 89 50 76 90 50 88 37 50 86 50 98 92 37 54 92 92 67 76 89 89 50 76 77 96 88 86 89 90 85 57 70 44 75 86 77 76 64
split_gain=17489.8 3792.73 2171.57 613.559 521.462 491.056 437.703 353.346 283.841 194.519 180.472 178.791 157.174 160.919 155.37 149.701 140.396 136.217 149.082 132.739 130.608 121.754 113.036 112.846 110.151 105.798 104.121 119.998 101.271 95.0571 93.1156 95.1534 89.4065 88.6134 88.4178 87.8837 85.7729 83.1721 78.7358 77.6283 76.2831 75.5263 72.4227 72.4212 70.4807 67.902 67.0277 69.8707 66.5882 70.3378 66.2038 64.7888 62.1329 64.2717 62.0344 61.267 61.0705 60.1419 57.7872 56.3584 55.3529 55.0075
threshold=30.500000000000004 15.500000000000002 53.500000000000007 1.0000000180025095e-35 88.500000000000014 20.500000000000004 12.500000000000002 40.500000000000007 1.0000000180025095e-35 230.50000000000003 1.0000000180025095e-35 1.0000000180025095e-35 1.0000000180025095e-35 1.0000000180025095e-35 1.0000000180025095e-35 1.0000000180025095e-35 1.0000000180025095e-35 1.0000000180025095e-35 1.0000000180025095e-35 1.0000000180025095e-35 1.0000000180025095e-35 1.0000000180025095e-35 1.0000000180025095e-35 1.0000000180025095e-35 1.0000000180025095e-35 1.0000000180025095e-35 1.0000000180025095e-35 1.0000000180025095e-35 1.0000000180025095e-35 1.0000000180025095e-35 1.0000000180025095e-35 1.0000000180025095e-35 1.0000000180025095e-35 1.0000000180025095e-35 1.0000000180025095e-35 1.0000000180025095e-35 1.0000000180025095e-35 1.0000000180025095e-35 1.0000000180025095e-35 1.0000000180025095e-35 1.0000000180025095e-35 1.0000000180025095e-35 1.0000000180025095e-35 1.0000000180025095e-35 1.0000000180025095e-35 1.0000000180025095e-35 1.0000000180025095e-35 1.0000000180025095e-35 1.0000000180025095e-35 1.0000000180025095e-35 1.0000000180025095e-35 1.0000000180025095e-35 1.0000000180025095e-35 1.0000000180025095e-35 1.0000000180025095e-35 1.0000000180025095e-35 1.0000000180025095e-35 1.0000000180025095e-35 1.0000000180025095e-35 1.0000000180025095e-35 1.0000000180025095e-35 1.0000000180025095e-35
decision_type=2 2 2 2 2 2 2 2 2 2 2 2 2 2 2 2 2 2 2 2 2 2 2 2 2 2 2 2 2 2 2 2 2 2 2 2 2 2 2 2 2 2 2 2 2 2 2 2 2 2 2 2 2 2 2 2 2 2 2 2 2 2
left_child=1 6 7 5 20 11 28 15 10 -6 12 19 13 16 29 17 21 18 30 23 37 26 34 25 35 33 27 41 32 43 31 55 46 39 36 40 44 54 -5 42 48 51 45 60 50 -3 47 58 49 52 56 57 53 -9 -4 -2 -20 61 -1 -40 -8 -7
right_child=2 3 4 38 9 8 14 24 -10 -11 -12 -13 -14 -15 -16 -17 -18 -19 22 -21 -22 -23 -24 -25 -26 -27 -28 -29 -30 -31 -32 -33 -34 -35 -36 -37 -38 -39 59 -41 -42 -43 -44 -45 -46 -47 -48 -49 -50 -51 -52 -53 -54 -55 -56 -57 -58 -59 -60 -61 -62 -63
leaf_value=-0.058193592446454057 0.0076344811083862976 -0.031328168019031759 0.035658548228405508 0.013093366840776909 0.058576934459137676 -0.019358854861625661 -0.041554592354080079 0.0165862591482927 -0.0483340591397039 0.096975448040094808 0.023291149482399492 -0.049393231591247783 0.026295353276906786 0.010198606113608578 -0.011423193383331224 -0.038513759011072471 0.010832595220434735 0.031526380772582997 -0.0061361522521646145 -0.0040047593728834109 0.057459645995500956 0.01263946866491529 0.027178124241782339 0.0096039177382670135 0.044630832759438049 -0.0060122871848106883 1.7152358445002674e-05 -0.0038470861233687137 -0.027852865517471709 -0.02397280675506069 0.045702588954241175 0.026890533731298912 -0.039417119089066449 -0.006256223158264647 0.024454264311535207 -0.029336065361024562 0.030562754127573463 0.045422079344067202 -0.0022076666522054338 0.0034434848513197284 0.048012246046687523 -0.0021924218121386839 -0.015751455017810011 -0.018030070804602265 0.018901782749336588 -0.018583516075330622 -0.040766217839830733 -0.031618477571946364 0.03806945122436646 0.05291503674790754 0.025681165266067868 -0.0022290763341718252 0.031807189979461935 0.036760545174054519 0.016044842827726495 0.039906219322726415 0.022087799626238205 -0.050431827872115025 -0.030650374798104171 0.030343213599253367 -0.027677680679693884 -0.05684416232258082
leaf_weight=3981 1960 4514 4812 2696 3106 4590 3841 3920 382 369 555 490 370 1258 886 141 855 936 3169 1376 918 551 563 299 785 972 1637 2225 583 1869 301 1390 1673 686 453 74 235 2297 1897 232 355 718 1408 453 418 1360 977 293 763 182 193 495 1123 439 440 159 204 170 200 143 884 100
leaf_count=3981 1960 4514 4812 2696 3106 4590 3841 3920 382 369 555 490 370 1258 886 141 855 936 3169 1376 918 551 563 299 785 972 1637 2225 583 1869 301 1390 1673 686 453 74 235 2297 1897 232 355 718 1408 453 418 1360 977 293 763 182 193 495 1123 439 440 159 204 170 200 143 884 100
internal_value=0 -0.0194418 0.0298575 -0.00902867 0.0463453 -0.012127 -0.039402 0.0187728 -0.00583028 0.0626544 -0.00462972 -0.0198505 -0.00582457 -0.00676785 -0.0311574 0.0126458 -0.00864985 0.0133685 0.0114895 -0.018516 0.0396517 -0.0102384 0.00601321 -0.0206242 0.0268894 -0.0216097 -0.0115072 -0.0137807 -0.0478882 -0.0336386 0.0190139 0.0167246 -0.0495279 -0.0234585 0.00346273 0.024858 0.00120884 0.0374862 0.0074854 -0.025029 0.0254493 -0.0174201 -0.0259361 -0.0371274 -0.000522627 -0.0283774 -0.052631 -0.0552219 0.0242031 0.0223351 -0.00279952 -0.0194619 0.0213199 0.018618 0.0340154 0.010056 -0.00442916 -0.0212171 -0.0568761 7.40862e-05 -0.0389584 -0.0201581
internal_weight=0 45619 29705 29979 11942 25243 15640 17763 13906 3475 13524 11337 12969 12599 7933 10122 11341 9981 9045 10847 8467 10486 5235 9471 7641 9172 9935 8298 7707 7047 3810 3509 7124 8200 4672 6856 4219 7549 4736 7514 6782 6073 7282 5178 3984 5874 5451 4474 6427 5664 3566 5355 5482 4359 5252 2119 3373 4860 4181 2040 4725 4690
internal_count=75324 45619 29705 29979 11942 25243 15640 17763 13906 3475 13524 11337 12969 12599 7933 10122 11341 9981 9045 10847 8467 10486 5235 9471 7641 9172 9935 8298 7707 7047 3810 3509 7124 8200 4672 6856 4219 7549 4736 7514 6782 6073 7282 5178 3984 5874 5451 4474 6427 5664 3566 5355 5482 4359 5252 2119 3373 4860 4181 2040 4725 4690
shrinkage=0.05


Tree=2
num_leaves=63
num_cat=0
split_feature=99 99 99 99 90 99 98 99 95 98 90 99 90 88 85 96 95 92 99 67 50 50 91 70 95 89 86 91 89 96 84 86 50 84 86 84 83 86 92 50 76 54 50 98 76 83 75 99 90 71 70 91 90 87 88 75 76 50 95 77 82 69
split_gain=15807.9 2851.19 2650.45 659.371 466.552 398.892 385.576 276.995 231.036 231.809 205.571 190.148 181.836 163.729 164.394 163.811 158.495 136.381 125.521 119.797 118.994 116.023 105.772 101.844 97.5039 95.4831 90.9684 88.0711 85.54 84.2066 84.1788 79.9736 78.3121 78.1666 77.5897 73.9511 74.0288 70.5524 70.0595 66.1913 65.3615 61.7644 61.2815 61.248 60.1166 58.6745 58.593 56.6054 55.9852 51.3832 51.0715 50.9142 50.1579 48.5475 47.9793 47.0854 46.9935 52.8266 44.0031 43.8703 42.9636 42.7095
threshold=28.500000000000004 15.500000000000002 47.500000000000007 80.500000000000014 1.0000000180025095e-35 11.500000000000002 1.0000000180025095e-35 20.500000000000004 1.0000000180025095e-35 1.0000000180025095e-35 1.0000000180025095e-35 230.50000000000003 1.0000000180025095e-35 1.0000000180025095e-35 1.0000000180025095e-35 1.0000000180025095e-35 1.0000000180025095e-35 1.0000000180025095e-35 39.500000000000007 1.0000000180025095e-35 1.0000000180025095e-35 1.0000000180025095e-35 1.0000000180025095e-35 1.0000000180025095e-35 1.0000000180025095e-35 1.0000000180025095e-35 1.0000000180025095e-35 1.0000000180025095e-35 1.0000000180025095e-35 1.0000000180025095e-35 1.0000000180025095e-35 1.0000000180025095e-35 1.0000000180025095e-35 1.0000000180025095e-35 1.0000000180025095e-35 1.0000000180025095e-35 1.0000000180025095e-35 1.0000000180025095e-35 1.0000000180025095e-35 1.0000000180025095e-35 1.0000000180025095e-35 1.0000000180025095e-35 1.0000000180025095e-35 1.0000000180025095e-35 1.0000000180025095e-35 1.0000000180025095e-35 1.0000000180025095e-35 13.500000000000002 1.0000000180025095e-35 1.0000000180025095e-35 1.0000000180025095e-35 1.0000000180025095e-35 1.0000000180025095e-35 1.0000000180025095e-35 1.0000000180025095e-35 1.0000000180025095e-35 1.0000000180025095e-35 1.0000000180025095e-35 1.0000000180025095e-35 1.0000000180025095e-35 1.0000000180025095e-35 1.0000000180025095e-35
decision_type=2 2 2 2 2 2 2 2 2 2 2 2 2 2 2 2 2 2 2 2 2 2 2 2 2 2 2 2 2 2 2 2 2 2 2 2 2 2 2 2 2 2 2 2 2 2 2 2 2 2 2 2 2 2 2 2 2 2 2 2 2 2
left_child=1 5 8 16 6 52 7 19 9 10 13 51 20 14 15 18 22 21 32 23 28 24 26 25 27 31 29 33 43 30 39 38 34 37 35 36 49 44 40 48 42 -6 58 45 46 47 61 -7 53 55 -22 -5 54 -4 56 -2 57 -1 -3 -43 -21 -9
right_child=2 4 3 11 41 12 -8 17 -10 -11 -12 -13 -14 -15 -16 -17 -18 -19 -20 60 50 -23 -24 -25 -26 -27 -28 -29 -30 -31 -32 -33 -34 -35 -36 -37 -38 -39 -40 -41 -42 59 -44 -45 -46 -47 -48 -49 -50 -51 -52 -53 -54 -55 -56 -57 -58 -59 -60 -61 -62 -63
leaf_value=-0.056331430113328688 -0.0099069419309421071 -0.030689545298644573 0.017478966858859763 0.051626718473363545 0.010494386095109921 -0.04554914789199313 -0.047167989993134082 -0.019662587768945139 0.030926461736027144 -0.038010743611271949 0.022855653302694331 0.092126673602481404 -0.012607310770671239 0.037304699214054798 0.025806962811555364 0.024010214939794317 0.051292637939722587 0.021499543548049078 0.011412987297308361 0.0083052375965662079 -0.026487281476669886 0.003690028502023779 0.045547634352911169 0.0091237222620077357 0.013037976442739883 -0.0057116725961122005 0.046836977997204154 0.00749873692337941 -0.019064894092241991 0.042287872665162596 0.038661353979012547 -0.0059434121029326593 0.012511589660877134 0.0010067868574316521 0.018982983123967234 0.010321058890011463 0.0058879351111439373 0.0025666583819608942 0.0032713107748663633 0.037801806089226848 -0.014963882436594841 -0.0041579090362380599 -0.017654339879860773 -0.057539275222659253 -0.0073988158466987489 -0.025186056672937825 -0.051469628546602919 -0.034915840088165249 0.032607692114547539 0.017365281763458681 0.002486458179638064 0.066566695184149635 -0.030671223191611491 0.033111131027469348 -0.023562779453167895 -0.041284241905856521 -0.039367101415941651 -0.042921418518242334 -0.0034945723491829716 0.028778394035719058 -0.010250473207480924 0.0013884181077030383
leaf_weight=3014 3341 4360 3457 2984 2334 2309 809 3857 1539 241 3148 369 1108 479 1119 1106 1252 427 3525 478 2273 1920 1343 299 435 972 779 576 581 1036 1281 686 1025 891 392 766 960 532 232 810 1408 1583 1360 421 1376 797 138 2733 1066 167 163 705 361 580 166 124 743 971 154 108 898 257
leaf_count=3014 3341 4360 3457 2984 2334 2309 809 3857 1539 241 3148 369 1108 479 1119 1106 1252 427 3525 478 2273 1920 1343 299 435 972 779 576 581 1036 1281 686 1025 891 392 766 960 532 232 810 1408 1583 1360 421 1376 797 138 2733 1066 167 163 705 361 580 166 124 743 971 154 108 898 257
internal_value=0 -0.0205517 0.025529 0.0405566 -0.0104326 -0.0374319 -0.0132883 -0.0119988 0.0124037 0.0106648 0.0113911 0.057905 -0.0317517 0.00861571 0.00751855 0.00572434 0.0344897 -0.00617224 0.00376083 -0.0175902 -0.0340382 -0.00735596 0.0324575 -0.019593 -0.00998661 -0.0205292 0.0305062 -0.0112998 -0.0374173 0.0289604 0.0270411 -0.0222856 -0.000220558 -0.0128355 -0.0024902 -0.00406121 -0.00646035 -0.0148376 -0.0237776 0.0245237 -0.0246393 0.00522236 -0.0269585 -0.0391207 -0.0164828 -0.0377926 -0.0194225 -0.0397854 0.022416 -0.00972421 -0.0245486 0.0544819 -0.0486571 0.0197249 -0.0499838 -0.0110298 -0.0509115 -0.0530639 -0.0297618 -0.00205435 -0.00380452 -0.0183475
internal_weight=0 41730 33594 15662 26090 15640 22065 21256 17932 16393 16152 4058 10385 13004 12525 11406 11604 10409 10300 10847 9277 9982 10352 9471 8062 9172 9009 7627 6841 8230 7194 8200 6775 7051 5750 5358 4592 6160 7514 5913 7282 4025 5874 6260 5628 5839 4252 5042 5103 3632 2436 3689 5255 4037 4894 3465 4728 3985 4514 1691 1376 4114
internal_count=75324 41730 33594 15662 26090 15640 22065 21256 17932 16393 16152 4058 10385 13004 12525 11406 11604 10409 10300 10847 9277 9982 10352 9471 8062 9172 9009 7627 6841 8230 7194 8200 6775 7051 5750 5358 4592 6160 7514 5913 7282 4025 5874 6260 5628 5839 4252 5042 5103 3632 2436 3689 5255 4037 4894 3465 4728 3985 4514 1691 1376 4114
shrinkage=0.05


Tree=3
num_leaves=63
num_cat=0
split_feature=99 99 99 90 99 98 99 99 99 92 70 98 85 95 90 88 96 95 67 85 64 37 90 67 98 84 50 57 89 90 95 92 50 50 71 39 92 50 89 96 95 11 96 85 88 99 92 89 39 37 76 77 37 44 82 99 95 84 76 90 83 79
split_gain=14282.1 3081.49 1794.61 499.549 490.936 398.097 374.424 361.375 306.683 149.391 138.42 132.834 132.054 129.667 127.079 124.865 131.669 114.732 108.117 106.382 103.958 100.764 100.006 97.0654 96.919 93.1706 93.2339 93.1482 84.3065 81.7456 81.5706 80.484 78.0353 77.7066 79.0064 75.5627 73.737 72.5229 72.353 70.3247 68.0393 66.0168 65.1055 64.4537 69.5744 64.1434 64.1324 59.4216 58.3148 73.7625 55.5961 61.7206 55.8566 55.2374 54.8392 52.8727 51.2564 50.3372 49.3497 49.2899 51.4922 47.9734
threshold=30.500000000000004 15.500000000000002 61.500000000000007 1.0000000180025095e-35 42.500000000000007 1.0000000180025095e-35 20.500000000000004 12.500000000000002 130.50000000000003 1.0000000180025095e-35 1.0000000180025095e-35 1.0000000180025095e-35 1.0000000180025095e-35 1.0000000180025095e-35 1.0000000180025095e-35 1.0000000180025095e-35 1.0000000180025095e-35 1.0000000180025095e-35 1.0000000180025095e-35 1.0000000180025095e-35 1.0000000180025095e-35 1.0000000180025095e-35 1.0000000180025095e-35 1.0000000180025095e-35 1.0000000180025095e-35 1.0000000180025095e-35 1.0000000180025095e-35 1.0000000180025095e-35 1.0000000180025095e-35 1.0000000180025095e-35 1.0000000180025095e-35 1.0000000180025095e-35 1.0000000180025095e-35 1.0000000180025095e-35 1.0000000180025095e-35 1.0000000180025095e-35 1.0000000180025095e-35 1.0000000180025095e-35 1.0000000180025095e-35 1.0000000180025095e-35 1.0000000180025095e-35 1.0000000180025095e-35 1.0000000180025095e-35 1.0000000180025095e-35 1.0000000180025095e-35 235.50000000000003 1.0000000180025095e-35 1.0000000180025095e-35 1.0000000180025095e-35 1.0000000180025095e-35 1.0000000180025095e-35 1.0000000180025095e-35 1.0000000180025095e-35 1.0000000180025095e-35 1.0000000180025095e-35 20.500000000000004 1.0000000180025095e-35 1.0000000180025095e-35 1.0000000180025095e-35 1.0000000180025095e-35 1.0000000180025095e-35 1.0000000180025095e-35
decision_type=2 2 2 2 2 2 2 2 2 2 2 2 2 2 2 2 2 2 2 2 2 2 2 2 2 2 2 2 2 2 2 2 2 2 2 2 2 2 2 2 2 2 2 2 2 2 2 2 2 2 2 2 2 2 2 2 2 2 2 2 2 2
left_child=1 7 4 5 11 6 18 29 21 10 12 15 17 24 32 16 19 20 25 22 23 30 31 28 27 26 46 36 33 37 61 38 47 34 42 55 39 50 40 43 41 57 48 44 59 -10 56 58 49 -8 51 52 -1 -50 -25 -5 -3 -2 -9 60 -6 -4
right_child=2 3 8 35 13 -7 9 14 45 -11 -12 -13 -14 -15 -16 -17 -18 -19 -20 -21 -22 -23 -24 54 -26 -27 -28 -29 -30 -31 -32 -33 -34 -35 -36 -37 -38 -39 -40 -41 -42 -43 -44 -45 -46 -47 -48 -49 53 -51 -52 -53 -54 -55 -56 -57 -58 -59 -60 -61 -62 -63
leaf_value=-0.054497395924873987 -7.7864325049918268e-05 -0.025169572264794122 0.037112229972904136 0.0035096804696965866 0.01645039971675832 -0.044173265501693669 -0.016328838092249026 -0.037583886925834246 0.06261067566143369 0.021162817075445844 0.024815387417738505 -0.034381715048374117 0.011432754388936093 0.043409105926603214 -0.010221668469885672 0.039450939268158278 0.028517548975474684 0.012813545993141693 -0.0036142955837381442 0.025927887937539945 -0.046480215561077086 0.051008415980213377 0.01872774126287069 0.01735386506164854 -0.027578311019338844 -0.0049116766924138713 -0.01111493321434065 0.008721805169552484 0.0039893079104556962 -0.025270587408765002 0.057167215949114641 0.030458958270518408 -0.0215552177363902 -0.0010808121418246766 0.013284048688840776 -0.0020944099562670328 0.046645710322418564 -0.035638125876403984 0.019079337654513889 0.038675584003497049 0.021644820613596336 -0.025200802549465093 0.0051362835390395241 0.037927071263860031 0.051871188894519353 0.087935848255230736 0.0056835133177430735 -0.016175322706665159 -0.024797296942369488 -0.00044778531071164171 -0.036733381754160833 -0.027714616774363644 -0.040481156201844441 0.004592637147086894 -0.0031498631456746994 0.01670603543649973 -0.0010104293510187091 0.013973924588137024 -0.024481070310544282 0.030434912079768374 0.028887242260737956 0.0063645907592398063
leaf_weight=3273 4410 5921 4012 1295 3617 872 3088 3841 829 555 370 152 978 1101 886 419 1039 644 1376 920 181 2448 1743 489 86 1097 2041 738 947 583 519 304 1869 1418 257 1607 463 1673 721 977 421 234 380 776 197 358 184 453 2107 958 977 293 908 173 979 1834 228 745 884 1264 1081 131
leaf_count=3273 4410 5921 4012 1295 3617 872 3088 3841 829 555 370 152 978 1101 886 419 1039 644 1376 920 181 2448 1743 489 86 1097 2041 738 947 583 519 304 1869 1418 257 1607 463 1673 721 977 421 234 380 776 197 358 184 453 2107 958 977 293 908 173 979 1834 228 745 884 1264 1081 131
internal_value=0 -0.0175688 0.026981 -0.00818262 0.01933 -0.0109783 -0.00979056 -0.0355603 0.0467219 -0.00424025 -0.00532736 0.0120389 -0.00621257 0.0271931 -0.028069 0.0126829 0.0116185 -0.00769757 -0.0167107 0.0097699 -0.00890091 0.0427942 0.00803694 -0.00827088 0.0252523 -0.0186134 -0.0204083 0.0257509 -0.0101517 -0.0432712 0.0384809 0.00531067 -0.0303129 -0.0117495 -0.0139222 0.00671837 0.0272515 -0.0447443 0.00414008 0.0261165 0.00228617 0.000773836 -0.0149648 0.0243472 0.0226362 0.0702488 -0.0234034 -0.033474 -0.0161723 -0.0125686 -0.0475391 -0.0498988 -0.0514534 -0.0225673 0.00368006 0.0112445 -0.0242738 0.0019529 -0.0351325 0.0216702 0.0193121 0.03614
internal_weight=0 45619 29705 29979 21408 25243 24371 15640 8297 13524 12969 11108 12599 10300 7933 10956 10537 11621 10847 9498 10977 7110 8578 10796 9199 9471 8374 9113 9328 7707 4662 6835 7047 8381 6963 4736 8375 7124 6531 7912 5810 5389 6706 6935 6159 1187 6333 5178 6326 4046 5451 4474 4181 2280 1468 3129 6149 5155 4725 5962 4698 4143
internal_count=75324 45619 29705 29979 21408 25243 24371 15640 8297 13524 12969 11108 12599 10300 7933 10956 10537 11621 10847 9498 10977 7110 8578 10796 9199 9471 8374 9113 9328 7707 4662 6835 7047 8381 6963 4736 8375 7124 6531 7912 5810 5389 6706 6935 6159 1187 6333 5178 6326 4046 5451 4474 4181 2280 1468 3129 6149 5155 4725 5962 4698 4143
shrinkage=0.05


Tree=4
num_leaves=63
num_cat=0
split_feature=99 99 99 99 90 99 98 99 92 98 90 99 90 95 95 88 85 96 92 88 99 67 50 91 70 89 64 86 85 96 26 70 86 89 95 85 50 50 86 89 54 37 84 39 84 83 77 98 76 86 39 90 83 88 64 76 93 94 75 84 70 61
split_gain=12909.9 2314.8 2163.47 546.502 378.646 333.668 313.992 222.502 197.621 188.861 166.713 154.992 148.009 142.727 130.132 128.789 121.84 122.974 111.389 102.238 97.6366 97.5756 97.0614 93.2725 89.7945 85.2118 83.544 80.4402 79.975 71.8992 74.8387 76.2943 71.4226 71.1512 71.1323 69.6861 68.243 66.7652 66.7491 64.4201 63.8835 66.8969 63.2135 59.8339 59.3489 58.2784 56.2193 55.0062 54.1278 53.7455 53.0774 52.5946 52.3674 51.2405 49.6165 48.4542 48.1701 46.9112 46.7631 45.9854 45.9226 45.7862
threshold=28.500000000000004 15.500000000000002 47.500000000000007 80.500000000000014 1.0000000180025095e-35 11.500000000000002 1.0000000180025095e-35 20.500000000000004 1.0000000180025095e-35 1.0000000180025095e-35 1.0000000180025095e-35 190.50000000000003 1.0000000180025095e-35 1.0000000180025095e-35 1.0000000180025095e-35 1.0000000180025095e-35 1.0000000180025095e-35 1.0000000180025095e-35 1.0000000180025095e-35 1.0000000180025095e-35 39.500000000000007 1.0000000180025095e-35 1.0000000180025095e-35 1.0000000180025095e-35 1.0000000180025095e-35 1.0000000180025095e-35 1.0000000180025095e-35 1.0000000180025095e-35 1.0000000180025095e-35 1.0000000180025095e-35 1.0000000180025095e-35 1.0000000180025095e-35 1.0000000180025095e-35 1.0000000180025095e-35 1.0000000180025095e-35 1.0000000180025095e-35 1.0000000180025095e-35 1.0000000180025095e-35 1.0000000180025095e-35 1.0000000180025095e-35 1.0000000180025095e-35 1.0000000180025095e-35 1.0000000180025095e-35 1.0000000180025095e-35 1.0000000180025095e-35 1.0000000180025095e-35 1.0000000180025095e-35 1.0000000180025095e-35 1.0000000180025095e-35 1.0000000180025095e-35 1.0000000180025095e-35 1.0000000180025095e-35 1.0000000180025095e-35 1.0000000180025095e-35 1.0000000180025095e-35 1.0000000180025095e-35 1.0000000180025095e-35 1.0000000180025095e-35 1.0000000180025095e-35 1.0000000180025095e-35 1.0000000180025095e-35 1.0000000180025095e-35
decision_type=2 2 2 2 2 2 2 2 2 2 2 2 2 2 2 2 2 2 2 2 2 2 2 2 2 2 2 2 2 2 2 2 2 2 2 2 2 2 2 2 2 2 2 2 2 2 2 2 2 2 2 2 2 2 2 2 2 2 2 2 2 2
left_child=1 5 8 14 6 59 7 21 9 10 13 56 22 15 23 16 17 20 19 26 37 24 33 27 25 32 28 29 34 30 31 35 44 47 36 39 42 38 40 45 41 -2 48 -12 54 51 -42 52 49 58 -6 -4 53 55 57 61 -5 -3 -9 -1 -24 -7
right_child=2 4 3 11 50 12 -8 18 -10 -11 43 -13 -14 -15 -16 -17 -18 -19 -20 -21 -22 -23 60 -25 -26 -27 -28 -29 -30 -31 -32 -33 -34 -35 -36 -37 -38 -39 -40 -41 46 -43 -44 -45 -46 -47 -48 -49 -50 -51 -52 -53 -54 -55 -56 -57 -58 -59 -60 -61 -62 -63
leaf_value=-0.045481954876827442 -0.0043803945093178285 -0.023397379870659291 0.013743280114465004 0.047047776768002189 0.0086774053964397847 -0.037643124029042407 -0.042600926929078679 -0.017236309274215333 0.033719094334220566 -0.033237281449215797 0.026918076073241728 0.077382833067396739 -0.011315100434629605 0.025899090709872119 0.046349719816989182 0.032886410177689444 0.021942970869003143 0.020345340760437071 0.019366425713764141 0.014447841051000136 0.0092927596143527833 -0.0034335807263634584 -0.023917871277948973 0.041575292433095073 0.0092818522146812642 -0.0045638733332662431 -0.043079491583518238 0.042807239095877081 0.0089202073149669235 0.038311990448201799 0.064593156822751061 0.055993189367249944 -0.0047771824252283955 -0.016964072684365488 0.0110061512111801 0.037835216164226484 -1.9602249990911672e-05 0.010933166870477894 0.017214706611593029 0.035527404331203015 -0.012508438522010806 0.015067097825304973 0.0009959024636424286 0.013313085423009106 -0.0090378624028884438 0.029100487935619642 0.0037449450584967105 -0.052710296195044651 -0.0052922850861741571 0.00099408958572894351 -0.0035340692615136505 0.027204330170063969 -0.022087131349289257 -0.011820325099441382 -0.062339139849063946 -0.026332785769510553 0.07048128312968828 0.0036826242190195115 -0.047728375030788951 -0.028783480029557308 0.0035565341394280369 -0.056785450759207649
leaf_weight=4804 1275 6438 3421 3283 2697 3607 809 3836 925 249 1789 540 1108 1048 1252 452 1053 1057 427 540 3382 1376 2273 1343 299 972 166 779 703 1036 113 177 686 581 438 689 1493 968 370 686 2540 677 837 1474 832 1187 673 421 1439 400 1328 921 797 212 80 881 235 164 130 451 163 342
leaf_count=4804 1275 6438 3421 3283 2697 3607 809 3836 925 249 1789 540 1108 1048 1252 452 1053 1057 427 540 3382 1376 2273 1343 299 972 166 779 703 1036 113 177 686 581 438 689 1493 968 370 686 2540 677 837 1474 832 1187 673 421 1439 400 1328 921 797 212 80 881 235 164 130 451 163 342
internal_value=0 -0.0185725 0.0230705 0.0366476 -0.00945485 -0.0337823 -0.0120275 -0.0108639 0.0112122 0.00998806 0.0106303 0.0524415 -0.0285872 0.00817807 0.0311243 0.00668601 0.00569872 0.00413546 -0.00564176 -0.00671154 0.00240214 -0.0158751 -0.0306501 0.0292829 -0.0176827 -0.0185617 -0.00792167 0.0274505 -0.0072925 0.0259969 0.0242234 0.0235792 -0.020221 -0.033702 -0.00862197 0.0227482 -0.00967877 -0.00118144 -0.00330013 0.0210756 -0.00476973 0.00236446 -0.01185 0.0207723 -0.021631 0.0192826 -0.00910398 -0.0352554 -0.0137022 -0.016474 0.00464838 0.0165986 -0.0339969 -0.0358795 -0.023199 -0.0369355 0.0486131 -0.0227247 -0.0182358 -0.0440488 -0.0220795 -0.0393009
internal_weight=0 41730 33594 15662 26090 15640 22065 21256 17932 17007 16758 4058 10385 13495 11604 12447 11995 10942 10409 9982 9885 10847 9277 10352 9471 9172 9442 9009 9276 8230 7194 7081 8200 6841 8573 6904 8135 6503 5535 6215 5165 1952 6642 3263 7514 5529 3213 6260 5805 4366 4025 4342 5839 5042 6682 4830 3518 6602 3966 5255 2436 3949
internal_count=75324 41730 33594 15662 26090 15640 22065 21256 17932 17007 16758 4058 10385 13495 11604 12447 11995 10942 10409 9982 9885 10847 9277 10352 9471 9172 9442 9009 9276 8230 7194 7081 8200 6841 8573 6904 8135 6503 5535 6215 5165 1952 6642 3263 7514 5529 3213 6260 5805 4366 4025 4342 5839 5042 6682 4830 3518 6602 3966 5255 2436 3949
shrinkage=0.05


Tree=5
num_leaves=63
num_cat=0
split_feature=99 99 99 99 99 99 99 98 90 90 98 86 50 70 67 86 90 95 92 84 96 70 92 54 85 86 99 98 95 57 76 50 64 50 84 98 65 90 91 93 95 44 80 95 91 96 84 77 99 85 98 86 92 72 50 83 76 77 29 84 50 31
split_gain=11666.1 2502.9 1477.68 417.012 396.265 303.208 252.306 200.498 178.57 165.451 137.275 118.217 119.564 114.009 116.17 113.969 108.267 106.619 100.709 97.547 97.2044 97.181 94.4123 92.6778 92.1539 86.4712 86.1574 83.5927 83.003 82.9147 81.6689 79.4713 73.2382 72.5663 69.0357 67.1036 67.0914 65.3739 64.327 63.7179 57.6841 56.9994 56.6053 54.3652 54.2616 54.0154 54.4639 53.8982 52.7022 51.8315 50.8273 50.3303 48.5787 48.0039 47.9207 52.7411 47.1129 47.5198 45.512 44.7587 44.1051 44.1012
threshold=30.500000000000004 15.500000000000002 61.500000000000007 23.500000000000004 42.500000000000007 13.500000000000002 130.50000000000003 1.0000000180025095e-35 1.0000000180025095e-35 1.0000000180025095e-35 1.0000000180025095e-35 1.0000000180025095e-35 1.0000000180025095e-35 1.0000000180025095e-35 1.0000000180025095e-35 1.0000000180025095e-35 1.0000000180025095e-35 1.0000000180025095e-35 1.0000000180025095e-35 1.0000000180025095e-35 1.0000000180025095e-35 1.0000000180025095e-35 1.0000000180025095e-35 1.0000000180025095e-35 1.0000000180025095e-35 1.0000000180025095e-35 9.5000000000000018 1.0000000180025095e-35 1.0000000180025095e-35 1.0000000180025095e-35 1.0000000180025095e-35 1.0000000180025095e-35 1.0000000180025095e-35 1.0000000180025095e-35 1.0000000180025095e-35 1.0000000180025095e-35 1.0000000180025095e-35 1.0000000180025095e-35 1.0000000180025095e-35 1.0000000180025095e-35 1.0000000180025095e-35 1.0000000180025095e-35 1.0000000180025095e-35 1.0000000180025095e-35 1.0000000180025095e-35 1.0000000180025095e-35 1.0000000180025095e-35 1.0000000180025095e-35 235.50000000000003 1.0000000180025095e-35 1.0000000180025095e-35 1.0000000180025095e-35 1.0000000180025095e-35 1.0000000180025095e-35 1.0000000180025095e-35 1.0000000180025095e-35 1.0000000180025095e-35 1.0000000180025095e-35 1.0000000180025095e-35 1.0000000180025095e-35 1.0000000180025095e-35 1.0000000180025095e-35
decision_type=2 2 2 2 2 2 2 2 2 2 2 2 2 2 2 2 2 2 2 2 2 2 2 2 2 2 2 2 2 2 2 2 2 2 2 2 2 2 2 2 2 2 2 2 2 2 2 2 2 2 2 2 2 2 2 2 2 2 2 2 2 2
left_child=1 5 4 7 11 16 28 8 13 10 15 12 18 14 22 21 26 27 19 20 23 24 25 -2 32 30 -1 29 39 38 31 42 34 51 36 41 40 50 45 49 44 43 59 47 54 46 58 61 -8 53 60 52 56 -4 55 -5 57 -28 -6 -3 -7 -25
right_child=2 3 6 9 17 37 48 -9 -10 -11 -12 -13 -14 -15 -16 -17 -18 -19 -20 -21 -22 -23 -24 35 -26 -27 33 -29 -30 -31 -32 -33 -34 -35 -36 -37 -38 -39 -40 -41 -42 -43 -44 -45 -46 -47 -48 -49 -50 -51 -52 -53 -54 -55 -56 -57 -58 -59 -60 -61 -62 -63
leaf_value=-0.049146395283244257 0.0096260882147033294 -0.02742031831762758 0.032797469225453242 -0.015643100595346911 0.020101514310456748 -0.026535457400958487 0.056714200732198211 -0.040376291298068683 0.001188561575358473 0.011390719669410751 -0.03817163033647971 0.027729827250282654 0.02278999102989699 0.011494577224249153 -0.0025576809799139947 0.013917410141048732 -0.019650407372138964 0.039211261888680904 0.029872898809579475 0.017922851325038132 0.021379772648599346 0.025775719693387458 0.0076314699426293375 -0.00983993197743014 0.012262655716685571 -0.0032703425063165385 -0.04481758968282798 -0.02631729617714882 0.054328423852878296 0.0071435769810750706 -0.009444756344655636 -0.011817199989938795 -0.043221893808209247 -0.027973404675661118 0.006090806155237106 -0.042364426838444935 0.010559854575065005 -0.0083415205396458712 0.036677036702801098 0.058713734420222069 0.0098460279769965048 0.021199242053138705 -0.014285892168482217 0.015596917459551624 0.0077122869002310065 0.034299464453141935 0.031514375769111341 0.0083191681595053534 0.079669916263505738 0.048119417762072542 -0.04521027368461264 -0.017995090945891436 -0.0069694672214781058 0.053106692580439901 -0.00084843797943530939 -0.002421899375474601 -0.031340763657602862 -0.023066705280442291 -0.0081090527532786932 -0.012333361782214565 -0.015619739064123537 0.022202605709233988
leaf_weight=1681 2225 4493 4983 4049 5214 3500 829 624 2372 2337 275 953 1416 437 1784 972 792 1101 461 1394 679 265 400 2605 717 1031 3984 86 762 738 2026 1958 133 1832 1060 106 476 677 978 317 388 247 1363 334 404 930 1106 576 358 739 290 261 106 309 936 927 991 268 147 552 1258 112
leaf_count=1681 2225 4493 4983 4049 5214 3500 829 624 2372 2337 275 953 1416 437 1784 972 792 1101 461 1394 679 265 400 2605 717 1031 3984 86 762 738 2026 1958 133 1832 1060 106 476 677 978 317 388 247 1363 334 404 930 1106 576 358 739 290 261 106 309 936 927 991 268 147 552 1258 112
internal_value=0 -0.0158784 0.024385 -0.00741923 0.0174425 -0.0320931 0.0422982 -0.0125579 -0.0115005 -0.000651856 -0.0033064 0.010892 0.00931185 -0.0136436 -0.014451 -0.00237797 -0.0373832 0.0245069 0.00712796 0.0058613 0.00341885 -0.00407109 -0.0162456 0.00145343 -0.00494121 -0.0170817 -0.0389227 0.022747 0.0387357 0.02321 -0.0184519 -0.0206332 -0.00641441 -0.0366134 -0.00582031 -0.00311546 -0.00757878 -0.0229313 0.0246258 0.0368639 -0.00886667 -0.00204154 -0.023327 -0.00362424 -0.0100162 0.0230324 0.0214121 -0.00557379 0.0636377 0.0357155 -0.024888 -0.0394348 -0.040481 0.0339833 -0.0112277 -0.0131801 -0.0411585 -0.0434466 0.019328 -0.0257696 -0.0236494 -0.00851908
internal_weight=0 45619 29705 29979 21408 15640 8297 17040 16416 12939 10602 11108 10155 14044 13607 10327 9915 10300 8739 8278 6884 9355 11823 6205 9090 11423 9123 9199 7110 9113 10392 8366 8373 7442 8240 3980 7180 5725 8375 6348 6704 3874 6408 3627 6316 7397 6467 3293 1187 6031 5048 5610 5349 5292 5912 4976 5243 4252 5361 5045 4758 2717
internal_count=75324 45619 29705 29979 21408 15640 8297 17040 16416 12939 10602 11108 10155 14044 13607 10327 9915 10300 8739 8278 6884 9355 11823 6205 9090 11423 9123 9199 7110 9113 10392 8366 8373 7442 8240 3980 7180 5725 8375 6348 6704 3874 6408 3627 6316 7397 6467 3293 1187 6031 5048 5610 5349 5292 5912 4976 5243 4252 5361 5045 4758 2717
shrinkage=0.05


Tree=6
num_leaves=63
num_cat=0
split_feature=99 99 99 99 90 99 98 99 99 89 70 99 90 95 97 95 67 98 92 80 64 70 37 96 49 69 96 89 95 85 92 84 67 90 80 84 77 94 44 84 96 89 77 39 92 83 66 11 82 75 79 89 31 74 70 93 89 92 37 79 65 67
split_gain=10533.6 1881.39 1768.34 453.473 308.056 278.237 255.962 188.196 170.257 146.375 126.134 125.859 121.238 114.734 108.099 105.756 105.341 98.3608 90.1121 87.4262 84.6458 80.389 79.7855 76.5431 77.6095 81.4833 75.3755 74.7091 74.4009 74.0247 69.1532 65.9094 64.4877 62.7978 61.1364 60.0531 58.49 57.5265 56.9857 55.6676 54.9087 55.3451 53.0298 52.6871 51.7075 51.6688 51.2309 51.0141 49.9615 49.9178 49.1955 47.5424 46.6186 45.6081 45.2816 45.1215 43.6317 42.7282 42.5542 41.8438 41.5687 41.4817
threshold=28.500000000000004 15.500000000000002 47.500000000000007 80.500000000000014 1.0000000180025095e-35 11.500000000000002 1.0000000180025095e-35 18.500000000000004 36.500000000000007 1.0000000180025095e-35 1.0000000180025095e-35 230.50000000000003 1.0000000180025095e-35 1.0000000180025095e-35 1.0000000180025095e-35 1.0000000180025095e-35 1.0000000180025095e-35 1.0000000180025095e-35 1.0000000180025095e-35 1.0000000180025095e-35 1.0000000180025095e-35 1.0000000180025095e-35 1.0000000180025095e-35 1.0000000180025095e-35 1.0000000180025095e-35 1.0000000180025095e-35 1.0000000180025095e-35 1.0000000180025095e-35 1.0000000180025095e-35 1.0000000180025095e-35 1.0000000180025095e-35 1.0000000180025095e-35 1.0000000180025095e-35 1.0000000180025095e-35 1.0000000180025095e-35 1.0000000180025095e-35 1.0000000180025095e-35 1.0000000180025095e-35 1.0000000180025095e-35 1.0000000180025095e-35 1.0000000180025095e-35 1.0000000180025095e-35 1.0000000180025095e-35 1.0000000180025095e-35 1.0000000180025095e-35 1.0000000180025095e-35 1.0000000180025095e-35 1.0000000180025095e-35 1.0000000180025095e-35 1.0000000180025095e-35 1.0000000180025095e-35 1.0000000180025095e-35 1.0000000180025095e-35 1.0000000180025095e-35 1.0000000180025095e-35 1.0000000180025095e-35 1.0000000180025095e-35 1.0000000180025095e-35 1.0000000180025095e-35 1.0000000180025095e-35 1.0000000180025095e-35 1.0000000180025095e-35
decision_type=2 2 2 2 2 2 2 2 2 2 2 2 2 2 2 2 2 2 2 2 2 2 2 2 2 2 2 2 2 2 2 2 2 2 2 2 2 2 2 2 2 2 2 2 2 2 2 2 2 2 2 2 2 2 2 2 2 2 2 2 2 2
left_child=1 5 8 15 6 56 7 57 14 10 13 55 21 16 17 22 20 19 28 29 23 27 26 24 25 30 34 32 31 33 35 40 36 51 38 37 39 45 42 -7 41 47 44 -24 50 49 -6 54 -18 52 -4 -2 53 -9 59 58 60 61 -5 -10 -1 -3
right_child=2 4 3 11 46 12 -8 9 18 -11 -12 -13 -14 -15 -16 -17 48 -19 -20 -21 -22 -23 43 -25 -26 -27 -28 -29 -30 -31 -32 -33 -34 -35 -36 -37 -38 -39 -40 -41 -42 -43 -44 -45 -46 -47 -48 -49 -50 -51 -52 -53 -54 -55 -56 -57 -58 -59 -60 -61 -62 -63
leaf_value=-0.042612981822591489 -0.0030580201842026287 -0.019780107673384412 0.015896231385580821 0.038763867851551226 0.0015761504409680688 -0.033777328694115476 -0.038480953472506428 -0.021974407976649221 0.0080091433288678165 0.0072281377784004369 0.0177767894084402 0.075342873579300029 -0.010112317708036812 0.010665075613706861 0.027860680413839309 0.041808448999096609 0.013179920796205159 -0.033475809363571148 0.037366876090501058 0.014751088556313375 -0.047168125290705194 0.0024629863970462356 0.037031007419766233 0.0076380893672907089 0.0041234097798587754 0.0042345645925195964 0.036150221631227844 -0.013782329459589807 0.029121557127530746 0.018695454979772357 0.0084389560588515634 0.023237593054713217 -0.016029095895271555 0.011444735327813288 0.03089103617723616 -0.0047897187772468217 -0.013443628500521899 0.0062577502787931859 0.04207597053696871 -0.019122118043708114 0.024084112043276897 0.02283511881968751 0.034500636916667181 0.021317094422534773 0.040035826997465898 -0.0084023634085551822 0.016458586295800551 -0.018044446444205071 -0.0049554851988993466 -0.041769687391140245 -0.013281499179080128 0.012351250343490392 -0.0064981955175490245 -0.0044560670843394245 0.041566054036422655 0.065094766318209082 -0.025188942207628257 0.0052615724151852117 0.05017060187161191 -0.022298926632835444 -0.025035639857402543 -0.0067716704654830241
leaf_weight=4429 4716 5023 3915 2095 3325 6320 809 4902 4273 1637 439 369 1108 672 515 1252 560 169 440 1836 172 217 2273 483 640 584 1035 804 748 642 303 1200 776 1156 1384 1073 438 248 254 722 652 613 430 697 214 1132 700 197 1180 253 150 560 654 402 98 253 462 201 1341 117 364 698
leaf_count=4429 4716 5023 3915 2095 3325 6320 809 4902 4273 1637 439 369 1108 672 515 1252 560 169 440 1836 172 217 2273 483 640 584 1035 804 748 642 303 1200 776 1156 1384 1073 438 248 254 722 652 613 430 697 214 1132 700 197 1180 253 150 560 654 402 98 253 462 201 1341 117 364 698
internal_value=0 -0.0167764 0.0208394 0.0331141 -0.00855647 -0.0304885 -0.010877 -0.00982635 0.0101185 -0.0069026 -0.00859143 0.0475011 -0.0257445 -0.00946454 0.00557656 0.0280829 -0.0105393 0.00431251 0.0153446 0.00502926 -0.0123715 -0.0276115 0.0264229 -0.0118108 -0.0127325 -0.013862 0.0236386 -0.0283319 0.0141177 0.00250603 -0.0150406 0.0125481 -0.0297488 0.000890111 0.0215984 -0.0158618 -0.0311721 -0.0174268 0.019007 -0.0322748 0.0103922 0.0087072 0.0177627 0.0333433 0.0160807 -0.0182267 0.0041644 0.00685866 0.000881197 -0.0200173 0.0148196 -0.00142246 -0.0190936 -0.0206467 0.00795178 0.0447162 -0.0398636 -0.0173969 0.0432157 0.00720139 -0.0412781 -0.018193
internal_weight=0 41730 33594 15662 26090 15640 22065 21256 17932 15334 13697 4058 10385 13258 9594 11604 12586 9079 8338 8910 10846 9277 10352 10674 10191 9551 7382 9060 7898 7074 8967 7150 8256 6432 6347 8664 7480 7591 4963 7042 5950 5298 4709 2970 4279 7343 4025 4685 1740 6211 4065 5276 5958 5304 4488 3689 5255 5922 3436 4390 4793 5721
internal_count=75324 41730 33594 15662 26090 15640 22065 21256 17932 15334 13697 4058 10385 13258 9594 11604 12586 9079 8338 8910 10846 9277 10352 10674 10191 9551 7382 9060 7898 7074 8967 7150 8256 6432 6347 8664 7480 7591 4963 7042 5950 5298 4709 2970 4279 7343 4025 4685 1740 6211 4065 5276 5958 5304 4488 3689 5255 5922 3436 4390 4793 5721
shrinkage=0.05


Tree=7
num_leaves=63
num_cat=0
split_feature=99 99 99 99 99 90 98 99 89 86 70 67 64 86 50 99 90 98 96 54 57 37 88 97 37 92 98 99 92 82 92 39 98 96 89 57 87 44 92 85 88 92 78 29 94 70 80 21 74 50 90 84 11 73 89 97 39 37 67 50 94 9
split_gain=9515.15 2049.12 1220.11 432.247 319.709 297.775 232.008 209.513 175.792 157.038 159.968 130.936 106.047 105.011 106.925 98.1717 91.8463 87.829 86.1811 107.117 85.5412 82.2576 75.6928 75.633 75.4769 72.1482 70.8706 69.1419 68.8091 67.2255 65.8377 65.5472 63.1335 61.4118 58.4218 57.2422 56.2344 56.1541 55.5621 53.8917 58.8635 53.525 51.2469 49.4872 49.264 48.4221 48.3231 46.6715 46.1175 48.5208 45.8377 45.1206 45.1163 44.8814 47.4324 44.4312 43.0634 43.9367 41.7267 40.6133 40.3545 40.2298
threshold=30.500000000000004 17.500000000000004 61.500000000000007 13.500000000000002 42.500000000000007 1.0000000180025095e-35 1.0000000180025095e-35 140.50000000000003 1.0000000180025095e-35 1.0000000180025095e-35 1.0000000180025095e-35 1.0000000180025095e-35 1.0000000180025095e-35 1.0000000180025095e-35 1.0000000180025095e-35 23.500000000000004 1.0000000180025095e-35 1.0000000180025095e-35 1.0000000180025095e-35 1.0000000180025095e-35 1.0000000180025095e-35 1.0000000180025095e-35 1.0000000180025095e-35 1.0000000180025095e-35 1.0000000180025095e-35 1.0000000180025095e-35 1.0000000180025095e-35 10.500000000000002 1.0000000180025095e-35 1.0000000180025095e-35 1.0000000180025095e-35 1.0000000180025095e-35 1.0000000180025095e-35 1.0000000180025095e-35 1.0000000180025095e-35 1.0000000180025095e-35 1.0000000180025095e-35 1.0000000180025095e-35 1.0000000180025095e-35 1.0000000180025095e-35 1.0000000180025095e-35 1.0000000180025095e-35 1.0000000180025095e-35 1.0000000180025095e-35 1.0000000180025095e-35 1.0000000180025095e-35 1.0000000180025095e-35 1.0000000180025095e-35 1.0000000180025095e-35 1.0000000180025095e-35 1.0000000180025095e-35 1.0000000180025095e-35 1.0000000180025095e-35 1.0000000180025095e-35 1.0000000180025095e-35 1.0000000180025095e-35 1.0000000180025095e-35 1.0000000180025095e-35 1.0000000180025095e-35 1.0000000180025095e-35 1.0000000180025095e-35 1.0000000180025095e-35
decision_type=2 2 2 2 2 2 2 2 2 2 2 2 2 2 2 2 2 2 2 2 2 2 2 2 2 2 2 2 2 2 2 2 2 2 2 2 2 2 2 2 2 2 2 2 2 2 2 2 2 2 2 2 2 2 2 2 2 2 2 2 2 2
left_child=1 3 4 16 13 6 8 21 9 10 11 12 15 14 18 41 22 23 19 24 25 38 27 28 -2 26 33 -1 35 -13 32 61 34 39 37 51 44 52 42 40 43 47 53 50 46 -29 48 55 49 56 60 58 -21 54 -4 59 57 -17 -5 -3 -6 -7
right_child=2 5 7 17 20 31 -8 -9 -10 -11 -12 29 -14 -15 -16 36 -18 -19 -20 30 -22 -23 -24 -25 -26 -27 -28 45 -30 -31 -32 -33 -34 -35 -36 -37 -38 -39 -40 -41 -42 -43 -44 -45 -46 -47 -48 -49 -50 -51 -52 -53 -54 -55 -56 -57 -58 -59 -60 -61 -62 -63
leaf_value=-0.041514288055694355 0.0056404584083750856 -0.01855716179714028 0.02468739793252079 -0.021008600825995056 0.016033233741623479 0.013588059140330302 -0.035756588346735389 0.059557831239398486 0.0067323800073133076 0.0061481139777229306 0.017077795637925285 0.013245745696979545 -0.046655897053212603 0.025699778769619614 0.021086890582129425 -0.015335415635987349 -0.017507600170475517 -0.040061014685258037 0.021491950383172045 -0.002362982617787729 0.0065252801256671482 0.042630401066401757 -0.012388501209528025 0.0068075881375549933 0.022121150176781276 0.040577919620822613 -0.023979642567020367 -0.033198901741815119 0.0045125008517727131 -0.0053016881196067383 0.022957748648472869 -0.0014337789371268977 -0.039167398619944255 0.033726827521045236 0.015820521974656731 -0.031471358215754273 0.0068957471567838912 0.020164049391088817 0.0525148040228555 0.032726567390821949 0.044782500217358273 0.0079848502107843049 0.050822670853907063 -0.0080954441800713539 0.012681517317233718 3.7475627946800423e-05 -0.00075627417163338874 -0.040957770548841345 0.0048736954656962489 -0.001386215009597307 0.027535909253219346 -0.0082980601375391583 -0.024167004275304362 0.042086630249062132 0.042956831408454514 0.0080718578597372206 -0.022270290161898649 0.00082682659916047537 -0.0081959672009655135 -0.0086581586887829656 0.033448163152044096 -0.0067001889456352187
leaf_weight=3578 1708 5200 3242 6125 4698 2484 701 1017 2237 1753 545 735 220 953 1416 1688 792 473 841 3597 816 2522 348 298 1171 574 82 5085 306 1457 300 1487 107 1108 500 911 624 261 294 888 225 229 279 167 255 112 1195 191 374 706 1384 998 254 544 399 188 1490 560 709 1294 358 271
leaf_count=3578 1708 5200 3242 6125 4698 2484 701 1017 2237 1753 545 735 220 953 1416 1688 792 473 841 3597 816 2522 348 298 1171 574 82 5085 306 1457 300 1487 107 1108 500 911 624 261 294 888 225 229 279 167 255 112 1195 191 374 706 1384 998 254 544 399 188 1490 560 709 1294 358 271
internal_value=0 -0.0143401 0.0220226 -0.0264762 0.0157141 -0.00508711 -0.00746141 0.0382999 -0.00651423 -0.00809852 -0.00957185 -0.0104571 -0.0122113 0.00983029 0.00834101 -0.0116698 -0.0338404 -0.0190407 0.00627577 0.00465551 0.0220595 0.0353302 -0.0352583 -0.017977 0.0123438 0.0233961 0.0222892 -0.0361653 -0.0187932 0.000917456 0.000245352 0.00702616 -0.00119854 0.022719 -0.000317647 -0.0196089 -0.00741857 -0.00227997 0.0314608 0.0211391 0.019633 -0.0157952 0.0300741 0.0187765 -0.00884361 -0.0324826 -0.00975645 -0.0165876 -0.0119887 -0.0134079 0.0194733 -0.0182291 -0.00380111 0.0286909 0.0266895 -0.015891 -0.0156784 -0.0113092 -0.0196793 -0.0165847 0.0172663 0.0115924
internal_weight=0 45619 29705 19735 21408 25884 21642 8297 20941 18704 16951 16406 14214 11108 10155 13994 9915 9820 8739 7898 10300 7280 9123 9347 2879 9484 8910 8775 9049 2192 5019 4242 4719 8828 4612 8743 6892 4112 4758 7720 6832 7102 4464 6607 6268 5197 6013 6873 4818 4444 6440 7832 3851 4185 3641 6682 3738 2248 6834 6494 5056 2755
internal_count=75324 45619 29705 19735 21408 25884 21642 8297 20941 18704 16951 16406 14214 11108 10155 13994 9915 9820 8739 7898 10300 7280 9123 9347 2879 9484 8910 8775 9049 2192 5019 4242 4719 8828 4612 8743 6892 4112 4758 7720 6832 7102 4464 6607 6268 5197 6013 6873 4818 4444 6440 7832 3851 4185 3641 6682 3738 2248 6834 6494 5056 2755
shrinkage=0.05


Tree=8
num_leaves=63
num_cat=0
split_feature=99 99 99 99 99 98 90 95 97 98 99 89 85 99 88 96 90 70 86 95 84 94 96 84 67 49 11 98 85 70 96 83 50 90 50 86 26 97 71 44 89 84 94 86 80 65 50 37 39 47 79 87 87 28 77 80 74 99 93 72 50 90
split_gain=8605.23 1537.28 1442.4 378.069 357.959 188.1 165.312 155.777 154.504 126.465 120.53 119.279 118.389 117.32 108.844 106.867 103.957 102.809 103.399 91.7696 85.8719 81.9035 81.8718 80.7711 75.8376 75.4229 75.3063 72.6025 69.1048 70.3186 72.0871 62.7248 63.9156 62.5049 60.7175 60.4008 65.7362 59.9994 56.5886 55.5756 63.3287 56.2002 54.0748 53.665 51.9754 51.5632 50.5516 47.9108 50.1681 46.2946 45.5464 44.3678 43.8747 42.3482 42.5562 42.3432 41.5615 40.8214 40.7482 40.2224 39.8656 40.9374
threshold=28.500000000000004 14.500000000000002 47.500000000000007 77.500000000000014 18.500000000000004 1.0000000180025095e-35 1.0000000180025095e-35 1.0000000180025095e-35 1.0000000180025095e-35 1.0000000180025095e-35 11.500000000000002 1.0000000180025095e-35 1.0000000180025095e-35 161.00000000000003 1.0000000180025095e-35 1.0000000180025095e-35 1.0000000180025095e-35 1.0000000180025095e-35 1.0000000180025095e-35 1.0000000180025095e-35 1.0000000180025095e-35 1.0000000180025095e-35 1.0000000180025095e-35 1.0000000180025095e-35 1.0000000180025095e-35 1.0000000180025095e-35 1.0000000180025095e-35 1.0000000180025095e-35 1.0000000180025095e-35 1.0000000180025095e-35 1.0000000180025095e-35 1.0000000180025095e-35 1.0000000180025095e-35 1.0000000180025095e-35 1.0000000180025095e-35 1.0000000180025095e-35 1.0000000180025095e-35 1.0000000180025095e-35 1.0000000180025095e-35 1.0000000180025095e-35 1.0000000180025095e-35 1.0000000180025095e-35 1.0000000180025095e-35 1.0000000180025095e-35 1.0000000180025095e-35 1.0000000180025095e-35 1.0000000180025095e-35 1.0000000180025095e-35 1.0000000180025095e-35 1.0000000180025095e-35 1.0000000180025095e-35 1.0000000180025095e-35 1.0000000180025095e-35 1.0000000180025095e-35 1.0000000180025095e-35 1.0000000180025095e-35 1.0000000180025095e-35 8.5000000000000018 1.0000000180025095e-35 1.0000000180025095e-35 1.0000000180025095e-35 1.0000000180025095e-35
decision_type=2 2 2 2 2 2 2 2 2 2 2 2 2 2 2 2 2 2 2 2 2 2 2 2 2 2 2 2 2 2 2 2 2 2 2 2 2 2 2 2 2 2 2 2 2 2 2 2 2 2 2 2 2 2 2 2 2 2 2 2 2 2
left_child=1 10 7 19 20 6 11 8 9 12 57 17 14 58 15 16 21 18 22 28 27 23 24 26 25 34 31 37 29 30 35 32 43 46 38 36 39 42 44 40 41 51 45 52 47 50 -12 49 -49 53 56 59 55 54 -6 -2 60 -1 -5 -4 61 -3
right_child=2 4 3 13 5 -7 -8 -9 -10 -11 33 -13 -14 -15 -16 -17 -18 -19 -20 -21 -22 -23 -24 -25 -26 -27 -28 -29 -30 -31 -32 -33 -34 -35 -36 -37 -38 -39 -40 -41 -42 -43 -44 -45 -46 -47 -48 48 -50 -51 -52 -53 -54 -55 -56 -57 -58 -59 -60 -61 -62 -63
leaf_value=-0.045416493473108367 -0.010632611274433492 -0.023528943118039724 0.0090022094199737075 0.037095957415816415 -0.025525427784892831 -0.033879388680667942 0.0064542835005293626 0.024362558208648522 0.027329024135006281 -0.029642350860981923 -0.030229430292002091 0.006530111873603188 0.020949049615704568 0.06040812314389702 0.029333493058948851 0.018800293521422158 0.013023007434094326 0.016055222210136999 0.004933986091236027 0.037941594832745784 -0.0045287159790830048 0.020628089315079146 0.0089837772608777552 0.011492222718715757 -0.00044023187981909352 0.0042811009890010463 -0.025642586894532516 -0.036961697307997386 0.035044489947949592 0.050713374037478193 0.032966611861148479 0.0080739658769499456 0.0089122362489955677 -0.011218752188160163 -0.0051740388531554549 0.034087169532850389 0.057279425431401111 0.0064795411205991653 0.0080415265782304655 0.036724137523409382 0.029950176458789918 0.025213247529820022 0.0057945414636692057 0.013308016444142496 -0.0078344653288048433 -0.00540693256341249 -0.019790672442034474 -0.0036182798464477572 -0.026436230011224728 -0.0022876817276966583 -0.036779765636175361 0.024289483421632695 0.0078800400558819064 -0.0056699797525693223 -0.0096151281523866056 0.002183030486102151 -0.0062505705470133083 -0.033951142431386409 0.057747807567939159 0.035487451114623036 -0.012883293356314369 -0.0098771920968646898
leaf_weight=947 3520 4632 3781 3772 3481 546 3088 1539 947 238 4415 1637 1399 713 470 1245 2284 439 1286 1185 1348 513 543 1334 1508 629 318 480 1094 204 1096 1577 934 655 1735 625 104 264 246 346 733 974 238 360 1442 704 1573 907 328 316 365 631 465 359 478 789 616 4308 255 149 1594 623
leaf_count=947 3520 4632 3781 3772 3481 546 3088 1539 947 238 4415 1637 1399 713 470 1245 2284 439 1286 1185 1348 513 543 1334 1508 629 318 480 1094 204 1096 1577 934 655 1735 625 104 264 246 346 733 974 238 360 1442 704 1573 907 328 316 365 631 465 359 478 789 616 4308 255 149 1594 623
internal_value=0 -0.0151632 0.0188355 0.0299215 -0.00910258 -0.00495753 -0.00410033 0.00915296 0.00772506 0.00652314 -0.0303591 -0.00622584 0.00708912 0.0417136 0.00568496 0.0048517 0.00341578 -0.00775038 -0.00853863 0.0248038 -0.0163396 0.00117899 -0.00998582 0.000105806 -0.0108871 -0.012475 -0.0018017 -0.0180127 0.0232049 0.0217063 0.0210051 -0.00081002 -0.00311886 -0.0258832 -0.0136093 0.0192198 0.0178366 -0.0170061 -0.0155459 0.0172164 0.0161396 0.0143106 -0.0177129 -0.00530761 -0.0163396 -0.0183685 -0.0274873 -0.0184293 -0.00967843 -0.0207614 -0.0195339 0.0119824 -0.00671139 -0.0221134 -0.0236045 -0.008286 -0.0186907 -0.0360173 0.0384037 0.0100064 -0.0198095 -0.0219105
internal_weight=0 41730 33594 15662 29832 18968 18422 17932 16393 15446 11898 15334 15208 4740 13809 13339 12094 13697 13258 10922 10864 9810 11972 9297 11429 9921 7963 9516 9737 8643 8439 7645 6068 6643 9292 7343 6718 9036 7557 6614 6268 5535 8772 5134 7311 8534 5988 5869 1235 4634 7830 4561 4774 4318 3959 4309 7465 5255 4027 3930 6849 5255
internal_count=75324 41730 33594 15662 29832 18968 18422 17932 16393 15446 11898 15334 15208 4740 13809 13339 12094 13697 13258 10922 10864 9810 11972 9297 11429 9921 7963 9516 9737 8643 8439 7645 6068 6643 9292 7343 6718 9036 7557 6614 6268 5535 8772 5134 7311 8534 5988 5869 1235 4634 7830 4561 4774 4318 3959 4309 7465 5255 4027 3930 6849 5255
shrinkage=0.05


Tree=9
num_leaves=63
num_cat=0
split_feature=99 99 99 99 90 99 98 94 88 84 99 92 96 76 50 86 95 86 50 75 90 91 98 84 50 96 98 97 57 37 77 92 79 93 39 97 80 76 85 54 37 77 47 57 86 74 11 29 92 95 83 76 67 77 80 93 86 97 69 9 95 76
split_gain=7782.91 1812.84 892.872 354.599 266.506 236.869 201.3 176.371 168.794 145.13 144.61 125.256 116.554 105.714 133.761 92.7377 86.8829 79.1992 81.294 79 78.2099 78.1581 73.0117 68.1374 68.0505 65.6519 65.3191 63.6038 62.9259 61.871 61.865 61.3763 60.7625 58.9767 58.8822 55.6897 53.784 53.3073 53.156 52.9668 52.5812 50.9759 49.1329 48.8066 48.8044 46.951 46.6134 53.0419 43.9229 43.6042 43.4254 42.0974 41.6526 43.7081 40.9304 39.7729 39.5118 40.3858 39.0658 38.5503 38.4546 37.4583
threshold=33.500000000000007 17.500000000000004 65.500000000000014 13.500000000000002 1.0000000180025095e-35 42.500000000000007 1.0000000180025095e-35 1.0000000180025095e-35 1.0000000180025095e-35 1.0000000180025095e-35 140.50000000000003 1.0000000180025095e-35 1.0000000180025095e-35 1.0000000180025095e-35 1.0000000180025095e-35 1.0000000180025095e-35 1.0000000180025095e-35 1.0000000180025095e-35 1.0000000180025095e-35 1.0000000180025095e-35 1.0000000180025095e-35 1.0000000180025095e-35 1.0000000180025095e-35 1.0000000180025095e-35 1.0000000180025095e-35 1.0000000180025095e-35 1.0000000180025095e-35 1.0000000180025095e-35 1.0000000180025095e-35 1.0000000180025095e-35 1.0000000180025095e-35 1.0000000180025095e-35 1.0000000180025095e-35 1.0000000180025095e-35 1.0000000180025095e-35 1.0000000180025095e-35 1.0000000180025095e-35 1.0000000180025095e-35 1.0000000180025095e-35 1.0000000180025095e-35 1.0000000180025095e-35 1.0000000180025095e-35 1.0000000180025095e-35 1.0000000180025095e-35 1.0000000180025095e-35 1.0000000180025095e-35 1.0000000180025095e-35 1.0000000180025095e-35 1.0000000180025095e-35 1.0000000180025095e-35 1.0000000180025095e-35 1.0000000180025095e-35 1.0000000180025095e-35 1.0000000180025095e-35 1.0000000180025095e-35 1.0000000180025095e-35 1.0000000180025095e-35 1.0000000180025095e-35 1.0000000180025095e-35 1.0000000180025095e-35 1.0000000180025095e-35 1.0000000180025095e-35
decision_type=2 2 2 2 2 2 2 2 2 2 2 2 2 2 2 2 2 2 2 2 2 2 2 2 2 2 2 2 2 2 2 2 2 2 2 2 2 2 2 2 2 2 2 2 2 2 2 2 2 2 2 2 2 2 2 2 2 2 2 2 2 2
left_child=1 3 5 20 6 17 7 8 9 11 33 12 13 14 15 19 21 18 23 32 24 26 27 25 29 35 28 31 36 30 37 43 38 40 59 46 50 44 42 -15 49 -41 45 60 -1 52 47 48 51 -4 55 54 53 58 -2 56 57 -7 -3 -6 61 -5
right_child=2 4 10 22 34 16 -8 -9 -10 -11 -12 -13 -14 39 -16 -17 -18 -19 -20 -21 -22 -23 -24 -25 -26 -27 -28 -29 -30 -31 -32 -33 -34 -35 -36 -37 -38 -39 -40 41 -42 -43 -44 -45 -46 -47 -48 -49 -50 -51 -52 -53 -54 -55 -56 -57 -58 -59 -60 -61 -62 -63
leaf_value=-0.041788966871292355 -0.0040154809994377132 -0.022978521994588798 0.026734644436602558 -0.01877566595664917 0.013060789052985022 0.011253788345891559 -0.032163709563848807 0.015072639781852512 0.012830497744829118 0.0036119630634618006 0.053882572648180471 0.012598910583262707 0.0085482729847649961 0.0016816718271990057 -0.0031375137032665147 -0.00022235357057434572 0.033023221716793019 0.025072797705099854 0.020757372100764532 -0.041214453739893492 -0.015511944151637522 0.030973850071884364 -0.036344280245518966 0.017189975350147983 -0.024281734471390835 0.019692330265364225 -0.024676479718514853 0.0065192226200183265 0.0041237592449071695 -0.025542244945729143 -0.015320151037991808 0.005053391606905315 -0.035473711097826099 0.053634813647139928 -0.0006268157278866383 0.024466070137406946 0.026794471863502745 -0.027033673908883935 0.0002683017942797774 -0.013831550474371066 0.038761385577266577 0.013884819798398191 -0.0040563399878942438 -0.028681551180314787 -0.016104751622745977 -0.0037362957462576465 -0.018164985679037921 -0.022760271561341458 0.024495128620910692 0.044498837533231243 0.024647906589613511 0.0091544176176988241 -0.0071399988751135656 -0.0084272479510075649 0.010497555523733109 0.035897505757897054 0.028812403180271243 0.030021107341646664 -0.0035637825525223019 -0.0059073526541946223 0.0020168766830465758 -0.0096439399976679056
leaf_weight=3967 2327 4766 3217 6188 2649 4137 727 1002 1084 2598 1017 644 818 2158 2696 879 1246 783 1161 331 792 1214 473 1245 2222 627 91 298 760 1549 313 306 395 342 1662 277 1804 878 508 1357 1994 189 726 911 194 552 286 198 240 387 1457 1570 670 681 614 215 408 308 274 298 272 1372
leaf_count=3967 2327 4766 3217 6188 2649 4137 727 1002 1084 2598 1017 644 818 2158 2696 879 1246 783 1161 331 792 1214 473 1245 2222 627 91 298 760 1549 313 306 395 342 1662 277 1804 878 508 1357 1994 189 726 911 194 552 286 198 240 387 1457 1570 670 681 614 215 408 308 274 298 272 1372
internal_value=0 -0.0123363 0.0209393 -0.0239135 -0.00407737 0.0157894 -0.00627162 -0.00542857 -0.00639182 -0.00742122 0.0364609 -0.0090458 -0.00986576 -0.0107966 -0.0129984 -0.0157162 0.0205467 0.00985292 0.00845828 -0.0172459 -0.0305836 0.0190511 -0.017179 0.00652448 -0.031892 0.00436149 0.0174744 -0.0162091 0.0178964 -0.0343424 -0.0368894 -0.0169576 -0.0163203 0.0334781 0.00689865 0.00261758 0.0191531 -0.0382292 -0.0153951 -0.00337909 0.0322466 -0.0104432 -0.0164327 -0.017728 -0.0405915 -0.0177268 0.00146151 0.00259572 0.00365244 0.0286422 0.0170404 0.00254354 -0.0189352 -0.0203166 -0.000985558 0.0148534 0.0139211 0.0125542 -0.021923 0.0111427 -0.0164539 -0.0171184
internal_weight=0 47399 27925 19735 27664 20968 23055 22328 21326 20242 6957 17644 17000 16182 12478 9782 11640 9328 8545 8903 9915 10394 9820 7384 9123 6139 9180 9347 9089 6901 5352 9049 8572 5940 4609 5512 8329 5039 8177 3704 5598 1546 7669 8743 4161 6943 5235 4949 4751 3604 6525 4511 6391 5721 2941 5068 4853 4445 5040 2947 7832 7560
internal_count=75324 47399 27925 19735 27664 20968 23055 22328 21326 20242 6957 17644 17000 16182 12478 9782 11640 9328 8545 8903 9915 10394 9820 7384 9123 6139 9180 9347 9089 6901 5352 9049 8572 5940 4609 5512 8329 5039 8177 3704 5598 1546 7669 8743 4161 6943 5235 4949 4751 3604 6525 4511 6391 5721 2941 5068 4853 4445 5040 2947 7832 7560
shrinkage=0.05


Tree=10
num_leaves=63
num_cat=0
split_feature=99 99 99 99 99 92 97 95 90 98 57 98 99 99 99 89 86 95 50 67 84 40 84 93 39 50 64 91 92 92 95 97 97 98 76 53 89 44 44 97 80 61 98 50 73 31 37 88 76 61 91 94 92 86 91 88 89 86 6 29 11 75
split_gain=7061.53 1366.02 1102.7 310.808 230.75 168.004 152.503 150.753 136.416 131.109 115.94 108.387 105.607 100.644 92.9864 92.5602 80.797 77.9782 77.6273 75.4921 74.3761 71.5682 71.9589 66.1609 71.4354 70.1391 66.8224 65.4011 60.6843 58.9388 57.3658 56.7742 55.9465 55.5115 54.7679 64.3885 52.7883 55.5044 51.4639 50.729 50.2867 48.4208 49.1489 47.5107 48.6104 47.4979 42.44 41.4647 45.0414 48.9788 41.4047 39.6854 39.2306 39.0979 38.7731 38.748 38.6377 36.8667 35.722 35.0522 35.2947 35.0241
threshold=26.500000000000004 47.500000000000007 14.500000000000002 80.500000000000014 18.500000000000004 1.0000000180025095e-35 1.0000000180025095e-35 1.0000000180025095e-35 1.0000000180025095e-35 1.0000000180025095e-35 1.0000000180025095e-35 1.0000000180025095e-35 10.500000000000002 36.500000000000007 230.50000000000003 1.0000000180025095e-35 1.0000000180025095e-35 1.0000000180025095e-35 1.0000000180025095e-35 1.0000000180025095e-35 1.0000000180025095e-35 1.0000000180025095e-35 1.0000000180025095e-35 1.0000000180025095e-35 1.0000000180025095e-35 1.0000000180025095e-35 1.0000000180025095e-35 1.0000000180025095e-35 1.0000000180025095e-35 1.0000000180025095e-35 1.0000000180025095e-35 1.0000000180025095e-35 1.0000000180025095e-35 1.0000000180025095e-35 1.0000000180025095e-35 1.0000000180025095e-35 1.0000000180025095e-35 1.0000000180025095e-35 1.0000000180025095e-35 1.0000000180025095e-35 1.0000000180025095e-35 1.0000000180025095e-35 1.0000000180025095e-35 1.0000000180025095e-35 1.0000000180025095e-35 1.0000000180025095e-35 1.0000000180025095e-35 1.0000000180025095e-35 1.0000000180025095e-35 1.0000000180025095e-35 1.0000000180025095e-35 1.0000000180025095e-35 1.0000000180025095e-35 1.0000000180025095e-35 1.0000000180025095e-35 1.0000000180025095e-35 1.0000000180025095e-35 1.0000000180025095e-35 1.0000000180025095e-35 1.0000000180025095e-35 1.0000000180025095e-35 1.0000000180025095e-35
decision_type=2 2 2 2 2 2 2 2 2 2 2 2 2 2 2 2 2 2 2 2 2 2 2 2 2 2 2 2 2 2 2 2 2 2 2 2 2 2 2 2 2 2 2 2 2 2 2 2 2 2 2 2 2 2 2 2 2 2 2 2 2 2
left_child=2 5 12 16 20 6 7 9 11 10 13 15 -1 19 50 17 21 18 27 23 28 22 30 24 26 38 46 29 33 34 31 36 41 39 35 40 37 43 57 45 61 42 52 44 54 47 -2 48 49 -4 -5 55 53 -14 -3 56 59 -26 -48 60 -15 -6
right_child=1 3 4 14 8 -7 -8 -9 -10 -11 -12 -13 32 51 -16 -17 -18 -19 -20 -21 -22 -23 -24 -25 25 -27 -28 -29 -30 -31 -32 -33 -34 -35 -36 -37 -38 -39 -40 -41 -42 -43 -44 -45 -46 -47 58 -49 -50 -51 -52 -53 -54 -55 -56 -57 -58 -59 -60 -61 -62 -63
leaf_value=-0.034082268804694345 0.0014074552759583052 0.0082060019287006087 -0.020139943079068457 0.033983556148514962 -0.018133419060327834 0.027084984110134349 0.024965875382543176 0.020429606223069854 0.0049811941503077424 -0.02969978305848945 -0.0089728939564009177 -0.031287780674579352 -0.024188304552025541 0.0091879172962225485 0.062883304610727275 0.0055494766455534287 0.035775214005465045 0.010092426600486898 -0.0010868828404715231 0.013668692872669806 -0.0038323471320194378 0.043217304383901936 0.029722807859516392 0.025267872714561459 -0.01262178064525233 0.018665138063073461 -0.040087961290724755 0.0047261953482015534 0.0051982299174876921 0.012661988140873449 0.030875279633807286 0.033753757683817692 0.0045442105330349763 -0.03380300495123794 -0.0054815826378279749 0.0056091354872185696 0.028033589845367829 0.033399155360656671 0.01468474138154701 0.0057569536331164494 -0.007779479874387746 -0.038563429506264568 -0.039211186382292894 0.025334159386055224 0.025085922295654046 -0.0071548129720191561 0.014989157045945629 -0.002210834279556889 -0.011201464655077729 -0.041780086987059227 0.047456271809175721 0.026277011187934886 -0.00089523495199482928 -0.0085192705786479809 0.023214242174666121 0.034427811397660164 0.020595195776835717 0.013313662501495358 -0.011673374570813692 -0.016067260560138446 -0.013206215427241853 -0.041137465235620174
leaf_weight=3966 3328 3947 5316 2984 4353 1033 1046 1519 2641 284 1445 460 6082 4565 369 1402 1099 565 2461 1302 1348 367 1828 264 2228 253 86 606 315 230 875 492 167 473 1856 348 827 368 212 255 1279 583 470 725 593 1094 1152 379 1409 275 705 389 204 426 483 155 644 146 141 152 183 172
leaf_count=3966 3328 3947 5316 2984 4353 1033 1046 1519 2641 284 1445 460 6082 4565 369 1402 1099 565 2461 1302 1348 367 1828 264 2228 253 86 606 315 230 875 492 167 473 1856 348 827 368 212 255 1279 583 470 725 593 1094 1152 379 1409 275 705 389 204 426 483 155 644 146 141 152 183 172
internal_value=0 0.0159202 -0.0147217 0.0270413 -0.00917451 0.00743478 0.0063935 0.00534045 -0.00542571 0.00398653 0.00456129 -0.00742721 -0.0274204 0.00584793 0.0389521 -0.00660022 0.022876 -0.00803525 -0.00894124 0.00252231 -0.0148243 0.0215265 0.0207413 0.000664103 -0.000196671 -0.00646076 0.00358148 -0.0111269 -0.0163814 -0.012293 0.0187656 0.0173405 -0.0240895 -0.0171201 -0.0130098 -0.0152809 0.0161774 0.0145742 -0.00891894 -0.016216 -0.0165335 -0.0247053 -0.0235804 0.013369 0.011642 -0.0168773 0.00439419 -0.0183188 -0.0191909 -0.0212043 0.0365583 0.0108254 -0.0224859 -0.0231626 0.00984234 0.00977075 0.00908138 -0.0110268 0.0120816 0.00756814 0.00832479 -0.0190078
internal_weight=0 36189 39135 15662 27237 20527 19494 18448 16373 16929 16645 13732 11898 15200 4058 13272 11604 11870 11305 9112 10864 10505 10138 7810 7546 2839 4707 8844 9516 8238 8310 7435 7932 9201 8008 6152 6943 6116 2586 8728 5804 7765 7182 5748 5023 8473 4621 7379 7000 5591 3689 6088 6712 6508 4430 5699 5544 2374 1293 4900 4748 4525
internal_count=75324 36189 39135 15662 27237 20527 19494 18448 16373 16929 16645 13732 11898 15200 4058 13272 11604 11870 11305 9112 10864 10505 10138 7810 7546 2839 4707 8844 9516 8238 8310 7435 7932 9201 8008 6152 6943 6116 2586 8728 5804 7765 7182 5748 5023 8473 4621 7379 7000 5591 3689 6088 6712 6508 4430 5699 5544 2374 1293 4900 4748 4525
shrinkage=0.05


Tree=11
num_leaves=63
num_cat=0
split_feature=99 99 99 99 90 99 85 88 90 96 98 92 99 99 94 71 11 84 94 99 97 95 50 85 33 96 92 95 50 95 90 50 39 66 91 97 76 62 98 86 83 64 11 39 79 57 67 37 29 92 83 88 9 64 83 69 74 49 90 76 74 75
split_gain=6373.03 1232.83 995.191 282.398 212.356 163.715 152.639 148.546 135.082 119.155 97.8192 96.6905 95.3103 91.11 89.1575 86.6618 86.2444 82.2233 74.4732 73.4498 69.8442 69.7136 67.145 59.9053 63.3703 64.287 58.5008 57.0273 54.6411 53.7927 52.9649 53.0042 52.3628 49.7546 48.5399 48.1338 47.5147 51.0747 47.1765 46.5536 48.7126 46.3175 45.3465 45.2221 41.742 39.6714 39.4855 38.6684 38.1932 37.7908 37.8008 38.4799 37.2986 36.826 35.6295 40.3779 35.7428 35.4628 34.8527 37.1026 34.2575 33.1404
threshold=26.500000000000004 47.500000000000007 14.500000000000002 77.500000000000014 1.0000000180025095e-35 18.500000000000004 1.0000000180025095e-35 1.0000000180025095e-35 1.0000000180025095e-35 1.0000000180025095e-35 1.0000000180025095e-35 1.0000000180025095e-35 10.500000000000002 230.50000000000003 1.0000000180025095e-35 1.0000000180025095e-35 1.0000000180025095e-35 1.0000000180025095e-35 1.0000000180025095e-35 36.500000000000007 1.0000000180025095e-35 1.0000000180025095e-35 1.0000000180025095e-35 1.0000000180025095e-35 1.0000000180025095e-35 1.0000000180025095e-35 1.0000000180025095e-35 1.0000000180025095e-35 1.0000000180025095e-35 1.0000000180025095e-35 1.0000000180025095e-35 1.0000000180025095e-35 1.0000000180025095e-35 1.0000000180025095e-35 1.0000000180025095e-35 1.0000000180025095e-35 1.0000000180025095e-35 1.0000000180025095e-35 1.0000000180025095e-35 1.0000000180025095e-35 1.0000000180025095e-35 1.0000000180025095e-35 1.0000000180025095e-35 1.0000000180025095e-35 1.0000000180025095e-35 1.0000000180025095e-35 1.0000000180025095e-35 1.0000000180025095e-35 1.0000000180025095e-35 1.0000000180025095e-35 1.0000000180025095e-35 1.0000000180025095e-35 1.0000000180025095e-35 1.0000000180025095e-35 1.0000000180025095e-35 1.0000000180025095e-35 1.0000000180025095e-35 1.0000000180025095e-35 1.0000000180025095e-35 1.0000000180025095e-35 1.0000000180025095e-35 1.0000000180025095e-35
decision_type=2 2 2 2 2 2 2 2 2 2 2 2 2 2 2 2 2 2 2 2 2 2 2 2 2 2 2 2 2 2 2 2 2 2 2 2 2 2 2 2 2 2 2 2 2 2 2 2 2 2 2 2 2 2 2 2 2 2 2 2 2 2
left_child=2 6 12 21 5 27 7 8 9 11 17 14 -1 42 15 16 19 18 20 38 22 23 26 24 25 35 29 28 32 34 31 49 36 -6 44 39 37 53 41 40 58 45 47 52 46 48 54 -5 -2 50 51 57 -10 -4 55 56 61 -14 59 -3 -34 -7
right_child=1 3 4 13 33 10 -8 -9 43 -11 -12 -13 30 -15 -16 -17 -18 -19 -20 -21 -22 -23 -24 -25 -26 -27 -28 -29 -30 -31 -32 -33 60 -35 -36 -37 -38 -39 -40 -41 -42 -43 -44 -45 -46 -47 -48 -49 -50 -51 -52 -53 -54 -55 -56 -57 -58 -59 -60 -61 -62 -63
leaf_value=-0.032378155259047615 -0.00075001672482958139 0.0048205461476525102 -0.016782437993212496 0.031026874210646867 -0.00061189832303136418 -0.017879637540336359 0.020594472559747015 0.02742854289519301 0.021930797332049015 0.016836744299412135 -0.029723391301282077 0.021738176669035981 -0.030909564990536403 0.059739137097668198 0.018282251816552918 0.018654880132159588 -0.023829700408568726 0.0041817663839732264 0.011386634517739311 0.0043893940220435098 0.012860983164142945 0.032716916319560495 -0.0018752980297321042 0.030896039804021475 0.036576496734483148 0.029041085136701741 0.01184193630070063 0.0046707373718842312 -0.0096208081942271133 0.0066521845248042923 -0.01026018298612047 -0.016918053222433616 -0.028977184686755992 0.014181846182480449 0.0018562743559505002 0.03076112120034525 -0.0068162872124578004 -0.042334902326354416 -0.029816465607892747 0.028815682480412261 0.021818298707391628 -0.037654577899417008 0.0077399610635620775 0.0075828123008055059 -0.030424224122143739 -0.014665894823463844 -0.0035767399087758365 0.040849427921309633 -0.022521378301347511 0.0022634710310111667 -0.016439421681946762 -0.0063559310490058536 0.0016529600529597616 -0.058348591253161435 -0.0057571701712979435 0.00068468328844755897 -0.0028335053914557459 -0.0087647700024443484 0.019271859078898244 0.015001603129721887 -0.0014519285639687405 -0.039024112322463743
leaf_weight=3966 5572 2280 4031 2568 3314 4138 1892 754 1572 1340 460 548 4161 369 652 551 422 1648 487 4201 367 1185 2364 1094 458 1046 262 335 2279 363 752 1851 1396 686 511 498 1072 215 173 533 1343 97 160 1640 371 639 922 1643 209 110 689 180 265 54 940 325 380 189 1012 1473 123 194
leaf_count=3966 5572 2280 4031 2568 3314 4138 1892 754 1572 1340 460 548 4161 369 652 551 422 1648 487 4201 367 1185 2364 1094 458 1046 262 335 2279 363 752 1851 1396 686 511 498 1072 215 173 533 1343 97 160 1640 371 639 922 1643 209 110 689 180 265 54 940 325 380 189 1012 1473 123 194
internal_value=0 0.0151241 -0.0139856 0.0256892 -0.00871578 -0.0105475 0.00706304 0.0056892 0.0047725 0.00263732 -0.00705585 0.00118086 -0.0260494 0.0358808 0.000280782 -0.00070851 -0.0016516 -0.00627021 -0.00775204 -0.000792257 -0.00858894 0.0212662 -0.00931987 0.0198727 0.0184774 0.0174646 -0.0114135 -0.015592 -0.0163322 -0.0121616 -0.022885 -0.0242073 -0.0185518 0.00192523 -0.0130393 0.0157685 -0.0162342 -0.0185821 -0.00404609 0.0146442 0.0134075 -0.00336199 0.0338666 0.0136178 -0.0140863 -0.00284386 -0.0132078 0.0348593 -0.00153711 -0.0267392 -0.0273505 -0.02901 0.0190056 -0.0173319 -0.0146934 -0.0163611 -0.0175368 -0.0299474 0.011037 0.00881647 -0.0267483 -0.0188266
internal_weight=0 36189 39135 15662 27237 23237 20527 18635 17881 14404 13732 13064 11898 4740 12516 11864 11313 13272 11624 10891 11137 10922 10770 9737 8643 8185 8406 9505 9170 8144 7932 7180 6891 4000 7781 7139 5372 4300 6690 6641 6108 6517 4371 3477 7270 6420 6899 4211 5781 5329 5219 4530 1837 4085 5977 5037 4712 4350 4765 3753 1519 4332
internal_count=75324 36189 39135 15662 27237 23237 20527 18635 17881 14404 13732 13064 11898 4740 12516 11864 11313 13272 11624 10891 11137 10922 10770 9737 8643 8185 8406 9505 9170 8144 7932 7180 6891 4000 7781 7139 5372 4300 6690 6641 6108 6517 4371 3477 7270 6420 6899 4211 5781 5329 5219 4530 1837 4085 5977 5037 4712 4350 4765 3753 1519 4332
shrinkage=0.05


Tree=12
num_leaves=63
num_cat=0
split_feature=99 99 99 97 99 95 99 84 85 99 86 92 50 76 80 73 80 92 76 89 75 91 89 37 77 37 54 84 95 50 88 44 56 50 92 86 77 95 77 47 49 63 83 91 79 83 50 69 90 71 76 44 75 70 70 37 89 73 79 84 20 88
split_gain=5766.22 1233.51 751.647 216.355 212.895 192.432 191.824 176.301 148.208 132.703 121.135 108.426 105.765 98.9772 93.7123 74.305 70.7168 69.1085 67.9581 66.7979 65.3455 61.3445 61.8994 60.1596 63.9398 58.5447 54.9048 54.4034 53.9192 53.8308 53.2614 55.4272 53.0092 52.8358 52.7655 52.7544 51.0393 49.5829 49.464 48.8477 47.4059 46.802 46.2288 46.0288 43.9722 42.6738 41.0897 39.8526 39.512 38.7638 37.3795 37.2246 36.9309 36.6498 35.6446 35.7074 35.4236 34.8997 34.8077 34.7791 34.7611 34.5077
threshold=30.500000000000004 16.500000000000004 61.500000000000007 1.0000000180025095e-35 13.500000000000002 1.0000000180025095e-35 40.500000000000007 1.0000000180025095e-35 1.0000000180025095e-35 130.50000000000003 1.0000000180025095e-35 1.0000000180025095e-35 1.0000000180025095e-35 1.0000000180025095e-35 1.0000000180025095e-35 1.0000000180025095e-35 1.0000000180025095e-35 1.0000000180025095e-35 1.0000000180025095e-35 1.0000000180025095e-35 1.0000000180025095e-35 1.0000000180025095e-35 1.0000000180025095e-35 1.0000000180025095e-35 1.0000000180025095e-35 1.0000000180025095e-35 1.0000000180025095e-35 1.0000000180025095e-35 1.0000000180025095e-35 1.0000000180025095e-35 1.0000000180025095e-35 1.0000000180025095e-35 1.0000000180025095e-35 1.0000000180025095e-35 1.0000000180025095e-35 1.0000000180025095e-35 1.0000000180025095e-35 1.0000000180025095e-35 1.0000000180025095e-35 1.0000000180025095e-35 1.0000000180025095e-35 1.0000000180025095e-35 1.0000000180025095e-35 1.0000000180025095e-35 1.0000000180025095e-35 1.0000000180025095e-35 1.0000000180025095e-35 1.0000000180025095e-35 1.0000000180025095e-35 1.0000000180025095e-35 1.0000000180025095e-35 1.0000000180025095e-35 1.0000000180025095e-35 1.0000000180025095e-35 1.0000000180025095e-35 1.0000000180025095e-35 1.0000000180025095e-35 1.0000000180025095e-35 1.0000000180025095e-35 1.0000000180025095e-35 1.0000000180025095e-35 1.0000000180025095e-35
decision_type=2 2 2 2 2 2 2 2 2 2 2 2 2 2 2 2 2 2 2 2 2 2 2 2 2 2 2 2 2 2 2 2 2 2 2 2 2 2 2 2 2 2 2 2 2 2 2 2 2 2 2 2 2 2 2 2 2 2 2 2 2 2
left_child=1 4 6 5 19 7 15 8 10 25 11 12 13 14 20 16 18 21 28 23 32 22 30 24 27 41 -15 33 29 35 31 37 36 45 43 59 39 42 51 40 47 44 48 46 56 -1 50 49 52 54 -6 -28 58 -14 55 -3 57 -4 -8 -2 -5 -9
right_child=2 3 9 60 34 -7 17 61 -10 -11 -12 -13 53 26 -16 -17 -18 -19 -20 -21 -22 -23 -24 -25 -26 -27 38 -29 -30 -31 -32 -33 -34 -35 -36 -37 -38 -39 -40 -41 -42 -43 -44 -45 -46 -47 -48 -49 -50 -51 -52 -53 -54 -55 -56 -57 -58 -59 -60 -61 -62 -63
leaf_value=-0.03682764736280001 -0.0074169069048020042 -0.026201454857291934 0.020193799270704443 0.019790097160384781 -0.021359637180443456 0.012442441437698279 0.0070943706217691978 0.0030180424902977246 0.0068023187623918492 0.045395630807556972 0.0030067295980320576 0.0098022793349378454 -0.0049543083730674807 -0.00012379032470235605 -0.0067974235692334246 0.022899515932201995 0.014684751646559481 0.03228607075456446 0.010521586807575877 -0.013231906532396608 -0.040387948272743814 0.026437118486609706 0.025429653789070875 -0.020351393915046319 -0.0095888157289669342 0.03359717641476035 -0.018663370900538066 -0.016539338461303971 0.018130080249892072 0.011075953393762621 0.035413907580517649 0.028148130042950293 -0.00067836644208078747 -0.023655511651016831 0.0064515675453566098 0.016414258650830928 -0.0069962732875841413 0.023398352626922192 0.011804508267041406 -0.0062845808183641097 -0.0032537257548567304 0.044703928108639934 0.017469616555676564 -0.0015797754262921215 -0.0054789860700467201 -0.022083139274442613 -0.010580322768712781 -0.0053133565024852773 0.01638020001935046 0.007057414724535885 -0.010812698082785991 0.012226058598080616 -0.022752029570262566 0.013207999562661424 0.010155267308333091 -0.016033703268165944 0.036511820302791119 0.034207315010640137 -0.017515183250801074 0.0058944996683302948 -0.0063749990821013172 0.02854060886714159
leaf_weight=4018 2940 4199 3276 1019 4318 1416 4027 3285 1538 1187 1820 634 3110 1926 2432 701 1886 667 2538 890 312 1181 1112 2178 367 2448 1221 588 398 763 254 508 465 1315 269 307 918 738 179 629 358 259 1512 511 133 559 1802 337 1025 105 1043 106 113 305 77 1087 480 514 149 589 145 138
leaf_count=4018 2940 4199 3276 1019 4318 1416 4027 3285 1538 1187 1820 634 3110 1926 2432 701 1886 667 2538 890 312 1181 1112 2178 367 2448 1221 588 398 763 254 508 465 1315 269 307 918 738 179 629 358 259 1512 511 133 559 1802 337 1025 105 1043 106 113 305 77 1087 480 514 149 589 145 138
internal_value=0 -0.0111633 0.0171438 -0.00456897 -0.0214143 -0.00549239 0.0121923 -0.00650092 -0.00816033 0.0299196 -0.00929844 -0.0105156 -0.0112406 -0.0131226 -0.0154505 0.00719461 0.00602604 0.0166746 0.00385877 -0.0263006 -0.0179301 0.015694 0.0143497 -0.0275894 -0.0298918 0.027336 -0.00571603 -0.0310417 0.000474696 -0.00105321 0.0128699 0.0121605 -0.017073 -0.032489 -0.0153149 -0.00346576 -0.0180618 0.0110867 -0.0128679 -0.0195574 -0.0209121 0.0240482 0.00975565 -0.0160779 0.0228332 -0.0350269 -0.0171121 -0.0220011 0.00756078 -0.0230295 -0.0193077 -0.0161959 0.00545309 -0.0033322 -0.0236186 -0.0241106 0.023715 0.0220943 0.0062163 -0.0051952 0.0165307 0.004047
internal_weight=0 45619 29705 27761 17858 26597 21408 25181 21758 8297 20220 18400 17766 14351 10919 10122 9421 11286 7535 9915 8487 10619 9438 9025 6847 7110 3432 6480 4997 4599 8326 8072 8175 5892 7943 3836 7710 7564 1506 6792 6163 4662 6826 7674 4403 4577 7163 5805 5314 5468 5361 1327 4289 3415 5363 5286 4270 3790 4176 3529 1164 3423
internal_count=75324 45619 29705 27761 17858 26597 21408 25181 21758 8297 20220 18400 17766 14351 10919 10122 9421 11286 7535 9915 8487 10619 9438 9025 6847 7110 3432 6480 4997 4599 8326 8072 8175 5892 7943 3836 7710 7564 1506 6792 6163 4662 6826 7674 4403 4577 7163 5805 5314 5468 5361 1327 4289 3415 5363 5286 4270 3790 4176 3529 1164 3423
shrinkage=0.05


Tree=13
num_leaves=63
num_cat=0
split_feature=99 99 99 99 99 92 80 85 91 97 84 84 87 98 86 11 98 98 95 93 92 97 97 50 76 89 95 99 90 70 89 40 88 84 95 33 86 99 47 70 64 86 70 67 79 89 11 90 79 67 49 67 56 86 39 37 47 85 47 76 59 87
split_gain=5227.69 1000.67 806.087 234.862 219.329 135.52 127.985 116.288 114.035 105.89 101.134 91.1313 84.072 81.425 78.7112 80.9893 74.0352 72.4251 71.9519 69.7917 66.61 67.3435 66.5795 66.3996 78.2328 66.2898 65.9783 64.7775 63.7428 63.5638 63.5489 63.5212 61.145 56.1981 53.5256 53.3095 51.7752 51.26 51.2065 47.4617 47.453 46.9631 46.4825 46.6606 45.7406 45.6285 45.4853 44.2193 43.389 42.0953 41.3392 40.9938 38.8728 39.7617 37.9884 36.7331 37.4587 36.4906 36.0283 34.9325 34.8731 36.201
threshold=26.500000000000004 47.500000000000007 13.500000000000002 88.500000000000014 18.500000000000004 1.0000000180025095e-35 1.0000000180025095e-35 1.0000000180025095e-35 1.0000000180025095e-35 1.0000000180025095e-35 1.0000000180025095e-35 1.0000000180025095e-35 1.0000000180025095e-35 1.0000000180025095e-35 1.0000000180025095e-35 1.0000000180025095e-35 1.0000000180025095e-35 1.0000000180025095e-35 1.0000000180025095e-35 1.0000000180025095e-35 1.0000000180025095e-35 1.0000000180025095e-35 1.0000000180025095e-35 1.0000000180025095e-35 1.0000000180025095e-35 1.0000000180025095e-35 1.0000000180025095e-35 235.50000000000003 1.0000000180025095e-35 1.0000000180025095e-35 1.0000000180025095e-35 1.0000000180025095e-35 1.0000000180025095e-35 1.0000000180025095e-35 1.0000000180025095e-35 1.0000000180025095e-35 1.0000000180025095e-35 8.5000000000000018 1.0000000180025095e-35 1.0000000180025095e-35 1.0000000180025095e-35 1.0000000180025095e-35 1.0000000180025095e-35 1.0000000180025095e-35 1.0000000180025095e-35 1.0000000180025095e-35 1.0000000180025095e-35 1.0000000180025095e-35 1.0000000180025095e-35 1.0000000180025095e-35 1.0000000180025095e-35 1.0000000180025095e-35 1.0000000180025095e-35 1.0000000180025095e-35 1.0000000180025095e-35 1.0000000180025095e-35 1.0000000180025095e-35 1.0000000180025095e-35 1.0000000180025095e-35 1.0000000180025095e-35 1.0000000180025095e-35 1.0000000180025095e-35
decision_type=2 2 2 2 2 2 2 2 2 2 2 2 2 2 2 2 2 2 2 2 2 2 2 2 2 2 2 2 2 2 2 2 2 2 2 2 2 2 2 2 2 2 2 2 2 2 2 2 2 2 2 2 2 2 2 2 2 2 2 2 2 2
left_child=2 5 28 17 16 6 7 9 10 11 13 12 14 18 15 23 20 19 22 26 21 30 25 24 38 35 29 57 32 31 34 33 37 36 41 40 46 -1 44 45 48 42 43 50 51 52 47 60 49 54 -4 -2 53 55 59 56 -39 -5 -56 -6 61 -3
right_child=1 3 4 27 8 -7 -8 -9 -10 -11 -12 -13 -14 -15 -16 -17 -18 -19 -20 -21 -22 -23 -24 -25 -26 -27 -28 -29 -30 -31 -32 -33 -34 -35 -36 -37 -38 39 -40 -41 -42 -43 -44 -45 -46 -47 -48 -49 -50 -51 -52 -53 -54 -55 58 -57 -58 -59 -60 -61 -62 -63
leaf_value=-0.038553076824399957 -0.0099491042806116262 0.0098545262318251638 -0.019521216555617723 0.030115193598297091 -0.010900399337095126 0.024083900425427268 0.013481217199139193 0.017166196053090308 0.0095770550601795793 0.020217446897652508 0.0042532067229581671 0.010577870183885145 0.012132895716435782 -0.028595984031122526 0.012990346753201402 -0.0256124600221878 -0.030495644444611354 -0.024008349226086693 0.009766062451466823 0.037300783202850393 0.0070080590612175394 0.0073925204834032702 0.011733593779590976 0.0080634916232393689 0.0031551491994551242 0.0027400978595795008 0.030426601090663544 0.054825944982094477 -0.011379140759630112 0.04465985467918987 -0.0032719972006560009 0.03733695906924251 -0.005611926306911541 0.024777116210476364 0.0038205360799949042 0.00011300970454301153 0.028127439388432287 -0.032342163134774546 0.0089339331598136413 0.0041257044265112482 -0.041594969752430919 -0.0039924728777483024 0.006055545915611262 -0.0068007263215620131 -0.035913592796892893 -0.013377944301649073 -0.0054550234327933149 0.022224291648381536 -0.026500584440409692 -0.00086328673667425285 -0.0027250158766108073 0.0051303278479040435 -0.010630499978399953 -0.011137252990720634 -0.018556506011993417 -0.022038226423911102 -0.016590595437294808 0.045354464806317316 0.0064630969532675324 -0.00058067936133524847 0.030252520838840814 0.021789790624573542
leaf_weight=863 4124 4455 7557 2656 4183 1033 3994 1404 1297 761 2119 2109 1138 443 786 396 602 93 624 574 421 383 427 1274 2423 1201 1221 358 792 221 1248 390 348 1782 356 1225 681 4622 424 131 125 762 215 918 155 635 297 1470 408 1139 385 506 331 326 2007 1456 411 461 155 1020 262 741
leaf_count=863 4124 4455 7557 2656 4183 1033 3994 1404 1297 761 2119 2109 1138 443 786 396 602 93 624 574 421 383 427 1274 2423 1201 1221 358 792 221 1248 390 348 1782 356 1225 681 4622 424 131 125 762 215 918 155 635 297 1470 408 1139 385 506 331 326 2007 1456 411 461 155 1020 262 741
internal_value=0 0.0136979 -0.0126667 0.0232163 -0.00848664 0.00643535 0.00550014 0.00344359 -0.00464943 0.00207678 -0.00587335 0.00104154 -0.000750031 -0.00752945 -0.00220332 -0.00348715 -0.013377 0.0199468 -0.00678369 0.0202848 -0.0125354 -0.0132313 -0.00765224 -0.00250336 -0.00426728 -0.00837437 0.0194369 0.0346826 -0.0249856 0.0181341 -0.0139217 0.0175524 -0.0261668 0.0167559 -0.0152256 -0.00967514 0.014948 -0.026982 -0.00771987 -0.0257199 -0.011002 -0.0159148 -0.0169159 -0.0174734 -0.00919556 -0.0262224 0.0137057 0.0145271 -0.0105729 -0.00980869 -0.018707 -0.00830111 -0.0273637 -0.0281765 -0.0111921 -0.0290325 -0.0310559 0.0323691 -0.0167628 -0.00887731 0.0124541 0.0115566
internal_weight=0 36189 39135 15662 29220 20527 19494 15500 16373 14096 15076 13335 11226 12957 10088 9302 12847 12187 12514 12094 12245 11824 11890 8906 7632 11463 11520 3475 9915 10299 11441 10078 9123 9688 10193 10262 7906 8775 5209 7912 9037 9837 9075 8860 4785 7781 7225 6928 8912 8504 7942 4630 7146 6815 7365 6489 5033 3117 2162 5203 5458 5196
internal_count=75324 36189 39135 15662 29220 20527 19494 15500 16373 14096 15076 13335 11226 12957 10088 9302 12847 12187 12514 12094 12245 11824 11890 8906 7632 11463 11520 3475 9915 10299 11441 10078 9123 9688 10193 10262 7906 8775 5209 7912 9037 9837 9075 8860 4785 7781 7225 6928 8912 8504 7942 4630 7146 6815 7365 6489 5033 3117 2162 5203 5458 5196
shrinkage=0.05


Tree=14
num_leaves=63
num_cat=0
split_feature=99 99 99 99 90 89 96 98 70 57 94 88 91 96 99 29 64 95 87 88 99 84 65 28 84 65 66 80 65 79 50 39 76 86 77 37 95 98 74 39 67 50 76 37 50 77 93 93 20 89 44 90 90 85 90 69 39 76 9 84 64 44
split_gain=4736.94 1126.5 527.709 272.24 167.1 139.199 126.445 120.196 111.649 109.984 106.908 102.999 105.272 95.9322 91.6045 90.8582 88.7399 85.1119 81.2094 86.7467 80.3195 72.4195 67.5692 67.2081 59.8985 58.9875 59.097 57.9378 54.1555 53.1491 52.3431 51.6887 56.2989 50.1289 50.7028 53.1311 48.4613 46.9777 46.8001 46.0173 44.748 43.5592 41.0538 40.0803 39.7447 39.0854 37.8728 37.3557 36.781 36.6904 43.689 34.8328 34.5995 33.7273 33.6556 34.8056 39.5289 33.7465 33.3287 32.0061 31.6591 30.6937
threshold=34.500000000000007 18.500000000000004 65.500000000000014 13.500000000000002 1.0000000180025095e-35 1.0000000180025095e-35 1.0000000180025095e-35 1.0000000180025095e-35 1.0000000180025095e-35 1.0000000180025095e-35 1.0000000180025095e-35 1.0000000180025095e-35 1.0000000180025095e-35 1.0000000180025095e-35 140.50000000000003 1.0000000180025095e-35 1.0000000180025095e-35 1.0000000180025095e-35 1.0000000180025095e-35 1.0000000180025095e-35 41.500000000000007 1.0000000180025095e-35 1.0000000180025095e-35 1.0000000180025095e-35 1.0000000180025095e-35 1.0000000180025095e-35 1.0000000180025095e-35 1.0000000180025095e-35 1.0000000180025095e-35 1.0000000180025095e-35 1.0000000180025095e-35 1.0000000180025095e-35 1.0000000180025095e-35 1.0000000180025095e-35 1.0000000180025095e-35 1.0000000180025095e-35 1.0000000180025095e-35 1.0000000180025095e-35 1.0000000180025095e-35 1.0000000180025095e-35 1.0000000180025095e-35 1.0000000180025095e-35 1.0000000180025095e-35 1.0000000180025095e-35 1.0000000180025095e-35 1.0000000180025095e-35 1.0000000180025095e-35 1.0000000180025095e-35 1.0000000180025095e-35 1.0000000180025095e-35 1.0000000180025095e-35 1.0000000180025095e-35 1.0000000180025095e-35 1.0000000180025095e-35 1.0000000180025095e-35 1.0000000180025095e-35 1.0000000180025095e-35 1.0000000180025095e-35 1.0000000180025095e-35 1.0000000180025095e-35 1.0000000180025095e-35 1.0000000180025095e-35
decision_type=2 2 2 2 2 2 2 2 2 2 2 2 2 2 2 2 2 2 2 2 2 2 2 2 2 2 2 2 2 2 2 2 2 2 2 2 2 2 2 2 2 2 2 2 2 2 2 2 2 2 2 2 2 2 2 2 2 2 2 2 2 2
left_child=1 3 6 24 5 7 9 8 10 11 13 12 15 16 36 17 18 20 19 22 59 25 23 27 28 26 30 29 33 31 38 32 -3 34 35 41 43 49 40 58 45 42 47 52 61 46 54 -1 -21 50 51 53 -4 -22 55 56 57 -5 60 -2 -6 -33
right_child=2 4 14 21 39 -7 -8 -9 -10 -11 -12 -13 -14 -15 -16 -17 -18 -19 -20 48 37 -23 -24 -25 -26 -27 -28 -29 -30 -31 -32 44 -34 -35 -36 -37 -38 -39 -40 -41 -42 -43 -44 -45 -46 -47 -48 -49 -50 -51 -52 -53 -54 -55 -56 -57 -58 -59 -60 -61 -62 -63
leaf_value=-0.035542036607707155 0.0026539784370194401 -0.011809298225977418 0.018339464348384384 -0.024969727730301261 0.013172491338850876 0.0077907114633608415 0.023554054415875346 -0.027758675876826251 0.017144720801002142 -0.0019500208380998228 0.01310623316122759 0.03366113456267901 0.022681864291710447 0.0098358284173313722 0.042402513956535715 -0.012548867343558055 -0.037043475498494002 0.022791731757716271 0.0051592401310225425 0.013776943485507842 0.0075651597108972266 -0.0026616653730057943 0.0041452222442311419 0.0012940930081066842 -0.011873769734716712 -0.0018467560072853194 -0.0030075635833174482 -0.0036659214560254209 -0.011369424717793834 -0.030409928601267896 -0.0097153428891383863 -0.021041254555152093 -0.00028247201666849983 -0.0093299961579915002 -0.010448487445048844 -0.020382239188012598 0.039193149735007787 -0.025324504144955431 -0.0043470771684430949 9.0895244884427406e-06 -0.0073029522610391241 -0.021881081209361889 -0.022017160533489559 0.03032977115181585 0.0015124202404554273 -0.0064331539584930215 0.0034097272527246723 -0.0018150480647039201 -0.018634874229617567 0.022602777306924855 0.028898351794250016 0.018304455527579751 0.029975342378998338 0.021503826140433831 -0.011695812423042832 -0.0091567716606458203 -0.033386268312973442 -0.011853548915837528 -0.0053603482977277687 0.013339731940856662 -0.043383665502071379 0.00092762187504541807
leaf_weight=3629 4013 4730 2510 2705 2421 2227 2324 584 566 1469 746 547 1888 880 1017 429 244 1339 1331 617 4357 1574 961 1273 961 902 910 2271 673 400 2263 2264 1365 422 436 1752 637 80 545 1594 667 1199 759 1936 248 430 142 84 102 909 356 1254 857 482 611 358 1141 599 289 849 25 171
leaf_count=3629 4013 4730 2510 2705 2421 2227 2324 584 566 1469 746 547 1888 880 1017 429 244 1339 1331 617 4357 1574 961 1273 961 902 910 2271 673 400 2263 2264 1365 422 436 1752 637 80 545 1594 667 1199 759 1936 248 430 142 84 102 909 356 1254 857 482 611 358 1141 599 289 849 25 171
internal_value=0 -0.009441 0.0166528 -0.017512 -0.00218226 -0.00402775 0.0125793 -0.00543124 -0.00471357 0.0111601 -0.0054164 0.0123271 0.0115957 -0.00623611 0.0285365 0.0101079 -0.00712134 0.0108206 -0.00665728 -0.00774934 0.00951737 -0.0127082 -0.00863887 -0.00960456 -0.0237363 -0.0141109 -0.0151776 -0.0108164 -0.0250095 -0.0125857 -0.0163481 -0.0117734 -0.00922782 -0.026118 -0.0270195 -0.0279928 0.0261625 0.0127841 -0.0184334 0.00676169 -0.0195873 -0.030344 -0.032613 0.0245973 -0.0175564 -0.0209561 -0.0220801 -0.034779 0.00917888 0.0131984 0.0118728 0.0108781 0.0213011 0.00895355 -0.0227487 -0.0241547 -0.0253627 -0.0225918 0.0106972 0.00451992 0.0125944 -0.0194985
internal_weight=0 48071 27253 22762 25309 20980 20296 18753 18169 17972 17603 16503 15956 16857 6957 14068 15977 13639 15733 14402 12300 12847 13683 12722 9915 11273 10371 11449 8954 9178 9461 8778 6095 8281 7859 7423 5940 7438 7198 4329 6653 5671 4472 5303 2683 5986 5556 3713 719 7358 6449 6093 3367 4839 5414 4803 4445 3304 2735 4862 2446 2435
internal_count=75324 48071 27253 22762 25309 20980 20296 18753 18169 17972 17603 16503 15956 16857 6957 14068 15977 13639 15733 14402 12300 12847 13683 12722 9915 11273 10371 11449 8954 9178 9461 8778 6095 8281 7859 7423 5940 7438 7198 4329 6653 5671 4472 5303 2683 5986 5556 3713 719 7358 6449 6093 3367 4839 5414 4803 4445 3304 2735 4862 2446 2435
shrinkage=0.05


Tree=15
num_leaves=63
num_cat=0
split_feature=99 99 99 99 90 99 89 67 98 70 54 96 86 76 37 99 70 69 85 98 82 86 80 50 86 91 50 94 6 77 74 77 50 92 86 90 37 93 84 97 47 74 72 66 26 40 96 31 95 96 87 70 22 90 77 73 99 89 86 95 79 11
split_gain=4288.49 819.301 655.1 173.004 163.077 143.54 124.272 107.862 96.428 88.0199 88.0081 93.8592 87.1022 83.1421 81.2728 74.8249 72.6299 70.967 69.1028 66.1599 65.4934 61.6156 61.3792 59.9095 61.6814 57.9981 57.4127 56.7561 54.7749 52.6544 51.4977 54.6533 58.3772 51.3051 48.9348 46.9613 46.9334 46.5776 45.9908 45.9601 43.7513 42.067 41.9249 41.3875 41.125 40.8102 40.8089 40.7762 43.7866 40.7271 43.0356 40.4877 40.1415 39.9509 39.7635 39.6566 36.5005 36.4441 35.7995 34.9331 34.8568 34.6781
threshold=26.500000000000004 53.500000000000007 14.500000000000002 38.500000000000007 1.0000000180025095e-35 112.50000000000001 1.0000000180025095e-35 1.0000000180025095e-35 1.0000000180025095e-35 1.0000000180025095e-35 1.0000000180025095e-35 1.0000000180025095e-35 1.0000000180025095e-35 1.0000000180025095e-35 1.0000000180025095e-35 10.500000000000002 1.0000000180025095e-35 1.0000000180025095e-35 1.0000000180025095e-35 1.0000000180025095e-35 1.0000000180025095e-35 1.0000000180025095e-35 1.0000000180025095e-35 1.0000000180025095e-35 1.0000000180025095e-35 1.0000000180025095e-35 1.0000000180025095e-35 1.0000000180025095e-35 1.0000000180025095e-35 1.0000000180025095e-35 1.0000000180025095e-35 1.0000000180025095e-35 1.0000000180025095e-35 1.0000000180025095e-35 1.0000000180025095e-35 1.0000000180025095e-35 1.0000000180025095e-35 1.0000000180025095e-35 1.0000000180025095e-35 1.0000000180025095e-35 1.0000000180025095e-35 1.0000000180025095e-35 1.0000000180025095e-35 1.0000000180025095e-35 1.0000000180025095e-35 1.0000000180025095e-35 1.0000000180025095e-35 1.0000000180025095e-35 1.0000000180025095e-35 1.0000000180025095e-35 1.0000000180025095e-35 1.0000000180025095e-35 1.0000000180025095e-35 1.0000000180025095e-35 1.0000000180025095e-35 1.0000000180025095e-35 326.50000000000006 1.0000000180025095e-35 1.0000000180025095e-35 1.0000000180025095e-35 1.0000000180025095e-35 1.0000000180025095e-35
decision_type=2 2 2 2 2 2 2 2 2 2 2 2 2 2 2 2 2 2 2 2 2 2 2 2 2 2 2 2 2 2 2 2 2 2 2 2 2 2 2 2 2 2 2 2 2 2 2 2 2 2 2 2 2 2 2 2 2 2 2 2 2 2
left_child=2 3 15 10 6 18 7 8 9 12 14 19 13 17 16 -1 44 27 22 21 -9 26 34 24 25 35 29 30 -16 33 31 32 36 37 38 46 40 41 42 51 52 47 45 -6 55 49 57 48 -12 50 60 53 -4 54 58 -2 -7 59 -17 61 -3 -5
right_child=1 5 4 23 43 56 -8 20 -10 -11 11 -13 -14 -15 28 39 -18 -19 -20 -21 -22 -23 -24 -25 -26 -27 -28 -29 -30 -31 -32 -33 -34 -35 -36 -37 -38 -39 -40 -41 -42 -43 -44 -45 -46 -47 -48 -49 -50 -51 -52 -53 -54 -55 -56 -57 -58 -59 -60 -61 -62 -63
leaf_value=-0.026867873838032349 -0.0015042566893434255 0.0089456203353532517 -0.024957744414717684 0.0025224887391861353 -0.00018599480688261398 0.033736572574418429 0.0020502039131873756 0.010511247576624473 -0.028578135202666163 0.0091729836785093017 -0.012699952976908294 0.015719926615263762 0.00046324078908996217 -0.0051212495887959343 0.018671246914384636 -0.022510780439563897 0.026450870987537203 -0.00063860301956144595 0.031678201665599717 -0.032065972499023217 -0.0061358262765063573 0.016953616775572302 0.02714689959630864 0.021571802906721258 0.023875801026224046 0.02149575299404026 0.01196188843992243 0.0061238949003774813 -0.0079080780657224958 0.0065604511149427135 -0.0036937508405929329 -0.0053143274700209403 -0.010787755023923599 0.014572030137798054 0.030771176864805412 0.015667247358559459 -0.011901139604878834 0.018914252856747745 0.02457132884661499 0.0074960692615588451 -0.0077107494381059329 0.0068242324566951465 0.033508312898526689 0.013306622682549958 0.023795441087531802 0.038618246650760427 0.016814806523946246 0.012971288468738799 0.0060314281700035079 0.024672420793953004 0.022166580128483108 0.0063669763420793144 -0.010967989159302544 -0.0082520525859344461 -0.0042224424784794322 0.022255905416799102 0.057462801200648152 0.016655686350445675 -0.0070919134878225975 0.016566061251578675 -0.019156996210068958 -0.019543282832494707
leaf_weight=3966 2884 3437 4737 4169 3314 1630 2369 880 783 543 3451 848 1444 3142 1889 6150 316 890 1278 177 1798 442 1922 1394 783 862 633 301 216 999 804 936 2164 284 594 1520 1389 163 1201 167 482 416 254 686 192 147 743 186 343 549 636 154 575 712 348 187 180 537 401 427 114 186
leaf_count=3966 2884 3437 4737 4169 3314 1630 2369 880 783 543 3451 848 1444 3142 1889 6150 316 890 1278 177 1798 442 1922 1394 783 862 633 301 216 999 804 936 2164 284 594 1520 1389 163 1201 167 482 416 254 686 192 147 743 186 343 549 636 154 575 712 348 187 180 537 401 427 114 186
